svm_type c_svc
kernel_type rbf
gamma 0.0001
nr_class 2
total_sv 1428
rho -0.62051803920066495
label 0 1
nr_sv 722 706
SV
10 0:3.9 1:0 2:0.0526 3:0 4:0 5:0 6:0 7:0 8:0 9:0 10:1.087 11:0 12:4 13:0 14:0 
10 0:3.8 1:0.2 2:0.1465 3:0.1 4:0.1 5:0.2 6:0.2 7:0 8:0 9:0 10:0 11:0 12:4 13:0 14:0 
10 0:5.3 1:0.2 2:0.1594 3:0.2 4:0.2 5:0.1 6:0.2 7:0.1 8:0.1 9:0 10:0 11:0 12:4 13:0 14:0 
10 0:3.8 1:0.2 2:0.0196 3:0.2 4:0.2 5:0.1 6:0.5 7:0.1 8:0 9:0 10:0 11:0 12:5 13:0 14:0 
10 0:4.3 1:0.2 2:0.0795 3:0.2 4:0.2 5:0.1 6:0.7 7:0.1 8:0 9:0 10:0 11:1.021 12:4 13:0 14:0 
10 0:3.9 1:0.2 2:0.2494 3:0.1 4:0.1 5:0.2 6:0.1 7:0 8:0 9:0 10:0 11:0 12:8 13:0 14:0 
10 0:4.9 1:0.2 2:0.1313 3:0.1 4:0.1 5:0.1 6:0.6 7:0.1 8:0 9:0 10:0 11:0 12:4 13:0 14:0 
10 0:4.5 1:0.2 2:0.2628 3:0 4:0 5:0.2 6:0.1 7:0.3 8:0 9:0 10:0 11:0.704 12:4 13:0 14:0 
9.4379071139569248 0:3 1:0.3 2:0.0407 3:0.5 4:0.5 5:0.1 6:0 7:0.3 8:0 9:0 10:0 11:0 12:4 13:0 14:0 
10 0:4.8 1:0.1 2:0.1803 3:0.6 4:0.6 5:0.1 6:0.3 7:0.1 8:0 9:0 10:0 11:0 12:4 13:0 14:0 
10 0:5.3 1:0.1 2:0.0601 3:0 4:0 5:0.1 6:0.3 7:0.1 8:0 9:0 10:0 11:0 12:4 13:0 14:0 
10 0:4.7 1:0.6 2:0.0746 3:0.1 4:0.1 5:0.2 6:0.1 7:0 8:0 9:0 10:0 11:0 12:6 13:0 14:0 
10 0:4.1 1:0.2 2:0.1001 3:0.1 4:0.1 5:0.1 6:0 7:0.1 8:0 9:0 10:0 11:0 12:4.8 13:0 14:0 
10 0:3 1:0.2 2:0.1278 3:0.1 4:0.1 5:0.1 6:0.9 7:0.1 8:0 9:0 10:2.5065 11:0 12:4 13:0 14:0 
10 0:3 1:0.2 2:0.0404 3:0 4:0 5:0.1 6:0.5 7:0.1 8:0 9:0 10:1.2035 11:0 12:4 13:0 14:0 
10 0:4.8 1:0.2 2:0.1016 3:0.1 4:0.1 5:0.1 6:0.7 7:0.1 8:0 9:0 10:0 11:0 12:4 13:0 14:0 
10 0:4 1:0.2 2:0.0219 3:0.6 4:0.6 5:0.1 6:0 7:0.1 8:0 9:0 10:0 11:0 12:4 13:0 14:0 
10 0:5.2 1:0.2 2:0.1878 3:0 4:0 5:0.1 6:0.4 7:0.1 8:0 9:0 10:0 11:0 12:4 13:0.1 14:0 
10 0:5.9 1:0.2 2:0.1086 3:0.1 4:0.1 5:0.1 6:0.5 7:0.1 8:0 9:0 10:0 11:0 12:4.8 13:0 14:0 
10 0:3.3 1:0.2 2:0.1372 3:0.3 4:0.3 5:0.1 6:0.3 7:0.1 8:0 9:0 10:0 11:0 12:5 13:0 14:0 
10 0:5.7 1:0.2 2:0.1698 3:0.7 4:0.7 5:0.1 6:0.3 7:0.1 8:0 9:0 10:0 11:0 12:4 13:0 14:0 
10 0:3 1:0.2 2:0.08 3:0.1 4:0.1 5:0.1 6:0.5 7:0.2 8:0.2 9:0.1 10:0 11:0.7865 12:3.5 13:0.5 14:0 
10 0:2.9 1:0.4 2:0.0785 3:0.5 4:0.5 5:0 6:0.2 7:0 8:0 9:0 10:0 11:0 12:5 13:0 14:0 
10 0:1.7 1:0.5 2:0.2071 3:1.2 4:1.2 5:0 6:0.5 7:0.3 8:0 9:0.1 10:17.0475 11:0 12:3.2 13:0 14:0 
10 0:4.2 1:0.2 2:0.0847 3:0.1 4:0.1 5:0.1 6:0.2 7:0.1 8:0 9:0 10:0 11:0 12:4 13:0 14:0 
10 0:2.8 1:0.2 2:0.2566 3:0.5 4:0.5 5:0.1 6:0.5 7:0.2 8:0 9:0.1 10:2.032 11:0 12:2.5 13:0 14:0 
10 0:5.3 1:0.2 2:0.065 3:0.4 4:0.4 5:0.1 6:0.2 7:0.1 8:0 9:0 10:0 11:0 12:5 13:0 14:0 
10 0:5.6 1:0.6 2:0.2058 3:0.5 4:0.5 5:0.1 6:0.5 7:0.1 8:0 9:0 10:0 11:0 12:5 13:0 14:0 
10 0:5.5 1:0.2 2:0.1681 3:0.5 4:0.5 5:0.1 6:0.5 7:0.1 8:0 9:0 10:0 11:0 12:5.6 13:0 14:0 
10 0:4 1:0.2 2:0.0807 3:0 4:0 5:0.1 6:0.1 7:0.1 8:0 9:0 10:0 11:0 12:6 13:0 14:0 
10 0:2 1:0.2 2:0.0759 3:0.5 4:0.5 5:0 6:0 7:0.3 8:0 9:0.1 10:0 11:0.8595 12:2.8 13:0 14:0 
10 0:3.5 1:0.5 2:0.0878 3:0.1 4:0.1 5:0.1 6:0.5 7:0.1 8:0 9:0 10:0 11:0 12:4 13:0 14:0 
10 0:2.4 1:0.2 2:0.0294 3:0.1 4:0.1 5:0 6:0.4 7:0 8:0 9:0.1 10:0 11:0.881 12:4 13:0 14:0 
10 0:3.8 1:0.1 2:0.0822 3:0.1 4:0.1 5:0.1 6:0.6 7:0.1 8:0 9:0 10:2.193 11:0 12:3.5 13:0 14:0 
10 0:3.7 1:0.2 2:0.1726 3:0 4:0 5:0.1 6:0.5 7:0.1 8:0 9:0 10:0 11:0 12:5 13:0 14:0 
10 0:4.3 1:0.1 2:0.0387 3:0.1 4:0.1 5:0.1 6:0.6 7:0.1 8:0 9:0 10:0 11:0 12:6 13:0 14:0 
10 0:6.1 1:0.6 2:0.0452 3:0.1 4:0.1 5:0.1 6:0.6 7:0.1 8:0 9:0 10:0 11:0 12:4 13:0 14:0 
10 0:6.4 1:0.2 2:0.1231 3:0.2 4:0.2 5:0.1 6:0.6 7:0.1 8:0 9:0 10:0 11:1.0895 12:4 13:0 14:0 
10 0:4.8 1:0.2 2:0.1275 3:0.1 4:0.1 5:0.1 6:0.6 7:0.1 8:0 9:0 10:0 11:0 12:4.6 13:0 14:0 
10 0:7.1 1:0.1 2:0.3357 3:0.5 4:0.5 5:0.4 6:0.5 7:0.4 8:0.1 9:0 10:0 11:0.908 12:0.2 13:0 14:0 
10 0:4.2 1:0.2 2:0.1552 3:0 4:0 5:0.4 6:0.4 7:0.5 8:0.1 9:0 10:0 11:0 12:5 13:0 14:0 
10 0:3.9 1:0.3 2:0.1599 3:0.6 4:0.6 5:0 6:0.1 7:0 8:0 9:0 10:0 11:0 12:4.2 13:0 14:0 
10 0:2.7 1:0.2 2:0.0849 3:0.1 4:0.1 5:0 6:0.4 7:0 8:0 9:0 10:0 11:0.99 12:4 13:0 14:0 
7.1753366461557793 0:3.4 1:0.2 2:0.3286 3:0.1 4:0.1 5:0 6:0.2 7:0 8:0.1 9:0 10:0 11:0 12:4 13:0 14:0 
10 0:3.3 1:0.2 2:0.0253 3:0 4:0 5:0.1 6:0.3 7:0.1 8:0 9:0 10:0 11:0 12:6.5 13:0 14:0 
10 0:3.4 1:0.2 2:0.2065 3:0.1 4:0.1 5:0.1 6:0 7:0.1 8:0.1 9:0 10:0 11:0 12:4 13:0 14:0 
10 0:5.3 1:0.5 2:0.0918 3:0 4:0 5:0.2 6:0.5 7:0 8:0 9:0.1 10:0 11:0 12:5 13:0 14:0 
10 0:4.1 1:0.4 2:0.3558 3:0 4:0 5:0.1 6:0.6 7:0.1 8:0.1 9:0 10:0 11:0 12:4 13:0 14:0 
10 0:2.6 1:0.2 2:0.2698 3:0.3 4:0.3 5:0 6:0.3 7:0 8:0 9:0.1 10:0 11:0.938 12:4 13:0 14:0 
10 0:4.2 1:0.4 2:0.1731 3:0.5 4:0.5 5:0 6:0.3 7:0 8:0 9:0.1 10:0 11:0.67 12:4 13:0 14:0 
10 0:3.5 1:0.2 2:0.0246 3:0.1 4:0.1 5:0.2 6:0.6 7:0 8:0 9:0 10:0 11:0 12:6 13:0 14:0 
10 0:4.4 1:0.4 2:0.1093 3:0.1 4:0.1 5:0.1 6:0.7 7:0.1 8:0.1 9:0 10:0 11:0 12:4 13:0 14:0 
10 0:3.8 1:0.2 2:0.124 3:0 4:0 5:0.1 6:0.5 7:0.1 8:0 9:0 10:0 11:0 12:5 13:1.4 14:0 
10 0:4.5 1:0.2 2:0.0743 3:0 4:0 5:0.1 6:0.3 7:0.1 8:0 9:0 10:0 11:0 12:5.5 13:0 14:0 
10 0:6.4 1:0.5 2:0.1274 3:1.3 4:1.3 5:0.2 6:0.5 7:0 8:0 9:0 10:0 11:0 12:4 13:0 14:0 
10 0:9 1:0.2 2:0.0351 3:0.1 4:0.1 5:0 6:0.4 7:0 8:0.1 9:0 10:0 11:1.103 12:4 13:0 14:0 
10 0:6.6 1:0.1 2:0.1139 3:0.1 4:0.1 5:0.1 6:0.8 7:0.1 8:0 9:0 10:0.7045 11:0 12:5 13:0 14:0 
10 0:3.5 1:0.2 2:0.3658 3:0.2 4:0.2 5:0.4 6:0.7 7:0 8:0.1 9:0 10:1.837 11:0 12:4 13:0 14:0 
10 0:5.9 1:0 2:0.1825 3:0.1 4:0.1 5:0.1 6:0.4 7:0.1 8:0 9:0 10:0 11:0 12:4 13:0 14:0 
10 0:3.8 1:0.2 2:0.1219 3:0.5 4:0.5 5:0.2 6:0.6 7:0 8:0 9:0 10:0 11:0.8705 12:4 13:0 14:0 
10 0:5.6 1:0.2 2:0.1383 3:0.1 4:0.1 5:0.1 6:0 7:0.1 8:0 9:0 10:0 11:0 12:3.5 13:0.5 14:0 
10 0:4.5 1:0.2 2:0.104 3:0.1 4:0.1 5:0.1 6:0 7:0.1 8:0 9:0 10:0 11:0 12:4 13:0.5 14:0 
10 0:4.5 1:0.2 2:0.0666 3:0.1 4:0.1 5:0.1 6:0.5 7:0.1 8:0 9:0 10:0 11:0 12:6 13:0 14:0 
10 0:5.9 1:0.2 2:0.0992 3:0.5 4:0.5 5:0.1 6:0.5 7:0.1 8:0 9:0 10:2.032 11:0 12:4 13:0 14:0 
10 0:1.7 1:0.2 2:0.1299 3:0.4 4:0.4 5:0 6:0.4 7:0.3 8:0 9:0 10:0.5275 11:0 12:2.4 13:0 14:0 
10 0:5 1:0.1 2:0.0208 3:0.3 4:0.3 5:0.1 6:0.8 7:0.1 8:0 9:0 10:1.2035 11:0 12:9.8 13:0 14:0 
10 0:4.3 1:0.2 2:0.3246 3:0.1 4:0.1 5:0.1 6:0.2 7:0.1 8:0.1 9:0 10:0 11:0 12:4 13:0 14:0 
10 0:5 1:0.2 2:0.1199 3:0.5 4:0.5 5:0.2 6:0.4 7:0 8:0 9:0 10:0 11:0 12:4.5 13:0 14:0 
0.72169399668311296 0:5 1:0.2 2:0.1317 3:0.8 4:0.8 5:0.1 6:0.6 7:0.1 8:0 9:0 10:0 11:0 12:4 13:1.8 14:0 
10 0:3.6 1:0.2 2:0.1361 3:0 4:0 5:0.1 6:0.3 7:0.1 8:0 9:0 10:0 11:0 12:4.5 13:0 14:0 
10 0:2.9 1:0.4 2:0.1497 3:0 4:0 5:0 6:1.1 7:0 8:0 9:0 10:0 11:0 12:5.6 13:0 14:0 
10 0:3.7 1:0.6 2:0.039 3:0 4:0 5:0.2 6:0.5 7:0 8:0 9:0.1 10:0 11:0 12:6 13:0 14:0 
10 0:3.9 1:0.5 2:0.1069 3:0.3 4:0.3 5:0.1 6:0.5 7:0.2 8:0.2 9:0.1 10:1.732 11:0 12:4 13:0.5 14:0 
10 0:3.8 1:0.2 2:0.1151 3:0.1 4:0.1 5:0.2 6:0.5 7:0 8:0 9:0 10:0 11:0 12:8 13:0 14:0 
10 0:3.9 1:0.1 2:0.1184 3:0.1 4:0.1 5:0.1 6:0.1 7:0.1 8:0 9:0 10:0 11:0 12:4 13:0 14:0 
10 0:4.3 1:0.2 2:0.0342 3:0.5 4:0.5 5:0.1 6:0.6 7:0.1 8:0 9:0 10:0 11:0.7425 12:5 13:0 14:0 
10 0:6.3 1:0.1 2:0.0532 3:0.1 4:0.1 5:0.1 6:0.8 7:0.1 8:0 9:0 10:0 11:0 12:4.5 13:0 14:0 
10 0:5.8 1:0.1 2:0.2181 3:0.1 4:0.1 5:0.1 6:0.2 7:0.1 8:0 9:0 10:0 11:0 12:4 13:0 14:0 
10 0:6.6 1:0.2 2:0.0869 3:0.1 4:0.1 5:0 6:0.7 7:0 8:0 9:0 10:1.025 11:0 12:5.5 13:0 14:0 
10 0:2.6 1:0.2 2:0.1525 3:0 4:0 5:0 6:0 7:0 8:0 9:0 10:0 11:0 12:4 13:0 14:0 
10 0:4.7 1:0.2 2:0.1214 3:0.7 4:0.7 5:0 6:0.4 7:0 8:0 9:0 10:0 11:0 12:4 13:0 14:0 
10 0:5.5 1:0.4 2:0.0669 3:1.2 4:1.2 5:0.1 6:0 7:0.1 8:0 9:0 10:0 11:0 12:4 13:0 14:0 
10 0:5.3 1:0.2 2:0.1648 3:0.1 4:0.1 5:0.1 6:0.7 7:0.1 8:0 9:0 10:0 11:0 12:4 13:0 14:0 
10 0:4.9 1:0.2 2:0.0484 3:0.3 4:0.3 5:0 6:0.3 7:0 8:0 9:0 10:0 11:0 12:6 13:0 14:0 
10 0:4.5 1:0.2 2:0.1774 3:0.1 4:0.1 5:0.1 6:0.4 7:0.1 8:0.1 9:0 10:0 11:0 12:4 13:0 14:0 
10 0:4.3 1:0.1 2:0.1643 3:0 4:0 5:0 6:0.5 7:0 8:0 9:0 10:0 11:0 12:4.2 13:0 14:0 
10 0:4.3 1:0.2 2:0.1227 3:0 4:0 5:0.1 6:0.7 7:0.1 8:0 9:0 10:0 11:0 12:4.5 13:0 14:0 
10 0:5.6 1:0.1 2:0.1243 3:0.5 4:0.5 5:0.1 6:0.5 7:0.1 8:0 9:0 10:0 11:0 12:4.5 13:0 14:0 
10 0:4.4 1:0.2 2:0.1089 3:0.1 4:0.1 5:0 6:0.6 7:0 8:0.1 9:0 10:0 11:0 12:4 13:0 14:0 
10 0:3.8 1:0.2 2:0.1174 3:0.1 4:0.1 5:0.1 6:0.5 7:0.1 8:0 9:0 10:0 11:0 12:5 13:0 14:0 
10 0:5.4 1:0.2 2:0.1184 3:0.1 4:0.1 5:0.2 6:0.7 7:0 8:0 9:0 10:0 11:0 12:4 13:0 14:0 
10 0:4.6 1:0.2 2:0.146 3:1.1 4:1.1 5:0.2 6:0.6 7:0 8:0 9:0.1 10:0 11:1.1695 12:4.5 13:0 14:0 
10 0:2.8 1:0.2 2:0.1131 3:0.8 4:0.8 5:0.1 6:0.2 7:0.1 8:0.4 9:0 10:0 11:1.0895 12:4 13:0.6 14:0 
10 0:3.2 1:0.2 2:0.2477 3:0.5 4:0.5 5:0.1 6:0.1 7:0.1 8:0 9:0 10:0 11:0 12:5 13:0 14:0 
10 0:1.7 1:0.2 2:0.1189 3:0.2 4:0.2 5:0 6:0.2 7:0.3 8:0 9:0 10:1.088 11:0 12:1.8 13:0 14:0 
10 0:3.6 1:0.3 2:0.1733 3:0.3 4:0.3 5:0 6:0.3 7:0 8:0 9:0 10:0 11:0.704 12:4 13:0 14:0 
0.12029165491398497 0:2.3 1:0.2 2:0.139 3:0.1 4:0.1 5:0 6:0.2 7:0 8:0 9:0 10:0 11:0 12:7.2 13:2.3 14:0 
10 0:4.7 1:0.4 2:0.1952 3:0.3 4:0.3 5:0.1 6:0.3 7:0.1 8:0 9:0 10:0 11:0 12:4 13:0 14:0 
10 0:4 1:0.1 2:0.1386 3:0 4:0 5:0.3 6:0.3 7:0 8:0 9:0.1 10:1.087 11:0 12:4 13:0 14:0 
10 0:2.7 1:0.2 2:0.079 3:0.5 4:0.5 5:0 6:0.6 7:0.3 8:0.2 9:0 10:0 11:0.99 12:4 13:1.2 14:0 
10 0:3.4 1:0.4 2:0.1935 3:0.1 4:0.1 5:0 6:0.8 7:0 8:0.1 9:0 10:0.297 11:0 12:6 13:0 14:0 
10 0:5.4 1:0.4 2:0.1962 3:0.1 4:0.1 5:0.1 6:0.7 7:0.1 8:0.1 9:0 10:0 11:0 12:4 13:0 14:0 
10 0:3.2 1:0.2 2:0.0901 3:0 4:0 5:0.1 6:0.3 7:0.1 8:0 9:0 10:0 11:0 12:5 13:0 14:0 
10 0:3.7 1:0.2 2:0.0861 3:0.1 4:0.1 5:0.1 6:0 7:0.2 8:0 9:0.1 10:0 11:0 12:6 13:0 14:0 
10 0:5.2 1:0.2 2:0.0242 3:0.1 4:0.1 5:0.2 6:0.7 7:0.4 8:0 9:0 10:0 11:0 12:4 13:0 14:0 
10 0:3 1:0.2 2:0.2065 3:0.1 4:0.1 5:0 6:0.7 7:0 8:0 9:0 10:0 11:0 12:6 13:0 14:0 
10 0:5.2 1:0.5 2:0.1846 3:1.5 4:1.5 5:0 6:0.5 7:0.5 8:0.1 9:0 10:0.297 11:0 12:4 13:0 14:0 
10 0:6.3 1:0.5 2:0.2727 3:1.3 4:1.3 5:0.1 6:0.5 7:0.1 8:0 9:0 10:0 11:0 12:3.5 13:0 14:0 
10 0:5.9 1:0.4 2:0.1949 3:0.1 4:0.1 5:0.1 6:0.7 7:0.1 8:0 9:0 10:0 11:0 12:4.5 13:0 14:0 
10 0:4.6 1:0.3 2:0.2522 3:0.1 4:0.1 5:0.2 6:0 7:0 8:0 9:0 10:0 11:0 12:4 13:0 14:0 
10 0:3.5 1:0.2 2:0.0219 3:0.6 4:0.6 5:0 6:0.1 7:0 8:0 9:0.1 10:0 11:0 12:6 13:0 14:0 
10 0:6.2 1:0.4 2:0.0775 3:0.1 4:0.1 5:0.1 6:0.7 7:0.1 8:0 9:0 10:0 11:0 12:4 13:0 14:0 
10 0:5.2 1:0.2 2:0.0332 3:0.5 4:0.5 5:0.1 6:0 7:0.1 8:0 9:0 10:0 11:0 12:4 13:0 14:0 
10 0:4.3 1:0.2 2:0.0762 3:0.5 4:0.5 5:0.1 6:0.1 7:0.1 8:0 9:0 10:0 11:0 12:4 13:0 14:0 
10 0:4.9 1:0.2 2:0.0964 3:0.7 4:0.7 5:0.3 6:0.2 7:0.4 8:0 9:0 10:0 11:0.69 12:4.2 13:0 14:0 
10 0:3.8 1:0.1 2:0.1293 3:0.1 4:0.1 5:0.1 6:0.6 7:0.1 8:0 9:0 10:0 11:0 12:5 13:0 14:0 
10 0:4.4 1:0.1 2:0.1377 3:0.3 4:0.3 5:0.1 6:0.3 7:0.1 8:0 9:0 10:0 11:0 12:4 13:0 14:0 
10 0:3.9 1:0.4 2:0.1412 3:1.5 4:1.5 5:0.1 6:1 7:0.1 8:0 9:0 10:0 11:0 12:5 13:0 14:0 
10 0:4.6 1:0.1 2:0.1669 3:0.5 4:0.5 5:0.2 6:0.1 7:0 8:0 9:0 10:0 11:0 12:5 13:0 14:0 
7.1901232298995863 0:2.8 1:0.2 2:0.0775 3:0 4:0 5:0 6:0.7 7:0 8:0 9:0 10:0 11:0 12:5.5 13:0 14:0 
10 0:4.3 1:0.6 2:0.128 3:0.3 4:0.3 5:0.1 6:0.1 7:0.1 8:0 9:0 10:2.5065 11:0 12:4.5 13:0 14:0 
10 0:4.7 1:0.2 2:0.0594 3:0.3 4:0.3 5:0.2 6:0.1 7:0.4 8:0 9:0 10:0 11:0 12:4.2 13:0 14:0 
10 0:5.1 1:0.2 2:0.0648 3:0.1 4:0.1 5:0.1 6:0.3 7:0.1 8:0 9:0 10:0 11:0 12:4 13:0 14:0 
10 0:5.8 1:0.4 2:0.1926 3:0 4:0 5:0 6:0.3 7:0 8:0 9:0.1 10:0 11:0 12:4 13:0 14:0 
10 0:5.9 1:0.2 2:0.1356 3:0.1 4:0.1 5:0.1 6:0.6 7:0.1 8:0 9:0 10:0 11:0 12:4 13:0 14:0 
10 0:2.9 1:0.2 2:0.0233 3:0.5 4:0.5 5:0 6:0 7:0 8:0 9:0 10:0 11:0 12:6 13:0 14:0 
10 0:5.7 1:0.6 2:0.0706 3:0 4:0 5:0.2 6:0.3 7:0 8:0 9:0 10:0 11:0 12:8 13:0 14:0 
10 0:4.2 1:0.5 2:0.0933 3:0.1 4:0.1 5:0.1 6:0.5 7:0.1 8:0 9:0 10:0 11:0 12:4 13:0 14:0 
10 0:2.5 1:0.2 2:0.1361 3:0.5 4:0.5 5:0 6:1 7:0 8:0 9:0 10:1.087 11:0 12:4 13:0 14:0 
10 0:4.9 1:0.2 2:0.0927 3:0 4:0 5:0 6:0.3 7:0 8:0 9:0.1 10:0 11:0 12:4.5 13:0 14:0 
10 0:4.2 1:0.4 2:0.1193 3:0.4 4:0.4 5:0.1 6:0.4 7:0.1 8:0 9:0 10:0 11:0 12:4 13:0 14:0 
4.7380990495063182 0:3.6 1:0.4 2:0.2308 3:0.1 4:0.1 5:0.4 6:0.1 7:0 8:0.1 9:0 10:0 11:0 12:4 13:0 14:0 
10 0:5.2 1:0.2 2:0.1364 3:0.3 4:0.3 5:0.2 6:0.3 7:0 8:0 9:0.1 10:3.4245 11:0 12:6 13:0 14:0 
10 0:2.6 1:0.4 2:0.1413 3:0 4:0 5:0 6:0.3 7:0.3 8:0 9:0 10:0.5275 11:0 12:4 13:0 14:0 
10 0:3.9 1:0.2 2:0.1411 3:0.1 4:0.1 5:0 6:0.2 7:0.3 8:0 9:0 10:0 11:0 12:6 13:0 14:0 
10 0:5 1:0.1 2:0.0775 3:0.1 4:0.1 5:0.1 6:0.1 7:0.1 8:0 9:0 10:0 11:0 12:3.2 13:0 14:0 
10 0:5.2 1:0.6 2:0.0347 3:0 4:0 5:0.1 6:0.5 7:0.1 8:0 9:0 10:0 11:0 12:5.5 13:0 14:0 
10 0:4.7 1:0.2 2:0.1642 3:0.4 4:0.4 5:0.3 6:0.2 7:0.4 8:0 9:0 10:0 11:0 12:4 13:2.4 14:0 
10 0:3.8 1:0.1 2:0.1817 3:0.1 4:0.1 5:0.1 6:0.5 7:0.1 8:0 9:0 10:0 11:0 12:6.4 13:0 14:0 
10 0:5.8 1:0.1 2:0.0243 3:0.1 4:0.1 5:0.1 6:0.6 7:0.1 8:0 9:0 10:0 11:0 12:6 13:0 14:0 
10 0:4.7 1:0.6 2:0.1685 3:1.1 4:1.1 5:0.1 6:0.7 7:0.1 8:0 9:0 10:0 11:0 12:5 13:0.1 14:0 
10 0:6 1:0.2 2:0.1354 3:0.1 4:0.1 5:0.1 6:0.6 7:0.1 8:0 9:0 10:0 11:0 12:4 13:0 14:0 
10 0:5.8 1:0.5 2:0.1077 3:0.1 4:0.1 5:0.1 6:0.5 7:0.1 8:0 9:0 10:0 11:0 12:5 13:0 14:0 
10 0:2.4 1:0.2 2:0.3781 3:0.1 4:0.1 5:0 6:0.1 7:0.5 8:0 9:0 10:2.0505 11:0 12:5 13:0 14:0 
10 0:7 1:0.5 2:0.1137 3:0.4 4:0.4 5:0.6 6:0.5 7:0.4 8:0 9:0.1 10:0.5555 11:0 12:1.5 13:0 14:0 
10 0:3.4 1:0.2 2:0.0725 3:0.1 4:0.1 5:0.1 6:0.6 7:0.1 8:0 9:0 10:0 11:0 12:4.5 13:0 14:0 
10 0:3.5 1:0.2 2:0.1775 3:0.3 4:0.3 5:0 6:0.5 7:0 8:0 9:0 10:0 11:0 12:6 13:0 14:0 
10 0:4.3 1:0.4 2:0.132 3:0.3 4:0.3 5:0 6:0.3 7:0 8:0 9:0 10:0 11:0 12:3.8 13:0 14:0 
10 0:2.7 1:0 2:0.1694 3:0.5 4:0.5 5:0.1 6:0.7 7:0.1 8:0 9:0 10:1.7055 11:0 12:4 13:0 14:0 
10 0:2 1:0.5 2:0.0779 3:0.2 4:0.2 5:0.3 6:0.5 7:0.3 8:0.2 9:0.1 10:0 11:0.881 12:4 13:0.5 14:0 
10 0:2.4 1:0.2 2:0.1169 3:0.4 4:0.4 5:0 6:0.9 7:0 8:0 9:0 10:0 11:0.8605 12:4 13:0 14:0 
10 0:4.8 1:0.3 2:0.075 3:0.5 4:0.5 5:0.2 6:0.1 7:0 8:0 9:0 10:0 11:0 12:4 13:0 14:0 
10 0:2.2 1:0.2 2:0.1636 3:0.1 4:0.1 5:0 6:0.5 7:0.3 8:0 9:0.1 10:1.2985 11:0 12:4 13:0 14:0 
10 0:5.8 1:0.1 2:0.1386 3:0.1 4:0.1 5:0.6 6:0.1 7:0 8:0 9:0 10:0 11:0 12:5 13:0 14:0 
10 0:4.5 1:0.4 2:0.0588 3:0 4:0 5:0.1 6:0.3 7:0.2 8:0 9:0.1 10:0 11:0 12:5.5 13:0 14:0 
10 0:4.1 1:0.2 2:0.1325 3:0.3 4:0.3 5:0 6:0.1 7:0 8:0 9:0 10:0 11:0 12:3.5 13:2.3 14:0 
10 0:5.4 1:0.4 2:0.0767 3:0.5 4:0.5 5:0.1 6:0.8 7:0.1 8:0 9:0 10:0 11:0 12:4 13:0 14:0 
10 0:4.2 1:0.2 2:0.1782 3:0.5 4:0.5 5:0.1 6:0.3 7:0.1 8:0 9:0 10:0 11:0 12:5 13:0 14:0 
10 0:3.6 1:0.4 2:0.0753 3:0 4:0 5:0 6:0.3 7:0 8:0 9:0 10:0 11:0 12:5 13:0 14:0 
10 0:3.1 1:0.2 2:0.1654 3:0 4:0 5:0.6 6:0.5 7:0.4 8:0 9:0.1 10:0 11:0.69 12:4 13:0.1 14:0 
10 0:4 1:0.2 2:0.1556 3:1.5 4:1.5 5:0.1 6:0.4 7:0.1 8:0.1 9:0 10:0 11:0 12:4 13:0.2 14:0 
10 0:4.5 1:0.2 2:0.1647 3:0.5 4:0.5 5:0 6:0.5 7:0 8:0.1 9:0 10:0 11:0 12:4 13:0 14:0 
10 0:4 1:0.2 2:0.0985 3:0.7 4:0.7 5:0.1 6:1 7:0.1 8:0 9:0 10:2.193 11:0 12:4 13:0 14:0 
10 0:4.1 1:0.2 2:0.0855 3:0.1 4:0.1 5:0.1 6:0.6 7:0.1 8:0 9:0 10:0 11:1.0255 12:6 13:0 14:0 
10 0:2.9 1:0.2 2:0.1843 3:0 4:0 5:0 6:0.3 7:0 8:0 9:0 10:2.325 11:0 12:4 13:0 14:0 
10 0:2.6 1:0.2 2:0.1234 3:0.7 4:0.7 5:0.1 6:0 7:0.1 8:0 9:0 10:0 11:1.1885 12:4.5 13:0 14:0 
10 0:3.5 1:0.2 2:0.1595 3:0.5 4:0.5 5:0.1 6:0.6 7:0.1 8:0 9:0 10:1.2035 11:0 12:4 13:0 14:0 
10 0:4.3 1:0 2:0.1772 3:0 4:0 5:0.1 6:0.3 7:0.1 8:0 9:0 10:0 11:0 12:5 13:0 14:0 
10 0:5.6 1:0.2 2:0.106 3:0.1 4:0.1 5:0.6 6:0.4 7:0.4 8:0.1 9:0.1 10:0.297 11:0 12:2 13:0 14:0 
10 0:5.5 1:0.1 2:0.1365 3:0.1 4:0.1 5:0.1 6:0.7 7:0.1 8:0 9:0 10:0 11:0 12:7.2 13:0 14:0 
10 0:4.6 1:0 2:0.1311 3:0 4:0 5:0.1 6:0.3 7:0.1 8:0 9:0 10:0 11:0 12:3.7 13:0 14:0 
10 0:5.8 1:0.1 2:0.0594 3:1.2 4:1.2 5:0.1 6:0.6 7:0.1 8:0 9:0 10:0 11:0 12:4 13:0 14:0 
10 0:3.9 1:0.2 2:0.0327 3:0.1 4:0.1 5:0 6:0.2 7:0 8:0 9:0 10:0 11:0 12:4 13:0 14:0 
10 0:5.5 1:0.2 2:0.0791 3:0.1 4:0.1 5:0 6:0.5 7:0 8:0 9:0 10:0 11:0 12:3.8 13:0 14:0 
10 0:2.8 1:0.2 2:0.1336 3:0.7 4:0.7 5:0 6:0.9 7:0 8:0 9:0.1 10:0 11:0.8345 12:4.2 13:0 14:0 
10 0:4.1 1:0.1 2:0.0337 3:0.5 4:0.5 5:0.1 6:0.1 7:0.1 8:0 9:0 10:0 11:0 12:6 13:0 14:0 
10 0:6.1 1:0.1 2:0.0249 3:0.1 4:0.1 5:0.1 6:0.8 7:0.1 8:0 9:0 10:0 11:1.176 12:5 13:0 14:0 
10 0:2.1 1:0.5 2:0.1017 3:0.1 4:0.1 5:0 6:0.5 7:0 8:0 9:0.1 10:0.5275 11:0 12:4 13:0 14:0 
10 0:4.1 1:0.6 2:0.0219 3:0 4:0 5:0.1 6:1 7:0.1 8:0 9:0 10:0 11:0 12:4 13:0 14:0 
10 0:2.3 1:0.2 2:0.1433 3:0.1 4:0.1 5:0 6:0.5 7:0 8:0 9:0.1 10:1.2315 11:0 12:4 13:0 14:0 
10 0:2.4 1:0.2 2:0.072 3:0.1 4:0.1 5:0 6:0.4 7:0.3 8:0.1 9:0 10:0 11:0.8605 12:3 13:0 14:0 
10 0:5 1:0.5 2:0.0162 3:0.3 4:0.3 5:0.3 6:0.5 7:0.5 8:0 9:0 10:0 11:0 12:4 13:0 14:0 
10 0:4.3 1:0.2 2:0.0639 3:0.5 4:0.5 5:0.2 6:0.1 7:0 8:0 9:0 10:0 11:0 12:4.5 13:0 14:0 
10 0:4.7 1:0.1 2:0.0633 3:0.1 4:0.1 5:0.1 6:0.4 7:0.2 8:0 9:0.1 10:0 11:0 12:7.5 13:1.3 14:0 
10 0:4.1 1:0.2 2:0.1728 3:0.7 4:0.7 5:0 6:0.3 7:0 8:0 9:0.1 10:0 11:0 12:6 13:0 14:0 
10 0:6.4 1:0.2 2:0.1154 3:0.1 4:0.1 5:0.1 6:0.7 7:0.1 8:0 9:0 10:0 11:0 12:4.5 13:0 14:0 
10 0:4.8 1:0.2 2:0.1135 3:0.7 4:0.7 5:0 6:0 7:0.4 8:0 9:0 10:0 11:0 12:4 13:0 14:0 
10 0:3.2 1:0.2 2:0.0749 3:0.1 4:0.1 5:0.1 6:0.1 7:0.1 8:0 9:0 10:0 11:0.836 12:6 13:0 14:0 
10 0:7.3 1:0.1 2:0.1205 3:0.1 4:0.1 5:0.1 6:0.1 7:0.1 8:0 9:0 10:0 11:0 12:4 13:0 14:0 
2.3128881344343846 0:5.5 1:0.2 2:0.0715 3:0.1 4:0.1 5:0.1 6:0.9 7:0.1 8:0 9:0 10:0 11:0 12:4 13:0 14:0 
5.1928084023665466 0:6.2 1:0.4 2:0.1978 3:0 4:0 5:0.6 6:0.3 7:0 8:0 9:0.1 10:0 11:0 12:4.8 13:0 14:0 
10 0:4.3 1:0.2 2:0.0699 3:0.5 4:0.5 5:0.2 6:0.3 7:0 8:0 9:0 10:0 11:0 12:4 13:0 14:0 
10 0:4 1:0.4 2:0.0226 3:0.1 4:0.1 5:0.2 6:0.4 7:0 8:0 9:0.1 10:0 11:0 12:5 13:0 14:0 
10 0:3.9 1:0.2 2:0.0939 3:0 4:0 5:0.1 6:0.6 7:0.1 8:0 9:0 10:0 11:0 12:4 13:0 14:0 
10 0:4.6 1:0.1 2:0.1205 3:0.1 4:0.1 5:0.1 6:0.5 7:0.1 8:0 9:0 10:0 11:0 12:5 13:0 14:0 
10 0:4.8 1:0.2 2:0.1938 3:0.2 4:0.2 5:0.1 6:0.1 7:0.1 8:0 9:0 10:0 11:0 12:5 13:0 14:0 
10 0:2.8 1:0.6 2:0.0969 3:0.5 4:0.5 5:0.1 6:0.1 7:0.1 8:0 9:0 10:0 11:0 12:7 13:0 14:0 
0.69122275029686286 0:2.7 1:0.2 2:0.0654 3:0.1 4:0.1 5:0.1 6:0.6 7:0.1 8:0 9:0 10:0 11:0 12:7 13:0 14:0 
10 0:3.3 1:0.6 2:0.1058 3:0.5 4:0.5 5:0.1 6:0.6 7:0.1 8:0 9:0 10:0 11:0 12:6 13:0.5 14:0 
10 0:5.4 1:0.1 2:0.2761 3:0.1 4:0.1 5:0.1 6:0.5 7:0.1 8:0.1 9:0 10:0 11:0 12:4 13:0 14:0 
10 0:2.9 1:0.2 2:0.1203 3:0.7 4:0.7 5:0.2 6:1 7:0 8:0 9:0.1 10:1.087 11:0 12:4.5 13:0 14:0 
10 0:3.5 1:0.1 2:0.253 3:0 4:0 5:0 6:0.1 7:0 8:0 9:0 10:0 11:0 12:4 13:0 14:0 
10 0:4 1:0.2 2:0.1155 3:0.3 4:0.3 5:0.1 6:0.3 7:0.1 8:0 9:0 10:0 11:0 12:4 13:0 14:0 
10 0:4.7 1:0.2 2:0.2323 3:0.5 4:0.5 5:0.2 6:0.5 7:0.3 8:0 9:0 10:0 11:0 12:5.5 13:0 14:0 
10 0:6.3 1:0.4 2:0.0196 3:0.8 4:0.8 5:0.1 6:0.4 7:0.1 8:0 9:0 10:0 11:0 12:5.5 13:0 14:0 
10 0:3.5 1:0.2 2:0.1035 3:0.1 4:0.1 5:0 6:0.5 7:0 8:0 9:0 10:0 11:0 12:4.5 13:0 14:0 
10 0:5.3 1:0.1 2:0.2112 3:1.2 4:1.2 5:0.1 6:0.8 7:0.1 8:0 9:0 10:0 11:0 12:6 13:0 14:0 
10 0:4.2 1:0.2 2:0.11 3:0.1 4:0.1 5:0.2 6:0.9 7:0 8:0 9:0 10:0 11:0 12:5.5 13:0 14:0 
10 0:5.1 1:0.4 2:0.1642 3:1.4 4:1.4 5:0.1 6:0.4 7:0.1 8:0 9:0 10:0 11:0 12:4 13:0 14:0 
10 0:5.1 1:0.2 2:0.0906 3:0.5 4:0.5 5:0.1 6:0.1 7:0.1 8:0 9:0 10:0 11:0 12:4 13:0 14:0 
10 0:3.2 1:0.2 2:0.1958 3:0 4:0 5:0.1 6:0.6 7:0.1 8:0 9:0 10:0 11:0 12:7 13:0.4 14:0 
10 0:4.4 1:0.2 2:0.0219 3:0.1 4:0.1 5:0 6:0.7 7:0.4 8:0 9:0 10:0 11:0 12:7 13:0 14:0 
10 0:2.1 1:0.2 2:0.1738 3:0.5 4:0.5 5:0 6:0.1 7:0 8:0 9:0.1 10:2.0505 11:0 12:4 13:0 14:0 
10 0:7.8 1:0.2 2:0.1243 3:0.1 4:0.1 5:0.6 6:0.4 7:0 8:0.1 9:0.1 10:1.482 11:0 12:4 13:0 14:0 
0.87694166240326721 0:3.4 1:0.2 2:0.1086 3:0.1 4:0.1 5:0.2 6:0.2 7:0.3 8:0 9:0 10:0 11:0 12:4 13:0 14:0 
10 0:4.9 1:0.2 2:0.0837 3:0.1 4:0.1 5:0 6:0 7:0 8:0 9:0.1 10:0 11:0 12:4.4 13:0 14:0 
10 0:6 1:0.1 2:0.1049 3:0.1 4:0.1 5:0 6:0.8 7:0.4 8:0 9:0 10:0 11:0 12:4.2 13:0 14:0 
0.73765826032304871 0:4.4 1:0.2 2:0.086 3:0.1 4:0.1 5:0.2 6:0.6 7:0.4 8:0 9:0 10:0 11:0 12:4 13:0 14:0 
10 0:5.1 1:0.2 2:0.083 3:0.5 4:0.5 5:0.6 6:0.3 7:0 8:0 9:0.1 10:1.6625 11:0 12:4 13:0 14:0 
10 0:4.6 1:0.2 2:0.1273 3:0 4:0 5:0 6:0.5 7:0 8:0 9:0 10:0 11:0.752 12:4 13:0 14:0 
10 0:3.5 1:0.2 2:0.1971 3:0.1 4:0.1 5:0 6:0.1 7:0 8:0 9:0 10:0 11:0 12:4.5 13:0 14:0 
10 0:4.5 1:0.2 2:0.0607 3:0.3 4:0.3 5:0.2 6:0.3 7:0 8:0 9:0 10:0 11:0 12:4.5 13:0 14:0 
10 0:4 1:0.2 2:0.056 3:0.5 4:0.5 5:0.1 6:0.9 7:0.1 8:0 9:0 10:1.29 11:0 12:4 13:0 14:0 
10 0:5.8 1:0.2 2:0.2418 3:0 4:0 5:0.1 6:0 7:0.1 8:0 9:0 10:0 11:0 12:4 13:0 14:0 
10 0:4.8 1:0.2 2:0.0729 3:0.8 4:0.8 5:0.1 6:0.2 7:0.1 8:0 9:0 10:0 11:0 12:4 13:0 14:0 
10 0:4.1 1:0.2 2:0.1347 3:0.5 4:0.5 5:0 6:0.6 7:0 8:0 9:0 10:0 11:0 12:5 13:2.8 14:0 
10 0:5.6 1:0.2 2:0.1149 3:0.1 4:0.1 5:0.1 6:0.4 7:0.1 8:0 9:0 10:0 11:0 12:5 13:2.9 14:0 
10 0:4.8 1:0.2 2:0.1412 3:1.2 4:1.2 5:0.1 6:0 7:0.2 8:0 9:0.1 10:0 11:0 12:4 13:0 14:0 
10 0:4.8 1:0.6 2:0.094 3:0.3 4:0.3 5:0.3 6:0.5 7:0 8:0.2 9:0 10:0 11:0 12:5 13:0.3 14:0 
10 0:2 1:0 2:0.1518 3:0.6 4:0.6 5:0 6:0.4 7:0.3 8:0 9:0 10:0 11:0.8595 12:2 13:0 14:0 
10 0:1.9 1:0.5 2:0.1641 3:0.1 4:0.1 5:0 6:0.5 7:0.4 8:0 9:0 10:0 11:1.0005 12:4 13:0 14:0 
10 0:6.6 1:0.6 2:0.1024 3:0.4 4:0.4 5:0.1 6:0.1 7:0.1 8:0 9:0 10:0.7045 11:0 12:0.1 13:0.5 14:0 
10 0:3.7 1:0.2 2:0.0841 3:0.1 4:0.1 5:0 6:0.4 7:0 8:0 9:0 10:0 11:0 12:7.5 13:0 14:0 
10 0:3 1:0.1 2:0.0725 3:1.5 4:1.5 5:0.1 6:0.7 7:0.1 8:0 9:0 10:0 11:0 12:7.5 13:0 14:0 
10 0:4.3 1:0.1 2:0.1886 3:0.1 4:0.1 5:0.1 6:0.1 7:0.1 8:0 9:0 10:0 11:0 12:3.5 13:0 14:0 
10 0:6.1 1:0.2 2:0.0875 3:0.1 4:0.1 5:0.1 6:0.9 7:0.1 8:0 9:0 10:1.7355 11:0 12:4 13:0 14:0 
10 0:3.6 1:0.2 2:0.0204 3:1.5 4:1.5 5:0.1 6:0.7 7:0.1 8:0 9:0 10:0 11:0 12:4 13:0 14:0 
10 0:3 1:0.2 2:0.1234 3:0 4:0 5:0.1 6:0.1 7:0.1 8:0 9:0 10:0 11:0 12:5 13:0 14:0 
10 0:2.7 1:0.2 2:0.0935 3:0 4:0 5:0 6:0.5 7:0 8:0.1 9:0.1 10:0 11:0.795 12:4 13:0 14:0 
10 0:4.9 1:0.2 2:0.0213 3:0.1 4:0.1 5:0.1 6:0.6 7:0.1 8:0 9:0 10:0 11:0 12:4 13:0 14:0 
10 0:5.8 1:0.1 2:0.0554 3:0.1 4:0.1 5:0.1 6:0.8 7:0.1 8:0 9:0 10:0 11:0 12:6 13:0 14:0 
6.6326686897876632 0:3.1 1:0.2 2:0.1331 3:0.9 4:0.9 5:0.3 6:0.3 7:0 8:0.2 9:0 10:0 11:0 12:6 13:2.7 14:0 
10 0:3.9 1:0.6 2:0.1482 3:0.4 4:0.4 5:0.1 6:0.1 7:0.1 8:0 9:0 10:0 11:0.8255 12:4 13:0.4 14:0 
10 0:4.1 1:0.2 2:0.0806 3:0 4:0 5:0.1 6:0.1 7:0.1 8:0.1 9:0 10:0 11:0 12:5 13:0 14:0 
10 0:3.1 1:0.2 2:0.0348 3:0 4:0 5:0 6:0.3 7:0 8:0 9:0 10:0 11:0 12:4.7 13:0 14:0 
10 0:4.1 1:0.2 2:0.1995 3:0.7 4:0.7 5:0.1 6:0.7 7:0.1 8:0 9:0 10:0 11:0 12:5.5 13:0 14:0 
10 0:3.7 1:0 2:0.0409 3:0 4:0 5:0 6:0 7:0 8:0 9:0 10:0 11:0 12:3.8 13:0 14:0 
10 0:4.1 1:0.2 2:0.1546 3:0.1 4:0.1 5:0.1 6:0.7 7:0.1 8:0 9:0 10:0 11:0 12:5 13:0 14:0 
10 0:5.3 1:0.2 2:0.1956 3:0 4:0 5:0.1 6:0.3 7:0.1 8:0.2 9:0 10:0 11:0 12:4 13:2.8 14:0 
10 0:4.5 1:0.3 2:0.1161 3:0.1 4:0.1 5:0.2 6:1 7:0 8:0 9:0.1 10:2.4325 11:0 12:4 13:0 14:0 
10 0:6.3 1:0.3 2:0.0844 3:0.1 4:0.1 5:0.6 6:0.2 7:0 8:0.1 9:0 10:0 11:0 12:4 13:0 14:0 
10 0:4.2 1:0.5 2:0.125 3:0.5 4:0.5 5:0.2 6:0.5 7:0.4 8:0 9:0 10:0 11:0 12:4 13:0 14:0 
10 0:4 1:0.2 2:0.1453 3:0 4:0 5:0 6:0.4 7:0 8:0 9:0 10:0 11:0 12:3.7 13:0 14:0 
10 0:5.6 1:0.1 2:0.136 3:0.5 4:0.5 5:0.1 6:0.5 7:0.1 8:0 9:0 10:0 11:0 12:6 13:0 14:0 
10 0:3 1:0.6 2:0.1397 3:0.5 4:0.5 5:0 6:0.1 7:0 8:0 9:0.1 10:0 11:0 12:6 13:0 14:0 
10 0:4.6 1:0.2 2:0.1257 3:0.1 4:0.1 5:0.1 6:0.9 7:0.1 8:0 9:0 10:0 11:0 12:5 13:0 14:0 
10 0:5.1 1:0.2 2:0.2057 3:0.1 4:0.1 5:0.1 6:0.6 7:0.1 8:0 9:0 10:0 11:0 12:5.4 13:0 14:0 
10 0:4.4 1:0.2 2:0.1314 3:0.7 4:0.7 5:0.1 6:0.6 7:0.1 8:0 9:0 10:1.7055 11:0 12:4 13:0 14:0 
10 0:5.1 1:0.2 2:0.1639 3:0.1 4:0.1 5:0.2 6:0 7:0 8:0 9:0.1 10:0 11:0 12:4.3 13:0 14:0 
10 0:4.7 1:0.2 2:0.1243 3:0.1 4:0.1 5:0.1 6:0.4 7:0.1 8:0 9:0 10:0 11:0 12:4 13:0 14:0 
10 0:4.7 1:0.2 2:0.0311 3:0.1 4:0.1 5:0 6:0 7:0.4 8:0 9:0.1 10:0 11:0 12:4 13:0 14:0 
10 0:3.6 1:0.2 2:0.283 3:0 4:0 5:0.1 6:0.3 7:0.1 8:0 9:0 10:0 11:0 12:4 13:0 14:0 
10 0:3.2 1:0.2 2:0.1378 3:0.1 4:0.1 5:0.1 6:0 7:0.1 8:0 9:0 10:0 11:0 12:4 13:0 14:0 
10 0:4.4 1:0.2 2:0.1139 3:0.1 4:0.1 5:0.1 6:0.6 7:0.1 8:0 9:0 10:0 11:0 12:4 13:0 14:0 
10 0:5.1 1:0.5 2:0.1125 3:0.3 4:0.3 5:0.1 6:0.5 7:0.1 8:0 9:0 10:0 11:0 12:4 13:0 14:0 
3.8902369108817383 0:5.9 1:0.3 2:0.0294 3:0.5 4:0.5 5:0 6:0.1 7:0.3 8:0.1 9:0.1 10:0 11:0 12:4 13:0 14:0 
10 0:5.1 1:0.2 2:0.1624 3:0.7 4:0.7 5:0.2 6:0.4 7:0 8:0 9:0 10:0 11:0 12:4 13:0 14:0 
10 0:3.9 1:0.2 2:0.023 3:0.1 4:0.1 5:0.1 6:0.7 7:0.1 8:0 9:0 10:0 11:0 12:6 13:0 14:0 
10 0:5.1 1:0.4 2:0.1201 3:0.6 4:0.6 5:0.1 6:0.3 7:0.1 8:0 9:0 10:0 11:0 12:6 13:0 14:0 
10 0:5.9 1:0.2 2:0.103 3:0.3 4:0.3 5:0.1 6:0.3 7:0.1 8:0 9:0 10:0 11:0 12:5.5 13:0 14:0 
10 0:5 1:0.2 2:0.0513 3:0.1 4:0.1 5:0.1 6:0.6 7:0.1 8:0 9:0 10:2.193 11:0 12:4 13:0.5 14:0 
10 0:3.7 1:0.2 2:0.1379 3:0.5 4:0.5 5:0.4 6:0 7:0.3 8:0 9:0 10:0 11:0 12:6.2 13:0 14:0 
10 0:3.1 1:0.2 2:0.1571 3:0 4:0 5:0.2 6:0.1 7:0 8:0 9:0 10:2.325 11:0 12:4.5 13:0 14:0 
10 0:4.8 1:0.2 2:0.2371 3:0.1 4:0.1 5:0.1 6:0.6 7:0.1 8:0 9:0 10:0 11:0 12:4 13:0 14:0 
10 0:5.3 1:0.2 2:0.015 3:0.5 4:0.5 5:0.1 6:0.6 7:0.1 8:0 9:0 10:0 11:0 12:4 13:0 14:0 
10 0:4.2 1:0.1 2:0.1133 3:0.5 4:0.5 5:0.1 6:0.8 7:0.1 8:0 9:0 10:0 11:0 12:6 13:0 14:0 
10 0:5.2 1:0.3 2:0.0216 3:0.1 4:0.1 5:0.2 6:0 7:0.4 8:0 9:0.1 10:0 11:0 12:4 13:0 14:0 
10 0:4.3 1:0.2 2:0.2807 3:0.1 4:0.1 5:0.1 6:0.6 7:0.1 8:0 9:0 10:0 11:0 12:4.5 13:0 14:0 
10 0:4.9 1:0.2 2:0.1012 3:0.1 4:0.1 5:0.2 6:0 7:0 8:0 9:0 10:0 11:0 12:4 13:0 14:0 
10 0:4.8 1:0.1 2:0.2699 3:0.5 4:0.5 5:0.1 6:0.1 7:0.1 8:0 9:0 10:0 11:0 12:6 13:0 14:0 
10 0:5.2 1:0.3 2:0.1375 3:0.1 4:0.1 5:0.2 6:0 7:0 8:0 9:0.1 10:0 11:0 12:4.3 13:0 14:0 
10 0:2.8 1:0.1 2:0.1484 3:0.5 4:0.5 5:0 6:0.7 7:0 8:0 9:0 10:0 11:0.881 12:4 13:0 14:0 
10 0:3.8 1:0.2 2:0.0445 3:0 4:0 5:0 6:0 7:0 8:0 9:0.1 10:0 11:0 12:5 13:0 14:0 
10 0:3.7 1:0.2 2:0.2631 3:0.5 4:0.5 5:0.1 6:0 7:0.1 8:0 9:0 10:0 11:0 12:3.7 13:0 14:0 
10 0:4.4 1:0.4 2:0.2781 3:0 4:0 5:0.2 6:1.1 7:0 8:0 9:0 10:0 11:0 12:4 13:0 14:0 
10 0:4.7 1:0.2 2:0.1363 3:0 4:0 5:0 6:0.1 7:0.4 8:0.1 9:0.1 10:0 11:0 12:4.5 13:0 14:0 
10 0:4.2 1:0.2 2:0.2329 3:0.1 4:0.1 5:0.1 6:0.5 7:0.1 8:0 9:0 10:0 11:0 12:4 13:0 14:0 
10 0:5.2 1:0.2 2:0.1269 3:0.1 4:0.1 5:0 6:0.5 7:0 8:0 9:0 10:0 11:0.938 12:5 13:0 14:0 
10 0:5.7 1:0.2 2:0.1236 3:1.2 4:1.2 5:0.1 6:0.4 7:0.1 8:0 9:0 10:0 11:0 12:4 13:0 14:0 
10 0:3.7 1:0.2 2:0.0253 3:0 4:0 5:0 6:0.1 7:0 8:0 9:0 10:0 11:0 12:4.5 13:0 14:0 
10 0:5 1:0.2 2:0.286 3:0.1 4:0.1 5:0.1 6:0.6 7:0.1 8:0 9:0 10:0 11:0 12:4 13:0 14:0 
10 0:5.8 1:0.5 2:0.1213 3:1.5 4:1.5 5:0.1 6:0.5 7:0.1 8:0 9:0 10:0 11:0 12:4 13:0 14:0 
10 0:3.9 1:0.2 2:0.1891 3:0.1 4:0.1 5:0.1 6:0.7 7:0.1 8:0 9:0 10:0 11:0 12:6.5 13:0 14:0 
10 0:3.6 1:0.2 2:0.077 3:0.1 4:0.1 5:0.1 6:0.2 7:0.1 8:0 9:0 10:0 11:0 12:4 13:0 14:0 
10 0:2.6 1:0.2 2:0.1902 3:1.1 4:1.1 5:0.1 6:0.6 7:0.1 8:0 9:0 10:0 11:0.814 12:5 13:0 14:0 
10 0:4.4 1:0.4 2:0.0237 3:0.5 4:0.5 5:0 6:0.4 7:0.3 8:0.1 9:0 10:0 11:0 12:4 13:0 14:0 
10 0:3.6 1:0.1 2:0.1227 3:1 4:1 5:0.1 6:0.3 7:0.1 8:0 9:0 10:0 11:0 12:5 13:0 14:0 
0.74324261443356654 0:3 1:0.2 2:0.142 3:0.7 4:0.7 5:0.1 6:0.1 7:0.1 8:0 9:0 10:0 11:0 12:4.8 13:0 14:0 
10 0:4.3 1:0.2 2:0.0584 3:0.1 4:0.1 5:0.1 6:0.5 7:0.1 8:0 9:0 10:0 11:0 12:4.5 13:0 14:0 
10 0:4.5 1:0.3 2:0.1922 3:0 4:0 5:0.1 6:0.1 7:0.1 8:0 9:0 10:0 11:0 12:4 13:0 14:0 
10 0:5.1 1:0.2 2:0.122 3:0.1 4:0.1 5:0.2 6:0 7:0.4 8:0 9:0.1 10:0 11:0 12:4 13:0 14:0 
10 0:3.5 1:0.5 2:0.2222 3:0.6 4:0.6 5:0 6:0.5 7:0 8:0 9:0 10:0 11:0 12:5.5 13:0 14:0 
10 0:6.1 1:0.4 2:0.0688 3:0.1 4:0.1 5:0.6 6:0 7:0.4 8:0 9:0.1 10:0.7355 11:0 12:3.5 13:0 14:0 
10 0:4.7 1:0.2 2:0.1742 3:0.1 4:0.1 5:0.1 6:0.2 7:0.1 8:0 9:0 10:0 11:0 12:4 13:0.5 14:0 
10 0:5.7 1:0.2 2:0.18 3:1 4:1 5:0.1 6:0.3 7:0.1 8:0 9:0 10:0 11:0 12:6 13:0 14:0 
10 0:3.3 1:0.2 2:0.0276 3:0.5 4:0.5 5:0 6:0.3 7:0 8:0 9:0.1 10:1.837 11:0 12:1.6 13:0 14:0 
10 0:3.9 1:0.2 2:0.1188 3:0 4:0 5:0 6:0.3 7:0 8:0 9:0 10:0 11:0 12:4 13:0 14:0 
10 0:7.1 1:0.2 2:0.1832 3:0 4:0 5:0.2 6:1 7:0.3 8:0 9:0.1 10:1.1645 11:0 12:1.6 13:0 14:0 
10 0:4.7 1:0.2 2:0.0318 3:0.5 4:0.5 5:0.2 6:0 7:0 8:0 9:0 10:0 11:0 12:4 13:0 14:0 
10 0:5.9 1:0 2:0.0716 3:0.1 4:0.1 5:0 6:0 7:0.3 8:0 9:0 10:0 11:0 12:4 13:0 14:0 
10 0:6.2 1:0.5 2:0.1533 3:0.8 4:0.8 5:0.1 6:0.5 7:0.1 8:0 9:0 10:1.7055 11:0 12:5 13:0 14:0 
10 0:4 1:0.2 2:0.1054 3:1.2 4:1.2 5:0 6:0.6 7:0.5 8:0.1 9:0 10:0 11:0 12:5.5 13:0 14:0 
10 0:3.6 1:0.2 2:0.1298 3:0.1 4:0.1 5:0 6:0.5 7:0 8:0 9:0 10:0 11:0 12:5 13:0 14:0 
10 0:4.9 1:0.6 2:0.1751 3:0.1 4:0.1 5:0.2 6:0.1 7:0.4 8:0 9:0.1 10:0 11:0 12:4 13:0 14:0 
10 0:4.6 1:0.6 2:0.0672 3:0 4:0 5:0.1 6:0.5 7:0.1 8:0 9:0 10:0 11:0 12:5.2 13:0 14:0 
10 0:4.4 1:0.1 2:0.1567 3:0.1 4:0.1 5:0.1 6:0.7 7:0.1 8:0 9:0 10:0 11:0 12:5.5 13:0 14:0 
10 0:5.4 1:0.2 2:0.3051 3:0.1 4:0.1 5:0.1 6:0.8 7:0.1 8:0 9:0 10:0 11:0 12:4 13:0 14:0 
8.8462764900781092 0:2.5 1:0.4 2:0.1108 3:0 4:0 5:0 6:0.3 7:0 8:0 9:0 10:0 11:0 12:4.5 13:0 14:0 
10 0:3.7 1:0.1 2:0.0933 3:0.1 4:0.1 5:0.1 6:0.1 7:0.1 8:0 9:0 10:0 11:0 12:6 13:0 14:0 
10 0:4.5 1:0.2 2:0.0865 3:0.5 4:0.5 5:0 6:0.9 7:0.3 8:0 9:0 10:0 11:0 12:4.5 13:0 14:0 
10 0:3.7 1:0.2 2:0.2371 3:0.1 4:0.1 5:0 6:0.5 7:0 8:0.1 9:0 10:0 11:0 12:4.4 13:0 14:0 
10 0:5.9 1:0.2 2:0.1541 3:0.1 4:0.1 5:0.2 6:0.5 7:0.4 8:0 9:0.1 10:0 11:0.881 12:3 13:0 14:0 
10 0:5.4 1:0.2 2:0.2704 3:0.1 4:0.1 5:0.1 6:0.7 7:0.1 8:0.1 9:0 10:2.5065 11:0 12:4 13:0 14:0 
10 0:5.4 1:0.1 2:0.0779 3:0.3 4:0.3 5:0.1 6:0.5 7:0.1 8:0 9:0 10:0 11:0 12:5 13:0 14:0 
10 0:5.1 1:0.2 2:0.1674 3:1.2 4:1.2 5:0.1 6:0.2 7:0.1 8:0 9:0 10:1.0525 11:0 12:4.5 13:0 14:0 
2.1473807999487975 0:4 1:0.2 2:0.1771 3:0.1 4:0.1 5:0 6:0 7:0 8:0 9:0.1 10:0 11:0 12:4 13:0 14:0 
10 0:5 1:0.2 2:0.0769 3:0.1 4:0.1 5:0.2 6:0 7:0 8:0 9:0.1 10:0 11:0 12:4 13:0 14:0 
10 0:3.7 1:0.2 2:0.0977 3:0.1 4:0.1 5:0.2 6:0.7 7:0 8:0 9:0 10:0 11:0 12:5 13:0 14:0 
10 0:4.3 1:0.6 2:0.1338 3:0.1 4:0.1 5:0.1 6:0.4 7:0.1 8:0.2 9:0 10:0 11:0 12:7.8 13:1.7 14:0 
10 0:5.2 1:0.1 2:0.1181 3:1.2 4:1.2 5:0.1 6:0.1 7:0.1 8:0 9:0 10:0 11:0 12:6 13:0 14:0 
10 0:3.2 1:0.2 2:0.0589 3:0.1 4:0.1 5:0 6:0.4 7:0 8:0 9:0 10:0 11:0 12:5.2 13:0 14:0 
10 0:4 1:0.2 2:0.174 3:0.7 4:0.7 5:0.1 6:0.2 7:0.1 8:0.1 9:0 10:0 11:0 12:4 13:0 14:0 
0.3187339466007364 0:4.1 1:0.2 2:0.125 3:0.2 4:0.2 5:0.2 6:0.4 7:0 8:0 9:0 10:0 11:0 12:4 13:0 14:0 
10 0:5.3 1:0.3 2:0.0888 3:0.1 4:0.1 5:0.1 6:0 7:0.1 8:0.1 9:0 10:0 11:0 12:4 13:0 14:0 
10 0:3.9 1:0.2 2:0.2023 3:0.4 4:0.4 5:0.1 6:0.4 7:0.2 8:0.1 9:0.1 10:1.7055 11:0 12:3.4 13:0 14:0 
10 0:1.8 1:0.5 2:0.1154 3:0.5 4:0.5 5:0 6:0.5 7:0.3 8:0 9:0.1 10:0.297 11:0 12:1.5 13:0 14:0 
10 0:5 1:0.6 2:0.1191 3:0.1 4:0.1 5:0.1 6:0.6 7:0.1 8:0 9:0 10:0 11:0.836 12:6 13:0 14:0 
10 0:5 1:0.2 2:0.0207 3:0.7 4:0.7 5:0.1 6:0.7 7:0.1 8:0 9:0 10:0 11:0 12:4.5 13:0 14:0 
10 0:4.5 1:0.1 2:0.1745 3:0.5 4:0.5 5:0.1 6:0.5 7:0.1 8:0 9:0 10:2.5065 11:0 12:4 13:0 14:0 
10 0:4.4 1:0.1 2:0.0821 3:0.1 4:0.1 5:0.1 6:0.1 7:0.1 8:0 9:0 10:0 11:0 12:6.6 13:0 14:0 
10 0:1.7 1:0.5 2:0.2262 3:1.2 4:1.2 5:0 6:0.5 7:0.3 8:0 9:0 10:0.5275 11:0 12:3 13:0 14:0 
10 0:2.5 1:0.2 2:0.1506 3:0.1 4:0.1 5:0.2 6:0.6 7:0 8:0 9:0 10:1.6625 11:0 12:4.5 13:0 14:0 
10 0:7 1:0.3 2:0.1107 3:0.1 4:0.1 5:0.1 6:0 7:0.1 8:0.1 9:0 10:0 11:0 12:4 13:0 14:0 
10 0:3.5 1:0.2 2:0.046 3:0.5 4:0.5 5:0.1 6:0.6 7:0.1 8:0 9:0 10:0 11:1.0255 12:4.5 13:0 14:0 
10 0:4.9 1:0.2 2:0.0688 3:0.3 4:0.3 5:0.2 6:0.1 7:0 8:0 9:0.1 10:0 11:0 12:7.5 13:0 14:0 
10 0:4.7 1:0.2 2:0.0233 3:0.1 4:0.1 5:0.1 6:0 7:0.1 8:0 9:0 10:0 11:0 12:3.8 13:0 14:0 
10 0:3.1 1:0.2 2:0.1422 3:1.2 4:1.2 5:0.1 6:0.8 7:0.1 8:0 9:0 10:1.0525 11:0 12:4 13:0.4 14:0 
10 0:3 1:0.2 2:0.0392 3:0.1 4:0.1 5:0 6:0 7:0.4 8:0 9:0 10:0 11:1.0005 12:4.2 13:0 14:0 
10 0:5.7 1:0.3 2:0.1893 3:0.1 4:0.1 5:0.2 6:0 7:0.4 8:0 9:0.1 10:0 11:0 12:4 13:0 14:0 
10 0:3.5 1:0.2 2:0.1271 3:0 4:0 5:0.2 6:0.5 7:0 8:0 9:0.1 10:0 11:0.99 12:6.5 13:0 14:0 
10 0:4.9 1:0.2 2:0.0341 3:0.5 4:0.5 5:0.2 6:0.9 7:0 8:0 9:0 10:1.6625 11:0 12:4.5 13:0 14:0 
10 0:6 1:0.5 2:0.1974 3:0.3 4:0.3 5:0.1 6:0.5 7:0.1 8:0 9:0 10:0 11:0 12:4 13:0 14:0 
10 0:5.8 1:0 2:0.0329 3:0.1 4:0.1 5:0.1 6:0.1 7:0.1 8:0 9:0 10:0 11:0 12:4 13:0 14:0 
10 0:4.2 1:0.2 2:0.1666 3:0.1 4:0.1 5:0.1 6:0.5 7:0.1 8:0 9:0 10:0 11:0 12:5 13:0 14:0 
10 0:4.2 1:0 2:0.2961 3:0.5 4:0.5 5:0.1 6:0 7:0.1 8:0.1 9:0 10:0 11:0 12:4 13:0 14:0 
10 0:6.6 1:0.1 2:0.203 3:0.7 4:0.7 5:0.1 6:0.3 7:0.1 8:0 9:0 10:0 11:0 12:5 13:0 14:0 
10 0:4.4 1:0.2 2:0.0842 3:0 4:0 5:0.2 6:0.4 7:0 8:0.2 9:0 10:0 11:0 12:4 13:2.7 14:0 
10 0:5.9 1:0.2 2:0.1934 3:0 4:0 5:0.1 6:0 7:0.2 8:0 9:0.1 10:1.4425 11:0 12:3 13:0 14:0 
10 0:2.5 1:0.2 2:0.1443 3:0 4:0 5:0 6:0.1 7:0.3 8:0 9:0 10:0 11:0.67 12:4 13:0 14:0 
10 0:4.7 1:0.4 2:0.1677 3:0 4:0 5:0.1 6:1.1 7:0.1 8:0 9:0 10:0 11:0 12:4 13:0 14:0 
10 0:2.6 1:0.4 2:0.1129 3:0 4:0 5:0 6:0.3 7:0 8:0 9:0 10:0 11:1.1695 12:5.5 13:0 14:0 
10 0:4.7 1:0.2 2:0.158 3:0.1 4:0.1 5:0.1 6:0.6 7:0.1 8:0.1 9:0 10:0 11:0 12:4 13:0 14:0 
10 0:6.2 1:0.2 2:0.1102 3:1 4:1 5:0.1 6:0.3 7:0.1 8:0 9:0 10:0 11:0.814 12:7 13:0 14:0 
10 0:5.9 1:0.4 2:0.1125 3:0.5 4:0.5 5:0.1 6:0.6 7:0.1 8:0 9:0 10:0 11:0 12:4 13:0 14:0 
10 0:6.9 1:0.5 2:0.3213 3:1.1 4:1.1 5:0.2 6:0.5 7:0 8:0 9:0 10:0 11:0 12:4 13:0 14:0 
10 0:3.8 1:0.2 2:0.1225 3:0 4:0 5:0.1 6:0 7:0.1 8:0 9:0 10:0 11:0 12:4 13:0 14:0 
10 0:4.4 1:0.2 2:0.0946 3:1.5 4:1.5 5:0.2 6:0.7 7:0.4 8:0.1 9:0 10:0 11:0 12:4 13:0 14:0 
10 0:4.1 1:0.1 2:0.1325 3:0.1 4:0.1 5:0 6:0.5 7:0 8:0 9:0 10:0 11:0 12:5 13:0.5 14:0 
10 0:4.7 1:0.2 2:0.0759 3:0.5 4:0.5 5:0 6:0.4 7:0 8:0.1 9:0.1 10:0 11:0 12:3.5 13:3.1 14:0 
10 0:4.3 1:0.4 2:0.1091 3:0 4:0 5:0.1 6:0.6 7:0.1 8:0 9:0 10:0 11:0 12:4 13:0 14:0 
10 0:4.9 1:0.5 2:0.1773 3:1.2 4:1.2 5:0.4 6:0.5 7:0.3 8:0 9:0 10:1.088 11:0 12:4 13:0 14:0 
10 0:5.2 1:0.2 2:0.1414 3:0.7 4:0.7 5:0.1 6:0 7:0.1 8:0 9:0 10:0 11:0 12:4 13:0 14:0 
10 0:3.8 1:0.1 2:0.1747 3:0.1 4:0.1 5:0 6:0.8 7:0 8:0 9:0 10:0 11:0 12:5.2 13:0 14:0 
10 0:3.2 1:0.4 2:0.1659 3:0 4:0 5:0 6:0.3 7:0 8:0 9:0 10:0 11:0 12:5 13:0 14:0 
10 0:4.8 1:0.1 2:0.0445 3:0.1 4:0.1 5:0.1 6:0.8 7:0.1 8:0 9:0 10:0 11:0 12:5 13:0 14:0 
10 0:5.1 1:0.2 2:0.0483 3:0.5 4:0.5 5:0.2 6:0.1 7:0.4 8:0 9:0 10:0 11:0 12:4.5 13:3.2 14:0 
10 0:2 1:0.5 2:0.1404 3:0.5 4:0.5 5:0 6:0.5 7:0.3 8:0 9:0 10:0.5275 11:0 12:5 13:0 14:0 
10 0:3.3 1:0.4 2:0.0814 3:0.1 4:0.1 5:0.1 6:0 7:0.2 8:0 9:0.1 10:0 11:0 12:6 13:0 14:0 
10 0:5.7 1:0 2:0.0467 3:0.1 4:0.1 5:0.2 6:0.1 7:0 8:0 9:0.1 10:0 11:0 12:5 13:0 14:0 
10 0:6.7 1:0.2 2:0.2163 3:0.1 4:0.1 5:0.1 6:0 7:0.1 8:0 9:0 10:0 11:0 12:3.5 13:0 14:0 
10 0:5.8 1:0.1 2:0.1437 3:1.5 4:1.5 5:0.2 6:0.5 7:0 8:0 9:0.1 10:0 11:0 12:5.2 13:0 14:0 
10 0:3.8 1:0.4 2:0.073 3:0.1 4:0.1 5:0.1 6:0.7 7:0.1 8:0 9:0 10:0 11:0 12:4 13:0 14:0 
10 0:4.4 1:0.2 2:0.1 3:0.5 4:0.5 5:0.1 6:0.1 7:0.1 8:0 9:0 10:0 11:0 12:4 13:0 14:0 
10 0:5.1 1:0.2 2:0.0856 3:0.1 4:0.1 5:0.1 6:0.6 7:0.1 8:0 9:0 10:0 11:0 12:4 13:0 14:0 
10 0:4.5 1:0.2 2:0.2909 3:0.1 4:0.1 5:0.1 6:0.9 7:0.2 8:0 9:0.1 10:0 11:0.87 12:4 13:0 14:0 
10 0:3.9 1:0.2 2:0.2231 3:0.2 4:0.2 5:0.1 6:0.4 7:0.1 8:0 9:0 10:1.2035 11:0 12:7 13:0.4 14:0 
10 0:2.8 1:0.2 2:0.0609 3:0.1 4:0.1 5:0 6:0.5 7:0 8:0 9:0.1 10:1.101 11:0 12:4.8 13:0 14:0 
10 0:4.7 1:0.2 2:0.1351 3:0.1 4:0.1 5:0.1 6:0.6 7:0.1 8:0 9:0 10:0 11:0 12:4.8 13:0 14:0 
10 0:4.9 1:0.4 2:0.0728 3:0.1 4:0.1 5:0.1 6:0.6 7:0.1 8:0 9:0 10:0 11:1.001 12:4 13:0 14:0 
10 0:4.3 1:0.2 2:0.1252 3:0 4:0 5:0 6:0.3 7:0 8:0 9:0 10:0 11:0 12:4 13:0 14:0 
10 0:4.4 1:0.2 2:0.3009 3:0.1 4:0.1 5:0.1 6:0.2 7:0.1 8:0.1 9:0 10:0 11:0 12:4 13:0 14:0 
10 0:3.5 1:0.2 2:0.0733 3:0.2 4:0.2 5:0 6:0.5 7:0 8:0 9:0 10:0 11:0 12:4.5 13:0 14:0 
10 0:5.2 1:0.2 2:0.0641 3:0.1 4:0.1 5:0.1 6:0 7:0.1 8:0 9:0 10:0 11:0 12:4 13:0 14:0 
10 0:4.3 1:0.2 2:0.0569 3:0.5 4:0.5 5:0 6:0.1 7:0.4 8:0 9:0 10:0 11:0 12:5 13:0 14:0 
10 0:5.1 1:0.2 2:0.0821 3:0.8 4:0.8 5:0.1 6:0.6 7:0.1 8:0 9:0 10:1.4805 11:0 12:4 13:0 14:0 
10 0:4.3 1:0.2 2:0.0258 3:0.3 4:0.3 5:0.2 6:0.1 7:0.4 8:0 9:0 10:0 11:0 12:5 13:0 14:0 
10 0:1.7 1:0.2 2:0.0705 3:0.2 4:0.2 5:0 6:0 7:0.3 8:0 9:0.1 10:0.5275 11:0 12:2 13:0 14:0 
10 0:4.4 1:0.2 2:0.1029 3:0.5 4:0.5 5:0.1 6:0.5 7:0.1 8:0 9:0 10:0 11:0 12:5 13:0 14:0 
10 0:4.9 1:0.2 2:0.0219 3:0.1 4:0.1 5:0.1 6:0.1 7:0.2 8:0 9:0.1 10:0 11:0 12:4.3 13:0 14:0 
10 0:3.5 1:0.2 2:0.0839 3:0.5 4:0.5 5:0.1 6:0.2 7:0.1 8:0 9:0 10:0 11:0 12:4 13:0 14:0 
10 0:4.4 1:0.2 2:0.1376 3:0.1 4:0.1 5:0.2 6:0.6 7:0 8:0 9:0 10:0 11:0 12:4.5 13:0 14:0 
10 0:5.4 1:0.2 2:0.1208 3:0.3 4:0.3 5:0.1 6:0.3 7:0.1 8:0 9:0 10:0 11:0 12:6 13:0 14:0 
10 0:4.9 1:0.2 2:0.0716 3:1.5 4:1.5 5:0.1 6:0.9 7:0.1 8:0 9:0 10:0 11:0 12:3.9 13:0 14:0 
10 0:3.8 1:0.2 2:0.127 3:0.1 4:0.1 5:0.1 6:0.7 7:0.1 8:0 9:0 10:0 11:0 12:4.5 13:0 14:0 
10 0:5.1 1:0.4 2:0.0687 3:0.1 4:0.1 5:0.1 6:1.1 7:0.1 8:0 9:0 10:0 11:0 12:7 13:0 14:0 
10 0:2.4 1:0.2 2:0.1223 3:0.3 4:0.3 5:0 6:0.1 7:0.3 8:0 9:0 10:3.4245 11:0 12:9 13:0 14:0 
10 0:4.6 1:0.2 2:0.0384 3:0.5 4:0.5 5:0 6:0.1 7:0 8:0.1 9:0 10:0 11:0 12:4 13:0 14:0 
10 0:3.5 1:0.2 2:0.1628 3:0 4:0 5:0 6:0.4 7:0 8:0 9:0 10:0 11:0 12:3.8 13:0 14:0 
10 0:2.1 1:0.2 2:0.0222 3:0.1 4:0.1 5:0 6:0.4 7:0 8:0 9:0.1 10:0 11:0.8595 12:1.6 13:0 14:0 
10 0:5.7 1:0.4 2:0.0355 3:0.1 4:0.1 5:0.1 6:0.7 7:0.1 8:0 9:0 10:0 11:0 12:7.2 13:0 14:0 
10 0:4.3 1:0.1 2:0.1314 3:0.5 4:0.5 5:0.1 6:0.6 7:0.1 8:0 9:0 10:0 11:0 12:6 13:0 14:0 
10 0:3.2 1:0.2 2:0.3374 3:0 4:0 5:0 6:0.3 7:0.3 8:0 9:0 10:0 11:0 12:4 13:0 14:0 
10 0:3.8 1:0.2 2:0.2069 3:0.1 4:0.1 5:0.2 6:0.7 7:0 8:0 9:0 10:0 11:0 12:6 13:0 14:0 
10 0:4.7 1:0.1 2:0.1107 3:0 4:0 5:0.2 6:0.1 7:0 8:0.2 9:0 10:0 11:0 12:6 13:2.8 14:0 
10 0:4 1:0.1 2:0.0231 3:0.1 4:0.1 5:0 6:0.8 7:0 8:0 9:0 10:0 11:0 12:7 13:0 14:0 
10 0:5.1 1:0.5 2:0.1139 3:0.1 4:0.1 5:0.1 6:0.5 7:0.1 8:0 9:0 10:0 11:0 12:4 13:0 14:0 
10 0:6.5 1:0.5 2:0.1807 3:0.1 4:0.1 5:0.1 6:0.5 7:0.1 8:0 9:0 10:0 11:0 12:4 13:0 14:0 
10 0:7.1 1:0.2 2:0.0714 3:0.1 4:0.1 5:0.1 6:1.1 7:0.1 8:0 9:0 10:3.3835 11:0 12:2 13:0 14:0 
10 0:5.9 1:0.4 2:0.1003 3:0.1 4:0.1 5:0.6 6:0.8 7:0.4 8:0 9:0 10:0 11:1.1695 12:4 13:0 14:0 
10 0:3.7 1:0.2 2:0.1854 3:0.1 4:0.1 5:0.1 6:0.1 7:0.1 8:0 9:0 10:0 11:0 12:4 13:0 14:0 
10 0:3.1 1:0.2 2:0.0131 3:0.6 4:0.6 5:0 6:0 7:0 8:0 9:0 10:1.101 11:0 12:3.8 13:0 14:0 
10 0:4.7 1:0.2 2:0.1211 3:0.4 4:0.4 5:0 6:0.4 7:0.4 8:0 9:0.1 10:0 11:0 12:5 13:0 14:0 
10 0:3.2 1:0.2 2:0.0242 3:0 4:0 5:0 6:0 7:0 8:0 9:0 10:0 11:0 12:4 13:0 14:0 
10 0:2.8 1:0.2 2:0.1269 3:0 4:0 5:0.1 6:0 7:0.1 8:0 9:0 10:0 11:0 12:4 13:0 14:0 
10 0:4.1 1:0.2 2:0.0729 3:0.1 4:0.1 5:0 6:0.1 7:0 8:0 9:0 10:1.087 11:0 12:4 13:0 14:0 
10 0:5 1:0 2:0.1435 3:0.3 4:0.3 5:0 6:0.3 7:0 8:0 9:0 10:0 11:0 12:3.8 13:0 14:0 
10 0:3.2 1:0.2 2:0.1395 3:0.1 4:0.1 5:0.1 6:0.5 7:0.1 8:0 9:0 10:0 11:0 12:4.9 13:0 14:0 
10 0:7.3 1:0.4 2:0.1582 3:0.8 4:0.8 5:0.1 6:1.1 7:0.1 8:0 9:0 10:1.114 11:0 12:1 13:0 14:0 
10 0:5.2 1:0.6 2:0.0686 3:0.1 4:0.1 5:0.2 6:0.1 7:0.4 8:0 9:0 10:0 11:0 12:3.8 13:0 14:0 
10 0:5.7 1:0.2 2:0.0778 3:0.1 4:0.1 5:0.1 6:0.1 7:0.1 8:0 9:0 10:0 11:0 12:6 13:0 14:0 
10 0:4.6 1:0.4 2:0.0246 3:0.1 4:0.1 5:0.1 6:0.6 7:0.1 8:0 9:0 10:0 11:0.951 12:4 13:0 14:0 
10 0:5.2 1:0.2 2:0.1259 3:0.1 4:0.1 5:0.1 6:0.6 7:0.1 8:0 9:0 10:0 11:0 12:4 13:0.5 14:0 
10 0:5.6 1:0.2 2:0.1774 3:0.1 4:0.1 5:0 6:0.6 7:0 8:0 9:0 10:0 11:0 12:4 13:0 14:0 
10 0:5.8 1:0.2 2:0.212 3:0.3 4:0.3 5:0.1 6:0.5 7:0.1 8:0 9:0 10:0 11:0 12:4 13:0 14:0 
10 0:4.5 1:0.2 2:0.2296 3:0 4:0 5:0.1 6:0 7:0.1 8:0.2 9:0 10:0 11:0 12:4 13:1.2 14:0 
10 0:3.4 1:0.4 2:0.0424 3:0.5 4:0.5 5:0.1 6:0.7 7:0.1 8:0 9:0 10:0 11:0.7895 12:4 13:0 14:0 
10 0:4.5 1:0.3 2:0.1855 3:0.1 4:0.1 5:0 6:0.7 7:0 8:0.1 9:0 10:1.6625 11:0 12:4 13:0 14:0 
10 0:4.4 1:0 2:0.0374 3:0.3 4:0.3 5:0 6:0.3 7:0 8:0 9:0.1 10:0 11:0 12:6 13:0 14:0 
10 0:3.6 1:0.3 2:0.0875 3:0.1 4:0.1 5:0.2 6:0 7:0 8:0 9:0.1 10:0 11:0 12:4.8 13:0 14:0 
2.8669498982963884 0:4 1:0.2 2:0.1179 3:1.2 4:1.2 5:0.1 6:0.7 7:0.1 8:0 9:0 10:0 11:0 12:4 13:0 14:0 
10 0:3.1 1:0.2 2:0.154 3:0.1 4:0.1 5:0 6:0 7:0.3 8:0.1 9:0 10:0 11:0 12:4 13:0 14:0 
10 0:4.2 1:0.1 2:0.1369 3:0 4:0 5:0.1 6:0.5 7:0.1 8:0 9:0 10:0 11:0 12:6 13:0 14:0 
10 0:2.7 1:0.3 2:0.3452 3:0 4:0 5:0 6:0.1 7:0 8:0.1 9:0 10:0 11:0 12:4.8 13:0 14:0 
1.4489740604568129 0:2.7 1:0.4 2:0.1789 3:0.5 4:0.5 5:0 6:0.1 7:0.4 8:0 9:0 10:0 11:0 12:4 13:0 14:0 
7.1400907297405594 0:6.8 1:0.1 2:0.1338 3:0.1 4:0.1 5:0.1 6:0.8 7:0.1 8:0 9:0 10:0 11:0 12:4.5 13:0 14:0 
10 0:4.5 1:0.2 2:0.0763 3:0 4:0 5:0.1 6:0.5 7:0.1 8:0 9:0 10:0 11:0 12:5.5 13:0 14:0 
10 0:2.9 1:0.2 2:0.1018 3:0.5 4:0.5 5:0 6:0.4 7:0 8:0.4 9:0 10:0 11:0.795 12:4 13:0.5 14:0 
2.8341847554673927 0:3.1 1:0.2 2:0.0623 3:0.1 4:0.1 5:0 6:0.7 7:0 8:0 9:0 10:0 11:0 12:5 13:0 14:0 
10 0:4.5 1:0.4 2:0.2307 3:0.3 4:0.3 5:0.2 6:0.3 7:0.4 8:0 9:0.1 10:0.753 11:0 12:4.5 13:0 14:0 
10 0:3.6 1:0.2 2:0.1282 3:0.4 4:0.4 5:0.1 6:0.7 7:0.1 8:0 9:0 10:0 11:0 12:5 13:0 14:0 
10 0:3.8 1:0.2 2:0.127 3:0.2 4:0.2 5:0.1 6:0.6 7:0.1 8:0 9:0 10:0 11:0 12:4.5 13:0 14:0 
10 0:3.9 1:0.2 2:0.1303 3:0.1 4:0.1 5:0 6:0.9 7:0.4 8:0 9:0 10:0 11:0 12:4.8 13:0 14:0 
10 0:5.2 1:0.6 2:0.1222 3:1 4:1 5:0.1 6:0.1 7:0.1 8:0 9:0 10:0 11:0 12:4 13:0 14:0 
10 0:4.7 1:0.2 2:0.11 3:0 4:0 5:0.1 6:0.5 7:0.1 8:0 9:0 10:0 11:0 12:7 13:0 14:0 
10 0:3 1:0.2 2:0.1388 3:0 4:0 5:0 6:0.5 7:0 8:0 9:0 10:0 11:0.8705 12:4.8 13:0 14:0 
10 0:4.5 1:0.2 2:0.1279 3:0.1 4:0.1 5:0.1 6:0.2 7:0.1 8:0 9:0 10:0 11:0.814 12:4.5 13:0 14:0 
10 0:5.7 1:0.2 2:0.1326 3:0.3 4:0.3 5:0 6:0.3 7:0 8:0 9:0 10:0 11:0 12:8 13:0 14:0 
10 0:4.3 1:0.2 2:0.1132 3:0.5 4:0.5 5:0.2 6:0 7:0 8:0 9:0 10:0 11:0 12:4.8 13:0 14:0 
10 0:3.8 1:0.4 2:0.1735 3:0 4:0 5:0.4 6:0.3 7:0.4 8:0.1 9:0 10:0 11:0 12:4 13:0 14:0 
10 0:5.6 1:0.2 2:0.0216 3:1.2 4:1.2 5:0.1 6:0.5 7:0.1 8:0 9:0 10:0 11:0 12:4 13:0 14:0 
10 0:4.4 1:0.1 2:0.3282 3:0 4:0 5:0.1 6:0.1 7:0.1 8:0 9:0 10:0 11:0 12:4 13:0 14:0 
10 0:6.8 1:0.2 2:0.1451 3:0.1 4:0.1 5:0.1 6:0.5 7:0.1 8:0 9:0 10:0 11:0 12:4 13:0 14:0 
10 0:3.2 1:0.2 2:0.1645 3:0.1 4:0.1 5:0 6:0 7:0.3 8:0 9:0 10:0 11:0 12:3.8 13:0 14:0 
10 0:5.5 1:0.2 2:0.129 3:1.2 4:1.2 5:0.1 6:0.6 7:0.1 8:0 9:0 10:0 11:0 12:4 13:0 14:0 
10 0:3.9 1:0.4 2:0.3216 3:1.2 4:1.2 5:0.2 6:0.2 7:0.3 8:0.1 9:0 10:0 11:0 12:4 13:0 14:0 
10 0:5.3 1:0.4 2:0.1767 3:1 4:1 5:0.2 6:0.3 7:0 8:0 9:0.1 10:0 11:0 12:5 13:0 14:0 
10 0:3.4 1:0.2 2:0.2577 3:0.1 4:0.1 5:0.1 6:0.6 7:0.1 8:0 9:0 10:0 11:0 12:5 13:0 14:0 
10 0:5 1:0.2 2:0.0763 3:0.1 4:0.1 5:0.2 6:0.1 7:0.4 8:0 9:0 10:0 11:0 12:3.8 13:0 14:0 
0.64901455863840218 0:4.4 1:0.2 2:0.0371 3:0.5 4:0.5 5:0.2 6:0.9 7:0 8:0 9:0 10:0 11:0 12:5 13:0 14:0 
10 0:6.6 1:0.1 2:0.1991 3:0.1 4:0.1 5:0.1 6:0.8 7:0.1 8:0 9:0 10:0.7045 11:0 12:4 13:0 14:0 
10 0:3.9 1:0.2 2:0.1306 3:0 4:0 5:0.4 6:0.5 7:0 8:0 9:0 10:0 11:0 12:5 13:0 14:0 
10 0:2.4 1:0.2 2:0.2011 3:0.8 4:0.8 5:0.1 6:0.6 7:0.1 8:0 9:0 10:1.3175 11:0 12:3.8 13:0 14:0 
10 0:2.8 1:0.2 2:0.1675 3:0.1 4:0.1 5:0 6:0.6 7:0.3 8:0 9:0 10:0 11:0 12:7 13:0 14:0 
10 0:3.1 1:0.2 2:0.2248 3:0 4:0 5:0 6:0.1 7:0 8:0 9:0.1 10:0 11:0.704 12:4 13:0 14:0 
10 0:3 1:0.2 2:0.1441 3:0 4:0 5:0.1 6:0.3 7:0.1 8:0 9:0 10:0 11:0.87 12:4.5 13:0 14:0 
10 0:3.4 1:0.2 2:0.118 3:0.3 4:0.3 5:0 6:0.3 7:0 8:0 9:0 10:2.4325 11:0 12:6 13:0 14:0 
10 0:5.7 1:0.3 2:0.2519 3:0.1 4:0.1 5:0 6:0 7:0 8:0 9:0 10:0 11:1.129 12:4 13:0 14:0 
10 0:3.2 1:0.2 2:0.1089 3:0.5 4:0.5 5:0.2 6:0.4 7:0.5 8:0 9:0 10:0 11:0 12:4 13:3.5 14:0 
10 0:3.6 1:0.2 2:0.024 3:0 4:0 5:0.1 6:0.1 7:0.1 8:0 9:0 10:0 11:0 12:4 13:0 14:0 
10 0:3.5 1:0.2 2:0.1049 3:0.1 4:0.1 5:0 6:0.2 7:0 8:0 9:0 10:0 11:0 12:4 13:0 14:0 
10 0:5 1:0.2 2:0.1202 3:1.2 4:1.2 5:0.1 6:0.6 7:0.1 8:0 9:0 10:0 11:0 12:3.8 13:0 14:0 
10 0:4.9 1:0 2:0.1449 3:0.5 4:0.5 5:0.1 6:0.3 7:0.1 8:0 9:0 10:0 11:0 12:4 13:0 14:0 
10 0:5.3 1:0.2 2:0.1864 3:0 4:0 5:0.2 6:0.1 7:0 8:0 9:0 10:0 11:0 12:7 13:0 14:0 
10 0:5.3 1:0.2 2:0.113 3:0.5 4:0.5 5:0 6:0.6 7:0 8:0 9:0 10:0 11:0 12:4 13:0 14:0 
10 0:3.4 1:0.2 2:0.1392 3:0.5 4:0.5 5:0.2 6:0.1 7:0.3 8:0 9:0 10:0 11:0 12:4.4 13:0 14:0 
10 0:4.5 1:0.2 2:0.2526 3:0 4:0 5:0 6:0.3 7:0 8:0 9:0 10:0 11:0 12:4.6 13:0 14:0 
10 0:6.3 1:0.5 2:0.0373 3:0.1 4:0.1 5:0.1 6:0.5 7:0.1 8:0 9:0 10:0 11:0 12:4 13:0 14:0 
10 0:4.7 1:0.2 2:0.2066 3:0.5 4:0.5 5:0.1 6:0.1 7:0.1 8:0 9:0 10:0 11:0 12:4.5 13:0 14:0 
9.9779621683055204 0:4 1:0.2 2:0.202 3:0.5 4:0.5 5:0.4 6:0.1 7:0.4 8:0 9:0.1 10:0 11:0 12:6 13:0 14:0 
10 0:4.2 1:0.2 2:0.0824 3:0.1 4:0.1 5:0.2 6:0.9 7:0 8:0 9:0 10:0 11:0 12:4.5 13:0 14:0 
10 0:2.9 1:0.5 2:0.2787 3:0 4:0 5:0 6:0.5 7:0 8:0 9:0 10:0 11:0 12:4 13:0 14:0 
10 0:5.6 1:0.4 2:0.1092 3:0.1 4:0.1 5:0.2 6:0 7:0 8:0 9:0.1 10:0 11:0 12:4.6 13:0 14:0 
10 0:5.2 1:0.2 2:0.1025 3:0.7 4:0.7 5:0.1 6:0.6 7:0.1 8:0 9:0 10:0 11:0 12:4 13:0 14:0 
10 0:5.8 1:0.4 2:0.1091 3:0.1 4:0.1 5:0.1 6:0.8 7:0.1 8:0 9:0 10:0 11:0 12:4 13:0 14:0 
10 0:3.7 1:0.2 2:0.024 3:0.1 4:0.1 5:0.2 6:0.6 7:0 8:0 9:0 10:0 11:0.8345 12:5.5 13:0 14:0 
10 0:4.2 1:0.2 2:0.1315 3:0.1 4:0.1 5:0.1 6:0 7:0.2 8:0 9:0.1 10:0 11:0 12:5.3 13:0 14:0 
10 0:3.5 1:0.2 2:0.016 3:0.1 4:0.1 5:0 6:0.6 7:0 8:0 9:0 10:0 11:0 12:7 13:0 14:0 
10 0:4.7 1:0 2:0.0208 3:0.5 4:0.5 5:0.1 6:0.3 7:0.1 8:0 9:0 10:0 11:0 12:5 13:0 14:0 
10 0:4.1 1:0.4 2:0.015 3:0.3 4:0.3 5:0.2 6:0.3 7:0.4 8:0 9:0.1 10:0 11:0 12:6 13:0 14:0 
10 0:4.7 1:0.2 2:0.222 3:0.7 4:0.7 5:0.1 6:0.6 7:0.1 8:0 9:0 10:2.5065 11:0 12:4 13:0 14:0 
10 0:5.8 1:0.2 2:0.1273 3:0.1 4:0.1 5:0.1 6:0.9 7:0.1 8:0 9:0 10:0 11:0 12:4 13:0 14:0 
10 0:3 1:0.2 2:0.0131 3:0.5 4:0.5 5:0 6:0 7:0 8:0 9:0 10:0 11:0 12:4.8 13:0 14:0 
10 0:6.6 1:0.5 2:0.08 3:0.2 4:0.2 5:0.1 6:0.5 7:0.1 8:0 9:0 10:0 11:0 12:4 13:0 14:0 
10 0:6.1 1:0.5 2:0.0771 3:0 4:0 5:0.1 6:0.5 7:0.1 8:0 9:0 10:0 11:0 12:5.5 13:0 14:0 
10 0:4.7 1:0.2 2:0.2025 3:0.1 4:0.1 5:0.1 6:0.5 7:0.1 8:0 9:0 10:0 11:0 12:4 13:0 14:0 
10 0:3.8 1:0.2 2:0.1884 3:0.1 4:0.1 5:0.1 6:0.6 7:0.1 8:0 9:0 10:0 11:0 12:5 13:0 14:0 
10 0:4.2 1:0.2 2:0.1155 3:0.1 4:0.1 5:0.1 6:0.5 7:0.1 8:0 9:0 10:0 11:0 12:4.8 13:0 14:0 
10 0:6 1:0.2 2:0.0842 3:0.5 4:0.5 5:0.1 6:0.6 7:0.1 8:0 9:0 10:0 11:0 12:4.5 13:0 14:0 
10 0:3.5 1:0.1 2:0.141 3:0.8 4:0.8 5:0.1 6:0.8 7:0.1 8:0 9:0 10:0 11:0 12:7.5 13:0 14:0 
10 0:4.6 1:0.2 2:0.1274 3:0.1 4:0.1 5:0.2 6:0.6 7:0.5 8:0 9:0 10:0 11:0 12:4 13:0 14:0 
10 0:4.7 1:0.1 2:0.0524 3:0.3 4:0.3 5:0.2 6:0.3 7:0 8:0 9:0 10:0 11:0 12:4 13:0 14:0 
10 0:4.4 1:0.2 2:0.2534 3:0.1 4:0.1 5:0.1 6:0.7 7:0.1 8:0 9:0 10:0 11:0 12:4 13:0 14:0 
10 0:6.5 1:0.2 2:0.0614 3:0.7 4:0.7 5:0.1 6:0.8 7:0.1 8:0 9:0 10:3.3835 11:0 12:6 13:0 14:0 
10 0:2.8 1:0.3 2:0.1244 3:0.6 4:0.6 5:0.1 6:0 7:0.1 8:0 9:0 10:0 11:0 12:6 13:0 14:0 
10 0:4.9 1:0.4 2:0.0231 3:0 4:0 5:0 6:0.3 7:0.3 8:0 9:0.1 10:0 11:0 12:5 13:0 14:0 
10 0:4.2 1:0.2 2:0.0476 3:0.1 4:0.1 5:0.1 6:0.2 7:0.1 8:0 9:0 10:0 11:0 12:4 13:0 14:0 
10 0:6.4 1:0.1 2:0.1208 3:0.1 4:0.1 5:0 6:0.4 7:0 8:0 9:0 10:0.5275 11:0 12:4 13:0 14:0 
10 0:4.5 1:0.2 2:0.2306 3:0.1 4:0.1 5:0 6:0.5 7:0 8:0.1 9:0 10:0 11:0 12:4 13:0 14:0 
10 0:3.6 1:0.2 2:0.1254 3:0.5 4:0.5 5:0.1 6:0 7:0.1 8:0 9:0 10:0 11:0 12:5.2 13:0 14:0 
10 0:5.4 1:0.2 2:0.0686 3:0.8 4:0.8 5:0.1 6:0.6 7:0.1 8:0 9:0 10:0 11:0 12:4 13:0 14:0 
10 0:6.4 1:0.4 2:0.0536 3:0.1 4:0.1 5:0.2 6:0 7:0 8:0 9:0.1 10:0 11:0 12:4 13:0 14:0 
10 0:4.2 1:0.1 2:0.1499 3:0 4:0 5:0.1 6:0.8 7:0.1 8:0 9:0 10:0 11:0 12:4.5 13:0 14:0 
10 0:3.8 1:0.4 2:0.0842 3:0 4:0 5:0 6:0.1 7:0.4 8:0.2 9:0 10:0 11:0.8705 12:4 13:3.6 14:0 
3.6555860920388028 0:4 1:0.1 2:0.142 3:0 4:0 5:0.1 6:0.5 7:0.1 8:0 9:0 10:0 11:0 12:4 13:0 14:0 
10 0:1.9 1:0.2 2:0.165 3:0.5 4:0.5 5:0 6:0.5 7:0.3 8:0 9:0.1 10:0 11:0.801 12:1 13:0 14:0 
10 0:4.8 1:0.2 2:0.0812 3:0.1 4:0.1 5:0.1 6:0.6 7:0.1 8:0 9:0 10:0 11:0 12:4 13:0 14:0 
10 0:2.3 1:0.2 2:0.1337 3:0.5 4:0.5 5:0.1 6:0.9 7:0.1 8:0 9:0 10:0 11:0.951 12:4 13:0 14:0 
10 0:4.2 1:0.2 2:0.1529 3:0.1 4:0.1 5:0.1 6:0.6 7:0.1 8:0 9:0 10:0 11:0 12:4 13:0 14:0 
10 0:2.9 1:0.4 2:0.0729 3:1 4:1 5:0 6:0.3 7:0 8:0 9:0.1 10:0 11:0 12:7 13:0 14:0 
10 0:1.8 1:0.2 2:0.1371 3:0.1 4:0.1 5:0 6:0.2 7:0.3 8:0 9:0.1 10:0 11:0.8595 12:1.5 13:0 14:0 
10 0:4.1 1:0.1 2:0.0882 3:0.1 4:0.1 5:0.1 6:0.4 7:0.1 8:0 9:0 10:0 11:0 12:6 13:0 14:0 
10 0:4.3 1:0.1 2:0.2373 3:0 4:0 5:0.2 6:0.1 7:0 8:0 9:0 10:0 11:0 12:6 13:0 14:0 
10 0:4 1:0.2 2:0.0203 3:0 4:0 5:0.1 6:0 7:0.2 8:0 9:0.1 10:0 11:0 12:4 13:0 14:0 
10 0:4.1 1:0.2 2:0.0751 3:0 4:0 5:0.1 6:0.1 7:0.1 8:0 9:0 10:0 11:0 12:4 13:0 14:0 
10 0:5.8 1:0.6 2:0.1294 3:0.1 4:0.1 5:0 6:0.5 7:0 8:0 9:0 10:0 11:0 12:4.7 13:0 14:0 
10 0:5.6 1:0.2 2:0.0526 3:0.2 4:0.2 5:0.1 6:0.8 7:0.1 8:0 9:0 10:0 11:0 12:5 13:0 14:0 
10 0:3.5 1:0.2 2:0.1353 3:0.2 4:0.2 5:0.4 6:0.7 7:0 8:0 9:0 10:0 11:0 12:9 13:0 14:0 
10 0:1.8 1:0.2 2:0.4587 3:0.4 4:0.4 5:0 6:0.2 7:0.3 8:0 9:0 10:0.297 11:0 12:4 13:0 14:0 
10 0:6.7 1:0.5 2:0.1253 3:0.2 4:0.2 5:0.1 6:0.5 7:0.1 8:0 9:0 10:0 11:0.2095 12:0.3 13:0 14:0 
10 0:3.4 1:0.2 2:0.1076 3:0 4:0 5:0.1 6:0.1 7:0.1 8:0 9:0 10:0 11:0 12:7 13:0 14:0 
10 0:3.3 1:0.2 2:0.0728 3:0.7 4:0.7 5:0 6:0 7:0 8:0 9:0 10:0 11:0 12:4.5 13:0 14:0 
10 0:3.7 1:0.2 2:0.5153 3:0.4 4:0.4 5:0.1 6:0.2 7:0.1 8:0 9:0 10:1.8905 11:0 12:5 13:0.4 14:0 
10 0:7.4 1:0.5 2:0.2316 3:0.4 4:0.4 5:0.1 6:0.5 7:0.1 8:0 9:0 10:1.7355 11:0 12:4 13:0 14:0 
10 0:5.5 1:0.2 2:0.0458 3:0.9 4:0.9 5:0 6:0.3 7:0 8:0 9:0 10:0 11:0 12:4 13:0.8 14:0 
10 0:4.2 1:0.2 2:0.0566 3:0.5 4:0.5 5:0.2 6:0.1 7:0 8:0 9:0 10:0 11:0.704 12:4 13:0 14:0 
10 0:3.9 1:0.5 2:0.0706 3:0.1 4:0.1 5:0 6:0.5 7:0 8:0 9:0 10:0 11:0.795 12:4 13:0 14:0 
10 0:3.7 1:0.2 2:0.0444 3:0 4:0 5:0.1 6:0.8 7:0.1 8:0 9:0 10:0 11:0 12:5 13:0 14:0 
10 0:3.6 1:0.4 2:0.1643 3:0 4:0 5:0.1 6:0 7:0.1 8:0 9:0 10:0 11:0 12:4 13:0 14:0 
10 0:3.5 1:0.2 2:0.0756 3:0.5 4:0.5 5:0.1 6:0.2 7:0.1 8:0 9:0 10:0 11:0.7895 12:4 13:0 14:0 
10 0:2.5 1:0.2 2:0.2054 3:1.5 4:1.5 5:0 6:0.9 7:0 8:0 9:0 10:0 11:0.8705 12:4 13:0 14:0 
10 0:5.4 1:0.2 2:0.1247 3:0.5 4:0.5 5:0.1 6:0.5 7:0.1 8:0 9:0 10:1.5685 11:0 12:5 13:0 14:0 
10 0:4.5 1:0.2 2:0.2245 3:0.1 4:0.1 5:0 6:0 7:0 8:0 9:0 10:1.6625 11:0 12:4 13:0 14:0 
10 0:5.1 1:0.2 2:0.0282 3:1.2 4:1.2 5:0.1 6:0.4 7:0.1 8:0 9:0 10:0 11:0 12:4 13:0.4 14:0 
10 0:3.6 1:0.4 2:0.2166 3:0.5 4:0.5 5:0.2 6:0 7:0.4 8:0 9:0.1 10:0 11:0 12:6.5 13:0 14:0 
8.2420302906078575 0:5 1:0.2 2:0.123 3:0.5 4:0.5 5:0 6:0.8 7:0 8:0 9:0 10:0 11:0 12:4 13:0 14:0 
10 0:3.5 1:0.2 2:0.0926 3:0.1 4:0.1 5:0 6:0.5 7:0 8:0 9:0 10:0 11:0 12:4 13:0 14:0 
10 0:6.8 1:0.2 2:0.1128 3:0.1 4:0.1 5:0.6 6:0 7:0 8:0 9:0.1 10:0 11:1.103 12:3 13:0 14:0 
10 0:3.6 1:0.1 2:0.2004 3:0.1 4:0.1 5:0.1 6:0.8 7:0.1 8:0 9:0 10:0 11:0 12:8.4 13:0 14:0 
6.1357255145662766 0:3.2 1:0.6 2:0.0759 3:0.5 4:0.5 5:0.1 6:0.6 7:0.1 8:0 9:0 10:0 11:0 12:4 13:0 14:0 
10 0:5.4 1:0.4 2:0.0935 3:0.5 4:0.5 5:0.2 6:0 7:0.4 8:0 9:0.1 10:0 11:0 12:4 13:0 14:0 
10 0:6 1:0.1 2:0.1524 3:0.1 4:0.1 5:0.1 6:0.5 7:0.1 8:0 9:0 10:0 11:0 12:4 13:0 14:0 
10 0:4.2 1:0.2 2:0.1302 3:0 4:0 5:0.2 6:0.5 7:0 8:0 9:0 10:0 11:0.795 12:4 13:0 14:0 
10 0:6.9 1:0.6 2:0.047 3:0 4:0 5:0.1 6:0.9 7:0.1 8:0 9:0 10:1.909 11:0 12:3 13:0 14:0 
10 0:5.5 1:0.2 2:0.0451 3:0.1 4:0.1 5:0.4 6:0.2 7:0.4 8:0 9:0 10:0 11:0 12:4 13:0 14:0 
10 0:4.1 1:0.2 2:0.133 3:0.5 4:0.5 5:0.1 6:0.5 7:0.1 8:0 9:0 10:0 11:0 12:5 13:0 14:0 
10 0:7.5 1:0.5 2:0.112 3:0.4 4:0.4 5:0.1 6:0.5 7:0.1 8:0.1 9:0 10:0.7045 11:0 12:0.5 13:0 14:0 
10 0:5.5 1:0.2 2:0.0986 3:0.1 4:0.1 5:0.2 6:0 7:0 8:0 9:0.1 10:0 11:0 12:4 13:0 14:0 
10 0:3.6 1:0.2 2:0.0712 3:0.1 4:0.1 5:0.2 6:0.6 7:0.4 8:0 9:0 10:0 11:0 12:4.8 13:0 14:0 
10 0:3.8 1:0.2 2:0.1757 3:0.1 4:0.1 5:0.2 6:0.1 7:0 8:0 9:0 10:0 11:0 12:5 13:0 14:0 
10 0:3.1 1:0.1 2:0.1098 3:0 4:0 5:0.3 6:0.1 7:0 8:0 9:0 10:0 11:0.99 12:6 13:0 14:0 
10 0:4.7 1:0.5 2:0.1185 3:0.1 4:0.1 5:0.1 6:0.5 7:0.1 8:0 9:0 10:1.971 11:0 12:4 13:0.5 14:0 
10 0:5.4 1:0.5 2:0.1153 3:0.3 4:0.3 5:0 6:0.5 7:0 8:0 9:0.1 10:0 11:0 12:4 13:0 14:0 
10 0:3.4 1:0.2 2:0.1847 3:0 4:0 5:0 6:0.1 7:0.5 8:0 9:0.1 10:0 11:0.8705 12:4.5 13:0 14:0 
10 0:4.7 1:0.1 2:0.0695 3:0 4:0 5:0.1 6:0.1 7:0.1 8:0 9:0 10:0 11:0 12:3 13:0 14:0 
10 0:3.4 1:0.1 2:0.0761 3:0.1 4:0.1 5:0.1 6:0.6 7:0.1 8:0 9:0 10:0 11:0 12:5 13:0 14:0 
10 0:3.4 1:0.2 2:0.1895 3:0.5 4:0.5 5:0 6:0.5 7:0 8:0 9:0 10:0 11:0 12:6.5 13:0 14:0 
10 0:5.4 1:0.2 2:0.1195 3:0.1 4:0.1 5:0.6 6:0.9 7:0.4 8:0 9:0 10:0.457 11:0 12:4 13:0 14:0 
10 0:5.9 1:0.4 2:0.0684 3:0.7 4:0.7 5:0.2 6:0 7:0 8:0 9:0.1 10:0 11:0 12:4 13:0 14:0 
10 0:5.1 1:0.2 2:0.1696 3:0.5 4:0.5 5:0.1 6:0.5 7:0.1 8:0 9:0 10:0 11:0 12:4 13:0 14:0 
10 0:3.6 1:0.2 2:0.0337 3:0.1 4:0.1 5:0.1 6:0.1 7:0.1 8:0 9:0 10:0 11:0 12:4 13:0 14:0 
10 0:5.8 1:0 2:0.0751 3:0.9 4:0.9 5:0.1 6:0.3 7:0.1 8:0.2 9:0 10:2.032 11:0 12:4 13:0.3 14:0 
10 0:4.3 1:0.2 2:0.1016 3:0.5 4:0.5 5:0.1 6:0 7:0.2 8:0 9:0.1 10:2.032 11:0 12:1.5 13:0 14:0 
10 0:4.6 1:0.2 2:0.1183 3:0.1 4:0.1 5:0.2 6:0.1 7:0 8:0 9:0 10:0 11:0 12:4.5 13:0 14:0 
10 0:5.3 1:0.5 2:0.1231 3:0.1 4:0.1 5:0.1 6:0.5 7:0.1 8:0 9:0 10:0 11:0 12:4 13:0 14:0 
4.3967497622321234 0:2.9 1:0.1 2:0.0201 3:0.1 4:0.1 5:0 6:0.8 7:0.3 8:0 9:0 10:0 11:0 12:6.5 13:0 14:0 
10 0:4.8 1:0.2 2:0.1412 3:0.1 4:0.1 5:0.2 6:0 7:0.4 8:0 9:0.1 10:0 11:0 12:5.2 13:0 14:0 
10 0:5.7 1:0.2 2:0.2366 3:1.3 4:1.3 5:0.2 6:0.6 7:0.4 8:0 9:0 10:0 11:0 12:4 13:2.2 14:0 
10 0:7.7 1:0.1 2:0.0987 3:0.1 4:0.1 5:0 6:0.9 7:0 8:0 9:0 10:0.2005 11:0 12:2 13:0 14:0 
10 0:3.2 1:0.2 2:0.133 3:0 4:0 5:0 6:0 7:0 8:0 9:0 10:0 11:0 12:5.5 13:0 14:0 
10 0:4.5 1:0 2:0.0695 3:0.5 4:0.5 5:0.1 6:0.1 7:0.1 8:0 9:0 10:0 11:0 12:4 13:0 14:0 
10 0:4 1:0.6 2:0.052 3:0.1 4:0.1 5:0.1 6:0.2 7:0.1 8:0 9:0 10:0 11:0 12:4 13:0 14:0 
10 0:4.2 1:0.2 2:0.1668 3:0.1 4:0.1 5:0.1 6:0.6 7:0.1 8:0.3 9:0 10:0 11:0 12:6 13:0 14:0 
10 0:4.5 1:0.1 2:0.1088 3:1.2 4:1.2 5:0.1 6:0.6 7:0.1 8:0 9:0 10:0 11:0 12:7 13:0 14:0 
10 0:3.2 1:0.2 2:0.0554 3:0.1 4:0.1 5:0 6:0.2 7:0.5 8:0 9:0 10:0 11:0 12:6 13:0 14:0 
10 0:5.4 1:0.2 2:0.1242 3:0.1 4:0.1 5:0.1 6:0.6 7:0.1 8:0 9:0 10:0 11:0 12:4.5 13:0 14:0 
10 0:4.2 1:0.3 2:0.2016 3:0.2 4:0.2 5:0 6:1 7:0 8:0 9:0 10:0 11:0.67 12:4 13:0 14:0 
7.7517174048231423 0:6.6 1:0.5 2:0.0767 3:0.2 4:0.2 5:0 6:0.5 7:0 8:0 9:0 10:0 11:0 12:3 13:0 14:0 
10 0:5.2 1:0 2:0.0485 3:0.3 4:0.3 5:0.1 6:0.3 7:0.1 8:0 9:0 10:0 11:0 12:4 13:0 14:0 
10 0:4.2 1:0.4 2:0.097 3:0 4:0 5:0.2 6:0.3 7:0 8:0 9:0.1 10:0 11:0 12:5 13:0 14:0 
10 0:5 1:0.2 2:0.1858 3:0.8 4:0.8 5:0.1 6:0.5 7:0.1 8:0.4 9:0 10:0 11:0 12:4.9 13:2.3 14:0 
10 0:3.2 1:0.2 2:0.0785 3:0.5 4:0.5 5:0 6:0 7:0 8:0 9:0.1 10:2.0505 11:0 12:5 13:0 14:0 
10 0:4.3 1:0.2 2:0.0653 3:0.3 4:0.3 5:0.3 6:0.1 7:0 8:0 9:0 10:0 11:0 12:5 13:0 14:0 
10 0:3.7 1:0.2 2:0.1257 3:0.5 4:0.5 5:0.1 6:0.1 7:0.1 8:0.2 9:0 10:0 11:0 12:5.5 13:0 14:0 
4.8542862441123225 0:2.7 1:0.2 2:0.1003 3:0 4:0 5:0 6:0 7:0.5 8:0.2 9:0.1 10:0 11:0 12:4 13:3.7 14:0 
10 0:4.9 1:0.2 2:0.1884 3:0.1 4:0.1 5:0.1 6:0.7 7:0.1 8:0 9:0 10:0 11:0 12:5 13:0 14:0 
10 0:3.8 1:0.2 2:0.2765 3:1.1 4:1.1 5:0.1 6:0.4 7:0.1 8:0 9:0 10:0 11:0 12:7.5 13:0.4 14:0 
10 0:4.3 1:0.2 2:0.1279 3:1.3 4:1.3 5:0 6:0.5 7:0.3 8:0 9:0 10:0 11:0 12:4 13:0 14:0 
10 0:3.8 1:0.2 2:0.193 3:1 4:1 5:0 6:0.3 7:0 8:0 9:0 10:0 11:0 12:5 13:0 14:0 
10 0:3.3 1:0.2 2:0.0625 3:0.5 4:0.5 5:0 6:0 7:0.4 8:0 9:0 10:0 11:0 12:4 13:0 14:0 
10 0:5.5 1:0.2 2:0.1734 3:0.5 4:0.5 5:0.1 6:0.3 7:0.1 8:0 9:0 10:0 11:0 12:4 13:0 14:0 
10 0:6.1 1:0.4 2:0.1139 3:0 4:0 5:0.3 6:0.3 7:0 8:0 9:0 10:0 11:0 12:4 13:0 14:0 
10 0:4.9 1:0.2 2:0.1282 3:0.1 4:0.1 5:0.2 6:0.3 7:0 8:0 9:0 10:0 11:0 12:4.2 13:0 14:0 
10 0:4.2 1:0.2 2:0.1048 3:0 4:0 5:0.1 6:0.7 7:0.1 8:0 9:0 10:0 11:0 12:5.8 13:0 14:0 
10 0:6.1 1:0.2 2:0.134 3:0.4 4:0.4 5:0.1 6:0.6 7:0.1 8:0 9:0 10:0 11:0 12:4 13:0 14:0 
10 0:4.6 1:0.4 2:0.2565 3:0.1 4:0.1 5:0.1 6:0.4 7:0.1 8:0 9:0 10:0 11:0 12:4 13:0 14:0 
10 0:2.7 1:0.2 2:0.2436 3:0.5 4:0.5 5:0.1 6:0.6 7:0.1 8:0 9:0 10:1.4145 11:0 12:7 13:0 14:0 
10 0:4.8 1:0.2 2:0.2176 3:0.1 4:0.1 5:0.1 6:0.5 7:0.1 8:0 9:0 10:0 11:0 12:5 13:0 14:0 
10 0:5.6 1:0.1 2:0.107 3:1.2 4:1.2 5:0.2 6:0.5 7:0.3 8:0 9:0 10:0 11:0 12:4 13:0 14:0 
10 0:3.4 1:0.2 2:0.0629 3:0.1 4:0.1 5:0 6:0 7:0 8:0 9:0.1 10:2.4325 11:0 12:4 13:0 14:0 
10 0:5.6 1:0.3 2:0.0688 3:0 4:0 5:0.1 6:0.5 7:0.1 8:0 9:0 10:0 11:0 12:4 13:0 14:0 
10 0:2.7 1:0.4 2:0.1386 3:0.1 4:0.1 5:0.1 6:0.2 7:0.5 8:0 9:0 10:0 11:0 12:5 13:0 14:0 
10 0:4.2 1:0.2 2:0.104 3:0 4:0 5:0.2 6:0.5 7:0.4 8:0 9:0 10:0 11:0 12:4.5 13:0.5 14:0 
10 0:5.1 1:0.2 2:0.1426 3:0 4:0 5:0.2 6:0.1 7:0 8:0.3 9:0 10:0 11:0 12:5 13:0 14:0 
10 0:4 1:0.4 2:0.0343 3:0.5 4:0.5 5:0 6:0 7:0.4 8:0.3 9:0.1 10:1.4885 11:0 12:3.5 13:0 14:0 
10 0:2.5 1:0.2 2:0.127 3:0.5 4:0.5 5:0 6:0.4 7:0 8:0 9:0 10:1.2985 11:0 12:4.8 13:0 14:0 
10 0:2.6 1:0.2 2:0.153 3:0.5 4:0.5 5:0 6:0.3 7:0 8:0 9:0 10:0 11:0.801 12:4 13:0.5 14:0 
10 0:4.7 1:0 2:0.1284 3:0.1 4:0.1 5:0.1 6:0.4 7:0.1 8:0 9:0 10:0 11:0 12:4 13:0 14:0 
10 0:3 1:0 2:0.1355 3:0.1 4:0.1 5:0.1 6:0 7:0.1 8:0 9:0 10:0 11:0.951 12:4 13:0 14:0 
10 0:5.7 1:0.2 2:0.2011 3:0.5 4:0.5 5:0.2 6:0.1 7:0.5 8:0 9:0.1 10:0.297 11:0 12:1 13:0 14:0 
10 0:4.7 1:0.2 2:0.0829 3:0.7 4:0.7 5:0.2 6:0.5 7:0 8:0 9:0 10:0 11:0 12:5 13:0 14:0 
10 0:3.4 1:0.5 2:0.2355 3:0.2 4:0.2 5:0.2 6:0.5 7:0.3 8:0 9:0 10:0 11:0 12:8.4 13:0 14:0 
10 0:4.1 1:0.2 2:0.1732 3:0 4:0 5:0.2 6:0.1 7:0 8:0 9:0.1 10:0 11:0 12:5.5 13:0 14:0 
10 0:4 1:0.2 2:0.1184 3:0.1 4:0.1 5:0.2 6:0.4 7:0 8:0 9:0 10:0 11:0 12:6 13:3.4 14:0 
9.9513187269287222 0:5.9 1:0.2 2:0.0613 3:0.5 4:0.5 5:0.1 6:0.3 7:0.1 8:0 9:0 10:0 11:0 12:3.4 13:0 14:0 
10 0:6.1 1:0.2 2:0.0296 3:1.1 4:1.1 5:0 6:0.2 7:0 8:0.1 9:0 10:0 11:1.1695 12:4 13:0 14:0 
10 0:4.4 1:0.6 2:0.0904 3:0.5 4:0.5 5:0.2 6:0.9 7:0 8:0 9:0 10:0 11:0 12:6 13:0 14:0 
10 0:5.5 1:0.2 2:0.0626 3:0.1 4:0.1 5:0.2 6:0 7:0 8:0 9:0.1 10:0 11:0 12:4 13:0 14:0 
10 0:3.4 1:0.2 2:0.0231 3:0.1 4:0.1 5:0.2 6:0.6 7:0 8:0 9:0 10:3.4245 11:0 12:5.5 13:0 14:0 
10 0:2.6 1:0.2 2:0.0234 3:0 4:0 5:0 6:0 7:0 8:0 9:0 10:0 11:0 12:4.5 13:0 14:0 
10 0:3.6 1:0.2 2:0.1424 3:0 4:0 5:0.1 6:0.3 7:0.1 8:0 9:0 10:0 11:0 12:3.8 13:0 14:0 
10 0:3.5 1:0.2 2:0.1296 3:0.5 4:0.5 5:0.1 6:0.3 7:0.1 8:0 9:0 10:0 11:0 12:6 13:0 14:0 
10 0:5.3 1:0.1 2:0.1037 3:0.5 4:0.5 5:0.1 6:0.8 7:0.1 8:0 9:0 10:0 11:0 12:5 13:0 14:0 
10 0:4 1:0.2 2:0.0719 3:0.1 4:0.1 5:0.1 6:0.5 7:0.2 8:0 9:0.1 10:2.5065 11:0 12:2 13:0 14:0 
10 0:2.4 1:0.2 2:0.2574 3:0.5 4:0.5 5:0 6:0 7:0 8:0 9:0 10:0 11:1.1025 12:2.4 13:0 14:0 
10 0:3.6 1:0.2 2:0.1077 3:0.2 4:0.2 5:0.1 6:0.6 7:0.1 8:0 9:0 10:0 11:0 12:5 13:0 14:0 
10 0:3.2 1:0.3 2:0.3087 3:0 4:0 5:0.1 6:0.1 7:0.1 8:0 9:0 10:0 11:0 12:4 13:0 14:0 
10 0:3.8 1:0.2 2:0.1272 3:0.1 4:0.1 5:0.1 6:0.1 7:0.2 8:0 9:0.1 10:0 11:0 12:5.5 13:0 14:0 
10 0:6.3 1:0.4 2:0.028 3:0.1 4:0.1 5:0.1 6:0.1 7:0.1 8:0 9:0 10:0 11:0 12:5.5 13:0 14:0 
10 0:3.9 1:0.2 2:0.2729 3:0.5 4:0.5 5:0.1 6:0.1 7:0.1 8:0 9:0 10:0 11:0 12:4.8 13:0 14:0 
10 0:4.5 1:0.4 2:0.09 3:1 4:1 5:0.2 6:0.3 7:0.4 8:0.1 9:0.1 10:0 11:0.863 12:4 13:0 14:0 
10 0:3.3 1:0 2:0.054 3:0 4:0 5:0.1 6:0 7:0.1 8:0.1 9:0 10:0 11:0 12:4 13:0 14:0 
10 0:4.8 1:0.2 2:0.051 3:0 4:0 5:0.1 6:0.3 7:0.1 8:0 9:0 10:0 11:0 12:5 13:0 14:0 
10 0:4.6 1:0.5 2:0.11 3:0.1 4:0.1 5:0.1 6:0.5 7:0.1 8:0 9:0 10:0 11:0 12:4 13:0 14:0 
10 0:3.5 1:0.2 2:0.0786 3:0 4:0 5:0.1 6:0.3 7:0.1 8:0 9:0 10:0 11:0 12:5.5 13:0 14:0 
10 0:4.6 1:0.1 2:0.077 3:0 4:0 5:0.1 6:0.6 7:0.1 8:0 9:0 10:0 11:0 12:4 13:0 14:0 
10 0:5.6 1:0.2 2:0.1704 3:0.2 4:0.2 5:0.1 6:0.6 7:0.1 8:0 9:0 10:0 11:0 12:4.5 13:0 14:0 
10 0:3.1 1:0.2 2:0.1082 3:0.1 4:0.1 5:0 6:0.2 7:0.5 8:0 9:0 10:0 11:0 12:4 13:0 14:0 
10 0:5.3 1:0.2 2:0.1333 3:0 4:0 5:0.1 6:0.1 7:0.1 8:0.1 9:0 10:0 11:0 12:4 13:0 14:0 
10 0:3.6 1:0.2 2:0.1684 3:0.1 4:0.1 5:0.1 6:0 7:0.1 8:0 9:0 10:0 11:0 12:4.5 13:0 14:0 
10 0:4.3 1:0.2 2:0.209 3:0.1 4:0.1 5:0.1 6:0.2 7:0.1 8:0 9:0 10:0 11:0 12:4 13:0 14:0 
10 0:3.1 1:0.2 2:0.0401 3:0.5 4:0.5 5:0.1 6:0.4 7:0.1 8:0 9:0 10:0 11:0.836 12:5 13:0 14:0 
10 0:8.1 1:0.2 2:0.0779 3:0.4 4:0.4 5:0.6 6:1.3 7:0 8:0.1 9:0.1 10:1.031 11:0 12:0.5 13:0 14:0 
10 0:3.3 1:0.4 2:0.178 3:0.1 4:0.1 5:0.2 6:0 7:0.3 8:0 9:0.1 10:0 11:0.569 12:4 13:0 14:0 
10 0:3.3 1:0.2 2:0.0978 3:0 4:0 5:0.1 6:0.1 7:0.1 8:0 9:0 10:0 11:0 12:5 13:0 14:0 
10 0:6.3 1:0.1 2:0.0183 3:0.1 4:0.1 5:0.1 6:0.8 7:0.1 8:0 9:0 10:0 11:0 12:9.8 13:0 14:0 
10 0:4.2 1:0.1 2:0.0189 3:0.7 4:0.7 5:0.1 6:0.1 7:0.1 8:0 9:0 10:0 11:0 12:6 13:0 14:0 
10 0:3.5 1:0.2 2:0.1407 3:1.2 4:1.2 5:0.1 6:0.7 7:0.1 8:0 9:0 10:0 11:0 12:7 13:0 14:0 
10 0:5 1:0.4 2:0.1207 3:0.5 4:0.5 5:0.1 6:0 7:0.1 8:0 9:0 10:0 11:0.87 12:4.8 13:0 14:0 
10 0:4.8 1:0.2 2:0.0855 3:0.5 4:0.5 5:0.6 6:0.1 7:0.4 8:0.1 9:0.1 10:0 11:0.8345 12:3.8 13:0 14:0 
10 0:5.3 1:0.2 2:0.0706 3:0.5 4:0.5 5:0.1 6:0.3 7:0.1 8:0 9:0 10:0 11:0 12:4 13:0 14:0 
10 0:4.9 1:0.4 2:0.196 3:0.3 4:0.3 5:0.4 6:0.3 7:0.4 8:0 9:0.1 10:0 11:0 12:5 13:0 14:0 
10 0:4.8 1:0.6 2:0.0178 3:1.2 4:1.2 5:0.1 6:0.8 7:0.1 8:0 9:0 10:0 11:0 12:8 13:0 14:0 
10 0:3.7 1:0.1 2:0.0202 3:0.1 4:0.1 5:0 6:0.8 7:0.3 8:0 9:0 10:0 11:0 12:8.5 13:0 14:0 
10 0:2.7 1:0.2 2:0.1113 3:0.1 4:0.1 5:0 6:0.6 7:0 8:0 9:0 10:0 11:0 12:3.5 13:3.8 14:0 
10 0:3.4 1:0.2 2:0.1237 3:0.1 4:0.1 5:0.2 6:0.6 7:0 8:0 9:0 10:1.6625 11:0 12:3.5 13:0 14:0 
10 0:4.3 1:0.6 2:0.1192 3:0.5 4:0.5 5:0.1 6:0.1 7:0.1 8:0 9:0 10:0 11:0 12:4 13:0 14:0 
10 0:4.6 1:0.2 2:0.1057 3:0.5 4:0.5 5:0 6:0.2 7:0 8:0 9:0 10:0 11:0 12:4 13:0 14:0 
10 0:4.4 1:0.2 2:0.1212 3:0.3 4:0.3 5:0.1 6:0.1 7:0.1 8:0.2 9:0 10:0 11:0 12:4.8 13:0.3 14:0 
10 0:3.5 1:0.1 2:0.2458 3:0 4:0 5:0.1 6:0.5 7:0.1 8:0 9:0 10:0 11:0 12:6 13:2.8 14:0 
10 0:3.9 1:0.2 2:0.1378 3:0 4:0 5:0 6:0.1 7:0 8:0 9:0 10:0 11:0 12:4.5 13:0 14:0 
10 0:3.8 1:0.2 2:0.1596 3:0.1 4:0.1 5:0.1 6:0.2 7:0.1 8:0 9:0 10:1.4145 11:0 12:3 13:0.4 14:0 
10 0:5.5 1:0.2 2:0.1287 3:0.8 4:0.8 5:0.1 6:0.6 7:0.1 8:0 9:0 10:0 11:0 12:6 13:0 14:0 
10 0:4.4 1:0.6 2:0.1147 3:0.1 4:0.1 5:0.1 6:0.5 7:0.2 8:0 9:0.1 10:0 11:0 12:6 13:0 14:0 
10 0:3.5 1:0.1 2:0.1262 3:0.1 4:0.1 5:0 6:0.1 7:0 8:0 9:0 10:2.325 11:0 12:5 13:0 14:0 
10 0:4 1:0 2:0.1252 3:0 4:0 5:0.1 6:0 7:0.1 8:0 9:0 10:0 11:0 12:4 13:0 14:0 
10 0:2.4 1:0.2 2:0.0578 3:0.1 4:0.1 5:0 6:0.5 7:0.3 8:0 9:0.1 10:0 11:0.881 12:3.2 13:0 14:0 
10 0:3.1 1:0.2 2:0.2226 3:0.1 4:0.1 5:0.4 6:0.9 7:0.4 8:0 9:0.1 10:0 11:1.119 12:4 13:0 14:0 
10 0:3 1:0.2 2:0.2709 3:0.1 4:0.1 5:0.5 6:0 7:0.1 8:0 9:0 10:0 11:0 12:6 13:0 14:0 
10 0:4.4 1:0.4 2:0.0225 3:1.5 4:1.5 5:0.1 6:0.6 7:0.1 8:0 9:0 10:0 11:0 12:5.5 13:0 14:0 
10 0:6.1 1:0.2 2:0.0837 3:1.1 4:1.1 5:0.2 6:0.7 7:0 8:0 9:0 10:0 11:0.938 12:5.6 13:0 14:0 
10 0:5.4 1:0.2 2:0.1495 3:0.5 4:0.5 5:0.2 6:0 7:0 8:0 9:0 10:0 11:0 12:3 13:0 14:0 
10 0:3.5 1:0.2 2:0.1616 3:0.1 4:0.1 5:0.1 6:0.2 7:0.1 8:0 9:0 10:0 11:0 12:6 13:0 14:0 
10 0:4.2 1:0.1 2:0.0439 3:0.1 4:0.1 5:0.1 6:0.1 7:0.1 8:0 9:0 10:0 11:0 12:5 13:0 14:0 
10 0:3.6 1:0.2 2:0.0955 3:0.1 4:0.1 5:0.2 6:0.2 7:0 8:0 9:0 10:0 11:0 12:4 13:0 14:0 
10 0:3.4 1:0.2 2:0.1579 3:0.5 4:0.5 5:0.2 6:0.1 7:0 8:0 9:0 10:0 11:0 12:5 13:0 14:0 
10 0:7.4 1:0.6 2:0.1103 3:0.5 4:0.5 5:0.6 6:0.1 7:0.4 8:0 9:0 10:0 11:0 12:4 13:0 14:0 
10 0:2 1:0.1 2:0.1067 3:0.5 4:0.5 5:0 6:0.8 7:0.3 8:0 9:0 10:0 11:1.129 12:1 13:0 14:0 
10 0:6 1:0.1 2:0.1155 3:0.4 4:0.4 5:0.1 6:0.8 7:0.1 8:0 9:0 10:0 11:0.836 12:8.4 13:0 14:0 
10 0:4.6 1:0.4 2:0.1817 3:0 4:0 5:0.1 6:0.3 7:0.2 8:0 9:0.1 10:0 11:0 12:7 13:0 14:0 
10 0:6.5 1:0.6 2:0.0553 3:0.1 4:0.1 5:0.1 6:0.8 7:0.1 8:0 9:0 10:0 11:1.176 12:6.5 13:0 14:0 
10 0:3.5 1:0.2 2:0.2423 3:0.5 4:0.5 5:0.1 6:1 7:0.1 8:0 9:0 10:1.4145 11:0 12:5.5 13:1.4 14:0 
10 0:5.2 1:0.6 2:0.1431 3:0 4:0 5:0.1 6:0.5 7:0.1 8:0 9:0 10:0 11:0 12:6 13:0 14:0 
10 0:2.5 1:0.2 2:0.1176 3:0.6 4:0.6 5:0 6:0.8 7:0 8:0 9:0 10:1.177 11:0 12:4.5 13:0 14:0 
10 0:4.4 1:0 2:0.2385 3:0.1 4:0.1 5:0.1 6:0 7:0.1 8:0 9:0 10:0 11:0 12:4 13:0 14:0 
10 0:2.5 1:0.2 2:0.0896 3:0 4:0 5:0 6:0.1 7:0.3 8:0 9:0 10:0 11:0 12:5.5 13:0 14:0 
10 0:6 1:0.2 2:0.1298 3:0.1 4:0.1 5:0.1 6:0.7 7:0.1 8:0 9:0 10:0 11:0 12:4 13:0 14:0 
10 0:4.5 1:0.1 2:0.0218 3:0.5 4:0.5 5:0 6:0.8 7:0 8:0 9:0 10:0 11:0 12:5 13:0 14:0 
10 0:4.7 1:0.4 2:0.2232 3:0.1 4:0.1 5:0.1 6:0.6 7:0.1 8:0 9:0 10:0 11:0 12:4 13:0 14:0 
10 0:4.1 1:0.2 2:0.1683 3:0.1 4:0.1 5:0.1 6:0.5 7:0.1 8:0 9:0 10:0 11:0 12:4 13:0 14:0 
10 0:4.7 1:0.2 2:0.065 3:0.5 4:0.5 5:0.1 6:0.1 7:0.1 8:0.2 9:0 10:0 11:0 12:4 13:0 14:0 
10 0:5.5 1:0.6 2:0.129 3:0.1 4:0.1 5:0.1 6:0.1 7:0.1 8:0 9:0 10:0 11:0 12:4.5 13:0 14:0 
10 0:3.8 1:0.2 2:0.3388 3:0.1 4:0.1 5:0.1 6:0.2 7:0.1 8:0 9:0 10:0 11:0 12:4 13:0 14:0 
10 0:4.3 1:0.4 2:0.1681 3:0.3 4:0.3 5:0.2 6:0.3 7:0.4 8:0 9:0 10:0 11:0 12:4 13:0 14:0 
10 0:4.5 1:0.2 2:0.0495 3:0.1 4:0.1 5:0 6:0.9 7:0 8:0 9:0 10:0 11:0 12:4 13:0 14:0 
10 0:4.3 1:0.1 2:0.1345 3:0.3 4:0.3 5:0.1 6:0.5 7:0.1 8:0 9:0 10:0 11:0 12:6 13:0 14:0 
10 0:4.1 1:0 2:0.2416 3:0.5 4:0.5 5:0 6:0.3 7:0 8:0 9:0 10:0 11:0 12:4 13:0 14:0 
10 0:4.1 1:0.4 2:0.1648 3:0.5 4:0.5 5:0.1 6:0.1 7:0.1 8:0 9:0 10:0 11:0 12:4 13:0 14:0 
10 0:3.5 1:0.1 2:0.1468 3:1.5 4:1.5 5:0 6:0.4 7:0 8:0.1 9:0.1 10:0 11:0 12:4 13:3.3 14:0 
10 0:3.5 1:0.2 2:0.1775 3:0 4:0 5:0.1 6:0.5 7:0.1 8:0 9:0 10:0 11:0 12:5 13:0 14:0 
10 0:4.3 1:0.6 2:0.218 3:0.5 4:0.5 5:0.1 6:0.9 7:0.1 8:0 9:0 10:0 11:0 12:5 13:0 14:0 
10 0:7.1 1:0.2 2:0.1072 3:0.5 4:0.5 5:0 6:0.4 7:0 8:0 9:0.1 10:1.482 11:0 12:6 13:0 14:0 
10 0:5.1 1:0.6 2:0.1224 3:0.1 4:0.1 5:0.1 6:0.5 7:0.1 8:0 9:0 10:0 11:0 12:5 13:0 14:0 
-10 0:5.2 1:0.1 2:0.1424 3:0.1 4:0.1 5:0.1 6:0.1 7:0.1 8:0 9:0 10:0 11:0 12:4.5 13:0 14:1 
-10 0:4.2 1:0.2 2:0.1083 3:0 4:0 5:0.1 6:0.1 7:0.1 8:0 9:0 10:2.589 11:0 12:4 13:0 14:1 
-10 0:3.7 1:0.2 2:0.1905 3:0.5 4:0.5 5:0.1 6:0.1 7:0.1 8:0.1 9:0 10:0 11:0 12:8 13:0 14:1 
-10 0:3 1:0 2:0.096 3:0 4:0 5:0.1 6:0.3 7:0.1 8:0.2 9:0 10:0 11:0 12:4 13:0.3 14:1 
-10 0:4 1:0.2 2:0.0827 3:0.7 4:0.7 5:0.1 6:0.6 7:0.1 8:0.2 9:0 10:0 11:0 12:4 13:0.5 14:1 
-10 0:4.3 1:0.1 2:0.1984 3:0.3 4:0.3 5:0.2 6:0.1 7:0.4 8:0 9:0.1 10:0 11:0 12:4.5 13:0 14:1 
-10 0:4 1:0.2 2:0.1314 3:0.9 4:0.9 5:0.1 6:0.3 7:0.1 8:0 9:0 10:0 11:0 12:6 13:0 14:1 
-10 0:5.6 1:0.4 2:0.1473 3:0 4:0 5:0.1 6:1 7:0.1 8:0 9:0 10:0 11:0 12:4 13:0 14:1 
-10 0:5.4 1:0.5 2:0.1224 3:0.5 4:0.5 5:0.1 6:0.5 7:0.1 8:0.2 9:0 10:0 11:0 12:6 13:0.5 14:1 
-10 0:3.1 1:0.2 2:0.0572 3:0.5 4:0.5 5:0.1 6:0.5 7:0.1 8:0 9:0 10:0 11:0 12:3.8 13:0.5 14:1 
-10 0:5.7 1:0.3 2:0.2295 3:0 4:0 5:0.1 6:0.3 7:0.1 8:0.1 9:0 10:0 11:0 12:4 13:0 14:1 
-10 0:4.7 1:0.2 2:0.0352 3:1 4:1 5:0.1 6:0.3 7:0.2 8:0 9:0.1 10:0 11:0.951 12:6 13:0.7 14:1 
-10 0:5 1:0.3 2:0.1709 3:0 4:0 5:0.2 6:0.1 7:0 8:0 9:0 10:0 11:0 12:5.5 13:0 14:1 
-10 0:4.3 1:0.2 2:0.1616 3:0.5 4:0.5 5:0.1 6:1 7:0.1 8:0 9:0 10:0 11:0 12:4 13:0 14:1 
-10 0:4.2 1:0.2 2:0.0792 3:0.9 4:0.9 5:0.1 6:0.3 7:0.1 8:0 9:0 10:0 11:0 12:4.5 13:0 14:1 
-10 0:5.3 1:0.2 2:0.1154 3:0.1 4:0.1 5:0.1 6:0 7:0.2 8:0 9:0.1 10:0 11:0 12:4 13:0 14:1 
-10 0:4.9 1:0.6 2:0.1302 3:0.5 4:0.5 5:0.1 6:0.1 7:0.1 8:0 9:0 10:0 11:0 12:5 13:0 14:1 
-10 0:2.9 1:0.1 2:0.1102 3:0 4:0 5:0.1 6:0.5 7:0.1 8:0 9:0 10:0 11:0 12:7 13:0 14:1 
-10 0:4.9 1:0.4 2:0.1822 3:0.1 4:0.1 5:0.1 6:1.1 7:0.1 8:0 9:0 10:0 11:0 12:4 13:0 14:1 
-10 0:4.3 1:0.3 2:0.279 3:0.9 4:0.9 5:0 6:0.3 7:0 8:0 9:0.1 10:0 11:0 12:5 13:0 14:1 
-10 0:3.4 1:0.4 2:0.1537 3:0 4:0 5:0.1 6:1.1 7:0.1 8:0 9:0 10:0 11:0 12:4 13:0 14:1 
-10 0:4.8 1:0.1 2:0.1299 3:0.9 4:0.9 5:0.1 6:0.3 7:0.1 8:0 9:0 10:0 11:0.951 12:6 13:0 14:1 
-10 0:3.7 1:0.2 2:0.1377 3:0.5 4:0.5 5:0.1 6:0.5 7:0.1 8:0 9:0 10:0 11:0 12:4.8 13:0 14:1 
-10 0:7.6 1:0.2 2:0.0843 3:0.3 4:0.3 5:0.1 6:0.1 7:0.1 8:0 9:0 10:0 11:0 12:4 13:0 14:1 
-10 0:3.2 1:0.6 2:0.2157 3:0.1 4:0.1 5:0.1 6:0.6 7:0.1 8:0 9:0 10:3.844 11:0 12:4 13:0 14:1 
-10 0:3.8 1:0.2 2:0.0444 3:1 4:1 5:0.1 6:0.3 7:0.1 8:0 9:0 10:0 11:0 12:4 13:0 14:1 
-10 0:5.6 1:0.1 2:0.2279 3:0.1 4:0.1 5:0.1 6:0.4 7:0.1 8:0 9:0 10:0 11:0.9435 12:5 13:0.9 14:1 
-10 0:4.9 1:0.4 2:0.134 3:0.7 4:0.7 5:0.1 6:0.6 7:0.1 8:0.1 9:0 10:0 11:0 12:4 13:0 14:1 
-10 0:2.9 1:0 2:0.182 3:0 4:0 5:0.1 6:0.3 7:0.1 8:0 9:0 10:0 11:0 12:5 13:0 14:1 
-10 0:4.7 1:0.2 2:0.1955 3:0 4:0 5:0.1 6:0.1 7:0.2 8:0 9:0.1 10:0 11:0 12:4 13:0 14:1 
-10 0:3.1 1:0.2 2:0.0781 3:0.6 4:0.6 5:0.1 6:0 7:0.1 8:0 9:0 10:0 11:0 12:4 13:0 14:1 
-10 0:3.8 1:0.3 2:0.0855 3:0.3 4:0.3 5:0.1 6:0.3 7:0.1 8:0 9:0 10:0 11:0 12:4 13:1.1 14:1 
-10 0:4.9 1:0.2 2:0.0557 3:0.5 4:0.5 5:0.1 6:0.6 7:0.1 8:0.2 9:0 10:0 11:0 12:4 13:0 14:1 
-10 0:4.5 1:0.2 2:0.1335 3:0.7 4:0.7 5:0 6:0.3 7:0 8:0 9:0.1 10:0 11:0.782 12:4 13:0 14:1 
-10 0:5.2 1:0.5 2:0.1718 3:0.1 4:0.1 5:0.2 6:0.5 7:0 8:0 9:0 10:0 11:0 12:4.5 13:0 14:1 
-10 0:4.5 1:0.1 2:0.1366 3:0.3 4:0.3 5:0.1 6:0.5 7:0.1 8:0 9:0 10:0 11:0 12:4 13:0 14:1 
-10 0:5.1 1:0.2 2:0.0652 3:0.5 4:0.5 5:0.1 6:0.5 7:0.1 8:0 9:0 10:0 11:0.9885 12:4 13:0 14:1 
-10 0:2.8 1:0 2:0.1016 3:0 4:0 5:0.1 6:0.3 7:0.1 8:0 9:0 10:0 11:0 12:4 13:0 14:1 
-10 0:4.4 1:0.4 2:0.1232 3:0.5 4:0.5 5:0.1 6:0.1 7:0.1 8:0.1 9:0 10:0 11:0 12:3.8 13:0 14:1 
-10 0:4 1:0.2 2:0.1945 3:0.8 4:0.8 5:0.1 6:0.9 7:0.1 8:0 9:0 10:0 11:0 12:4 13:0.4 14:1 
-10 0:3.7 1:0.3 2:0.0197 3:0.5 4:0.5 5:0.1 6:0 7:0.1 8:0 9:0 10:0 11:0 12:4.2 13:0 14:1 
-10 0:5.8 1:0 2:0.0744 3:0.9 4:0.9 5:0.1 6:0.3 7:0.1 8:0 9:0 10:0 11:0 12:0.1 13:0 14:1 
-10 0:3.5 1:0.2 2:0.0944 3:0.3 4:0.3 5:0.1 6:0.3 7:0.5 8:0 9:0 10:3.649 11:0 12:4 13:0 14:1 
-10 0:5.1 1:0.2 2:0.1761 3:0 4:0 5:0.1 6:0.1 7:0.1 8:0 9:0 10:0 11:0 12:5 13:0 14:1 
-10 0:3.6 1:0.2 2:0.0874 3:0 4:0 5:0.1 6:0.4 7:0.1 8:0.1 9:0 10:3.649 11:0 12:3.6 13:0 14:1 
-10 0:3.7 1:0.2 2:0.1415 3:0.1 4:0.1 5:0.1 6:0.6 7:0.1 8:0 9:0 10:0 11:0 12:4 13:0 14:1 
-10 0:5.4 1:0.6 2:0.0852 3:0.8 4:0.8 5:0.1 6:0.9 7:0.1 8:0 9:0 10:0 11:0 12:4 13:0 14:1 
-10 0:3.7 1:0.2 2:0.4319 3:0 4:0 5:0 6:0.1 7:0 8:0.1 9:0 10:0 11:0 12:6 13:0 14:1 
-10 0:2.8 1:0.2 2:0.0521 3:1 4:1 5:0 6:0.3 7:0 8:0 9:0 10:0 11:0 12:5.5 13:0 14:1 
-10 0:4.1 1:0.2 2:0.1223 3:0 4:0 5:0.1 6:0.1 7:0.1 8:0 9:0 10:0 11:0 12:5 13:1.1 14:1 
-10 0:3.8 1:0.4 2:0.0782 3:0.3 4:0.3 5:0.1 6:0.1 7:0.1 8:0 9:0 10:0 11:0 12:7 13:0 14:1 
-10 0:4 1:0.2 2:0.2363 3:0 4:0 5:0.1 6:0.3 7:0.1 8:0 9:0 10:0 11:0 12:4 13:0 14:1 
-10 0:5.8 1:0.2 2:0.1607 3:0.1 4:0.1 5:0.1 6:0 7:0.1 8:0 9:0 10:0 11:0 12:4.5 13:0 14:1 
-10 0:4 1:0.2 2:0.141 3:0.6 4:0.6 5:0.1 6:1 7:0.1 8:0 9:0 10:0 11:0.9885 12:6 13:0 14:1 
-10 0:4.1 1:0.2 2:0.0766 3:1 4:1 5:0.1 6:0.3 7:0.2 8:0 9:0.1 10:0 11:0 12:4 13:0 14:1 
-10 0:4.2 1:0.1 2:0.2058 3:0.1 4:0.1 5:0.1 6:0.8 7:0.1 8:0.2 9:0 10:0 11:0 12:4 13:1.6 14:1 
-10 0:3.7 1:0.6 2:0.1747 3:0.5 4:0.5 5:0.1 6:0.1 7:0.1 8:0.2 9:0 10:0 11:0 12:7.5 13:1.7 14:1 
-10 0:6.4 1:0.2 2:0.0144 3:0.1 4:0.1 5:0.1 6:0.1 7:0.1 8:0 9:0 10:0 11:0 12:4 13:0 14:1 
-10 0:3.3 1:0.2 2:0.1509 3:0.1 4:0.1 5:0.1 6:0.6 7:0.2 8:0 9:0.1 10:0 11:0 12:4 13:0 14:1 
-10 0:6.1 1:0.2 2:0.0475 3:0.1 4:0.1 5:0.1 6:0.1 7:0.1 8:0 9:0 10:0 11:0 12:4 13:0 14:1 
-10 0:4.4 1:0.2 2:0.1161 3:0.5 4:0.5 5:0.1 6:0.6 7:0.1 8:0 9:0 10:3.649 11:0 12:4 13:0 14:1 
-10 0:2.4 1:0.2 2:0.1898 3:0.5 4:0.5 5:0.1 6:0.9 7:0.2 8:0 9:0.1 10:3.649 11:0 12:4.8 13:0 14:1 
-10 0:4.2 1:0.4 2:0.0663 3:0.5 4:0.5 5:0.1 6:0.6 7:0.1 8:0 9:0 10:2.589 11:0 12:4 13:0 14:1 
-10 0:4.1 1:0.2 2:0.1498 3:1 4:1 5:0.1 6:0.3 7:0.1 8:0 9:0 10:0 11:0 12:6 13:0 14:1 
-10 0:3.1 1:0.2 2:0.1477 3:0.1 4:0.1 5:0.1 6:0.7 7:0.1 8:0 9:0 10:0 11:0 12:4.5 13:0 14:1 
-10 0:5.5 1:0.2 2:0.1621 3:0.1 4:0.1 5:0.1 6:0.5 7:0.1 8:0 9:0 10:2.193 11:0 12:4 13:0 14:1 
-10 0:3.5 1:0.2 2:0.1316 3:0.6 4:0.6 5:0.1 6:0 7:0.1 8:0 9:0 10:0 11:0 12:4 13:0 14:1 
-10 0:4.1 1:0.6 2:0.0238 3:0.5 4:0.5 5:0.1 6:0.8 7:0.1 8:0 9:0 10:0 11:0 12:5.4 13:0 14:1 
-10 0:3.4 1:0.2 2:0.097 3:0.3 4:0.3 5:0.1 6:0.1 7:0.1 8:0.2 9:0 10:3.649 11:0 12:3.5 13:2 14:1 
-10 0:3.6 1:0.1 2:0.1396 3:0 4:0 5:0.2 6:0.3 7:0 8:0.1 9:0.1 10:0 11:0 12:4 13:0 14:1 
-10 0:4.3 1:0.2 2:0.1275 3:0.5 4:0.5 5:0.1 6:0.3 7:0.2 8:0 9:0.1 10:0 11:0.9435 12:5 13:0 14:1 
-10 0:3.8 1:0.2 2:0.2014 3:0.7 4:0.7 5:0.1 6:0.6 7:0.1 8:0 9:0 10:3.649 11:0 12:4 13:0 14:1 
-10 0:3.6 1:0 2:0.081 3:0.1 4:0.1 5:0.1 6:1.1 7:0.1 8:0 9:0 10:3.649 11:0 12:4 13:0 14:1 
-10 0:3.3 1:0.2 2:0.0801 3:0 4:0 5:0.1 6:0.1 7:0.1 8:0 9:0 10:0 11:0 12:4 13:0 14:1 
-10 0:3.3 1:0.2 2:0.0756 3:0 4:0 5:0.1 6:0.1 7:0.1 8:0 9:0 10:0 11:0 12:4 13:0 14:1 
-10 0:5.9 1:0.5 2:0.2527 3:0 4:0 5:0.1 6:0.5 7:0.1 8:0 9:0 10:0 11:0 12:4 13:0 14:1 
-10 0:3.8 1:0.3 2:0.0648 3:0.1 4:0.1 5:0.1 6:0 7:0.1 8:0 9:0 10:0 11:0 12:4 13:0 14:1 
-10 0:4 1:0.2 2:0.0653 3:0.7 4:0.7 5:0.1 6:1 7:0.1 8:0 9:0 10:0 11:0 12:4 13:0 14:1 
-10 0:6.2 1:0.2 2:0.1834 3:0.3 4:0.3 5:0.1 6:0.3 7:0.1 8:0 9:0 10:0 11:0 12:4 13:0 14:1 
-10 0:4.3 1:0.2 2:0.1186 3:0 4:0 5:0.2 6:0.1 7:0 8:0 9:0 10:0 11:0.782 12:4.5 13:0 14:1 
-10 0:5.7 1:0.2 2:0.1443 3:0 4:0 5:0.2 6:0.1 7:0 8:0 9:0.1 10:0 11:0 12:4.5 13:0 14:1 
-10 0:4 1:0 2:0.125 3:0.7 4:0.7 5:0.1 6:0.9 7:0.1 8:0 9:0 10:0 11:0 12:3.8 13:0 14:1 
-10 0:4.4 1:0.2 2:0.11 3:0.5 4:0.5 5:0.1 6:0 7:0.2 8:0 9:0.1 10:0 11:1.2075 12:0.6 13:0 14:1 
-10 0:3.5 1:0.2 2:0.1495 3:0.1 4:0.1 5:0.1 6:0.4 7:0.2 8:0 9:0.1 10:0 11:0 12:4 13:0 14:1 
-10 0:3.4 1:0 2:0.0666 3:0 4:0 5:0.1 6:0.1 7:0.1 8:0 9:0 10:3.844 11:0 12:4.5 13:0.5 14:1 
-10 0:2.5 1:0.2 2:0.059 3:0 4:0 5:0.1 6:0.1 7:0.1 8:0 9:0 10:0 11:0 12:5.5 13:0 14:1 
-10 0:5.2 1:0.6 2:0.0898 3:0 4:0 5:0.1 6:0.1 7:0.1 8:0 9:0 10:0 11:0 12:5 13:0 14:1 
-10 0:5 1:0 2:0.1958 3:0 4:0 5:0.1 6:1.1 7:0.1 8:0 9:0 10:0 11:0 12:4 13:0 14:1 
-10 0:4.1 1:0.2 2:0.3025 3:0.3 4:0.3 5:0.1 6:0.1 7:0.1 8:0 9:0 10:0 11:0.9885 12:6.5 13:0 14:1 
-10 0:2.8 1:0.5 2:0.0836 3:0.5 4:0.5 5:0.1 6:0.5 7:0.2 8:0 9:0.1 10:0 11:0.9435 12:4 13:0 14:1 
-10 0:3.5 1:0.2 2:0.0628 3:1.5 4:1.5 5:0.2 6:0.6 7:0 8:0 9:0 10:0 11:0 12:5 13:0 14:1 
-10 0:3.2 1:0 2:0.0625 3:0 4:0 5:0.1 6:0.1 7:0.2 8:0 9:0.1 10:0 11:0 12:4 13:0 14:1 
-10 0:6.3 1:0.6 2:0.151 3:0.1 4:0.1 5:0.1 6:0.1 7:0.1 8:0 9:0 10:0 11:0 12:4 13:0 14:1 
-10 0:3 1:0.2 2:0.0201 3:0.6 4:0.6 5:0.1 6:0.4 7:0.2 8:0 9:0.1 10:0 11:0 12:2.5 13:0 14:1 
-10 0:3.3 1:0.2 2:0.1415 3:0.3 4:0.3 5:0.1 6:0.3 7:0.1 8:0 9:0 10:0 11:0 12:5 13:0 14:1 
-10 0:4.4 1:0.2 2:0.0792 3:0.5 4:0.5 5:0.1 6:0.3 7:0.1 8:0 9:0 10:0 11:0 12:4 13:0 14:1 
-10 0:4.5 1:0.6 2:0.134 3:0.5 4:0.5 5:0.1 6:0.6 7:0.1 8:0 9:0 10:0 11:0 12:5.5 13:0 14:1 
-10 0:6 1:0.2 2:0.1664 3:0.1 4:0.1 5:0.1 6:0.6 7:0.1 8:0 9:0 10:0 11:0 12:4 13:0 14:1 
-10 0:4.2 1:0.2 2:0.1342 3:0.6 4:0.6 5:0.1 6:0.1 7:0.1 8:0.1 9:0 10:0 11:0 12:4 13:0.5 14:1 
-10 0:4.4 1:0.1 2:0.1595 3:0.1 4:0.1 5:0.1 6:0.5 7:0.2 8:0 9:0.1 10:0 11:0 12:4 13:0 14:1 
-10 0:4 1:0.2 2:0.0495 3:0.7 4:0.7 5:0.1 6:0.9 7:0.1 8:0.2 9:0 10:0 11:0 12:4 13:0 14:1 
-10 0:4.9 1:0.2 2:0.1309 3:0.3 4:0.3 5:0.1 6:0.1 7:0.1 8:0 9:0 10:0 11:0.9885 12:4.5 13:0 14:1 
-10 0:3 1:0.2 2:0.0805 3:0 4:0 5:0.1 6:1 7:0.2 8:0 9:0.1 10:0 11:0 12:1.6 13:0 14:1 
-10 0:6 1:0.2 2:0.1372 3:0.5 4:0.5 5:0 6:0.3 7:0.4 8:0 9:0 10:0 11:0 12:4 13:0 14:1 
-10 0:3.4 1:0.2 2:0.2293 3:0.5 4:0.5 5:0.1 6:0.3 7:0.1 8:0 9:0 10:0 11:0 12:5 13:0 14:1 
-10 0:3.4 1:0.2 2:0.0734 3:0 4:0 5:0.1 6:0.3 7:0.1 8:0 9:0 10:0 11:0 12:5 13:0 14:1 
-10 0:3.7 1:0.4 2:0.1263 3:0.5 4:0.5 5:0.1 6:1 7:0.1 8:0 9:0 10:0 11:0 12:4.5 13:0 14:1 
-10 0:4.4 1:0.2 2:0.1208 3:0.5 4:0.5 5:0.2 6:0.9 7:0.4 8:0 9:0 10:0 11:0 12:5.8 13:0 14:1 
-10 0:4.2 1:0.2 2:0.1502 3:0 4:0 5:0.1 6:0.1 7:0.1 8:0 9:0 10:0 11:0 12:4 13:0 14:1 
-10 0:4.1 1:0.2 2:0.0691 3:0.6 4:0.6 5:0.1 6:0.1 7:0.2 8:0 9:0.1 10:0 11:0 12:5 13:0 14:1 
-10 0:3.3 1:0.3 2:0.217 3:0.7 4:0.7 5:0.2 6:0.6 7:0.4 8:0.1 9:0.1 10:0 11:0 12:4 13:0 14:1 
-10 0:5.4 1:0.2 2:0.1446 3:0 4:0 5:0.1 6:0.5 7:0.1 8:0 9:0 10:0 11:0 12:3.5 13:0 14:1 
-10 0:4.7 1:0.2 2:0.1793 3:0.5 4:0.5 5:0.1 6:0.3 7:0.1 8:0 9:0 10:0 11:0 12:5 13:0 14:1 
-10 0:5.2 1:0.1 2:0.227 3:0 4:0 5:0.1 6:0.3 7:0.1 8:0 9:0 10:0 11:0 12:6 13:0 14:1 
-10 0:3.7 1:0.2 2:0.0153 3:0.7 4:0.7 5:0.1 6:0.6 7:0.1 8:0 9:0 10:0 11:0.9885 12:4 13:0 14:1 
-10 0:2.9 1:0.2 2:0.2378 3:0 4:0 5:0.1 6:0.1 7:0.2 8:0 9:0 10:0 11:0 12:4 13:0 14:1 
-10 0:6.5 1:0.5 2:0.1329 3:0.5 4:0.5 5:0.1 6:0.5 7:0.1 8:0 9:0 10:0 11:0 12:3 13:0 14:1 
-10 0:5.7 1:0.2 2:0.0475 3:0.1 4:0.1 5:0.1 6:0.5 7:0.1 8:0 9:0 10:0 11:0 12:4 13:0 14:1 
-10 0:5.2 1:0.2 2:0.0175 3:1.2 4:1.2 5:0.1 6:0.6 7:0.1 8:0 9:0 10:0 11:0.9435 12:4.7 13:0 14:1 
-10 0:6 1:0.2 2:0.0267 3:0.8 4:0.8 5:0 6:0.7 7:0 8:0 9:0 10:0 11:0 12:4.8 13:0 14:1 
-10 0:3.1 1:0.2 2:0.1144 3:0 4:0 5:0.1 6:0.3 7:0.1 8:0 9:0 10:3.844 11:0 12:4 13:0.9 14:1 
-10 0:4.2 1:0.1 2:0.1455 3:1 4:1 5:0.1 6:0.3 7:0.1 8:0 9:0 10:0 11:0.951 12:5 13:0 14:1 
-10 0:5.1 1:0.2 2:0.2785 3:0.3 4:0.3 5:0.1 6:0.6 7:0.1 8:0 9:0 10:0 11:0 12:4 13:0 14:1 
-10 0:3.4 1:0.2 2:0.1043 3:0.1 4:0.1 5:0.1 6:0.5 7:0.1 8:0 9:0 10:0 11:0 12:4.5 13:0 14:1 
-10 0:3.3 1:0.2 2:0.1395 3:0.5 4:0.5 5:0.1 6:0.1 7:0.1 8:0 9:0 10:0 11:0 12:4 13:0 14:1 
-10 0:4.9 1:0.2 2:0.1821 3:0 4:0 5:0.1 6:0.5 7:0.1 8:0 9:0 10:0 11:0 12:2.6 13:0 14:1 
-10 0:3 1:0.2 2:0.0704 3:0 4:0 5:0.1 6:0 7:0.2 8:0.1 9:0.1 10:0 11:0 12:4 13:0 14:1 
-10 0:5.2 1:0.1 2:0.1966 3:0.9 4:0.9 5:0.1 6:0.3 7:0.1 8:0 9:0 10:0 11:0 12:6 13:0 14:1 
-10 0:3.6 1:0.2 2:0.1281 3:0.5 4:0.5 5:0.1 6:0.5 7:0.1 8:0 9:0 10:2.589 11:0 12:5 13:0 14:1 
-10 0:5 1:0.6 2:0.1327 3:0.9 4:0.9 5:0.4 6:0.3 7:0 8:0 9:0 10:0 11:0 12:4 13:0 14:1 
-10 0:3 1:0 2:0.1151 3:0 4:0 5:0.1 6:1 7:0.1 8:0 9:0 10:0 11:0 12:4 13:0 14:1 
-10 0:3.5 1:0.2 2:0.1986 3:0.9 4:0.9 5:0.1 6:0.3 7:0.1 8:0.2 9:0 10:0 11:0 12:4 13:2 14:1 
-10 0:4.3 1:0.2 2:0.1185 3:0.1 4:0.1 5:0.1 6:0.9 7:0.1 8:0 9:0 10:0 11:0 12:4 13:0 14:1 
-10 0:4.4 1:0.1 2:0.2276 3:1.5 4:1.5 5:0.1 6:0.2 7:0.1 8:0.1 9:0 10:0 11:0 12:4 13:0 14:1 
-10 0:4.2 1:0.2 2:0.1678 3:0.1 4:0.1 5:0.1 6:0.6 7:0.1 8:0.1 9:0 10:0 11:0 12:4 13:0 14:1 
-10 0:3.3 1:0.2 2:0.124 3:0 4:0 5:0.1 6:0.1 7:0.1 8:0 9:0 10:0 11:0 12:4 13:0 14:1 
-10 0:5 1:0.6 2:0.149 3:0.1 4:0.1 5:0.1 6:0.5 7:0.1 8:0 9:0 10:0 11:0 12:5 13:0 14:1 
-10 0:3.7 1:0.2 2:0.1094 3:0.7 4:0.7 5:0.1 6:0.6 7:0.1 8:0 9:0 10:0 11:0 12:4 13:2.2 14:1 
-10 0:3.4 1:0.1 2:0.1292 3:0.1 4:0.1 5:0.1 6:0.6 7:0.1 8:0 9:0 10:0 11:0 12:4 13:0 14:1 
-10 0:3.5 1:0.2 2:0.1383 3:0.3 4:0.3 5:0 6:0.3 7:0 8:0 9:0 10:0 11:0 12:6 13:0 14:1 
-10 0:3.1 1:0.2 2:0.0806 3:0.3 4:0.3 5:0.1 6:1 7:0.1 8:0 9:0 10:0 11:0.951 12:4 13:0 14:1 
-10 0:4.4 1:0.2 2:0.0428 3:0 4:0 5:0.2 6:0.1 7:0.3 8:0 9:0.1 10:0 11:0 12:5 13:0 14:1 
-10 0:3.4 1:0.2 2:0.1477 3:0 4:0 5:0.1 6:0.1 7:0.1 8:0 9:0 10:0 11:0 12:4.5 13:0 14:1 
-10 0:5 1:0.4 2:0.0343 3:0.1 4:0.1 5:0.1 6:0.1 7:0.1 8:0 9:0 10:0 11:0 12:4.2 13:0 14:1 
-10 0:4.2 1:0.2 2:0.1101 3:0 4:0 5:0.1 6:0.1 7:0.1 8:0 9:0 10:3.649 11:0 12:4.5 13:0 14:1 
-10 0:4.3 1:0.2 2:0.1208 3:0 4:0 5:0 6:0.3 7:0 8:0 9:0 10:0 11:0 12:4 13:0.5 14:1 
-10 0:4.2 1:0.2 2:0.1901 3:0 4:0 5:0.1 6:1 7:0.1 8:0 9:0 10:0 11:0 12:4 13:0 14:1 
-10 0:4.2 1:0.4 2:0.0858 3:0 4:0 5:0.1 6:0.3 7:0.2 8:0 9:0.1 10:0 11:0 12:4 13:0 14:1 
-10 0:5.5 1:0.2 2:0.1341 3:0.1 4:0.1 5:0.1 6:0.7 7:0.1 8:0 9:0 10:3.844 11:0 12:4 13:0 14:1 
-10 0:2.9 1:0 2:0.2418 3:0 4:0 5:0.1 6:0.1 7:0.1 8:0 9:0 10:3.844 11:0 12:4 13:0 14:1 
-10 0:5.4 1:0.2 2:0.1941 3:0.1 4:0.1 5:0.1 6:0.7 7:0.1 8:0 9:0 10:0 11:0 12:4 13:0 14:1 
-10 0:4.6 1:0.3 2:0.1137 3:0.1 4:0.1 5:0.1 6:0 7:0.2 8:0 9:0.1 10:0 11:0 12:4 13:0 14:1 
-10 0:5.9 1:0.4 2:0.2856 3:0.1 4:0.1 5:0.1 6:0 7:0.2 8:0 9:0.1 10:0 11:0 12:3.8 13:0 14:1 
-10 0:5.3 1:0.6 2:0.0871 3:0.9 4:0.9 5:0.1 6:0.1 7:0.1 8:0 9:0 10:0 11:0 12:7 13:0 14:1 
-10 0:5.1 1:0.2 2:0.2627 3:0 4:0 5:0 6:0.5 7:0 8:0 9:0 10:0 11:0 12:5.5 13:0 14:1 
-10 0:3.7 1:0.2 2:0.1904 3:0.7 4:0.7 5:0.1 6:1 7:0.2 8:0 9:0.1 10:0 11:0 12:2.4 13:0 14:1 
-10 0:4.3 1:0.2 2:0.1541 3:0 4:0 5:0.1 6:0.5 7:0.1 8:0 9:0 10:0 11:0 12:5 13:0 14:1 
-10 0:4 1:0.2 2:0.0888 3:0.7 4:0.7 5:0.1 6:0.1 7:0.1 8:0 9:0 10:0 11:0 12:5 13:0 14:1 
-10 0:4 1:0.2 2:0.1614 3:0 4:0 5:0 6:0.5 7:0 8:0.4 9:0.1 10:0 11:0 12:5.5 13:0 14:1 
-10 0:4.8 1:0.2 2:0.0693 3:0.7 4:0.7 5:0.1 6:1 7:0.1 8:0 9:0 10:0 11:0 12:5 13:0 14:1 
-10 0:6 1:0.2 2:0.0214 3:0.1 4:0.1 5:0.1 6:0.7 7:0.1 8:0 9:0 10:0 11:0 12:6 13:0 14:1 
-10 0:4.6 1:0.2 2:0.0616 3:0.3 4:0.3 5:0 6:1 7:0 8:0 9:0 10:0 11:0 12:3.5 13:0 14:1 
-10 0:4.3 1:0.2 2:0.1863 3:0 4:0 5:0.1 6:0.1 7:0.1 8:0 9:0 10:0 11:0.951 12:4 13:0.8 14:1 
-10 0:3.2 1:0.2 2:0.1569 3:0.1 4:0.1 5:0.1 6:0.6 7:0.1 8:0 9:0 10:2.589 11:0 12:4.8 13:0 14:1 
-10 0:3.3 1:0.2 2:0.1154 3:0 4:0 5:0.1 6:0.3 7:0.1 8:0 9:0 10:1.5515 11:0 12:4.7 13:0 14:1 
-10 0:6.4 1:0.2 2:0.1836 3:0 4:0 5:0.1 6:0.3 7:0.1 8:0 9:0 10:0 11:0 12:4 13:0 14:1 
-10 0:5.6 1:0.2 2:0.1267 3:0.5 4:0.5 5:0.1 6:0.6 7:0.1 8:0 9:0 10:0 11:0 12:5 13:0 14:1 
-10 0:4.7 1:0.2 2:0.1299 3:0.1 4:0.1 5:0.1 6:0.7 7:0.1 8:0 9:0 10:0 11:0 12:5 13:0 14:1 
-10 0:5.7 1:0.2 2:0.0233 3:0.1 4:0.1 5:0.6 6:0.7 7:0.4 8:0 9:0 10:0 11:0.3265 12:4.2 13:0 14:1 
-10 0:5.3 1:0.2 2:0.1319 3:0.5 4:0.5 5:0.1 6:0 7:0.2 8:0 9:0.1 10:2.193 11:0 12:4 13:0 14:1 
-10 0:4.1 1:0.2 2:0.1226 3:0 4:0 5:0.2 6:0.3 7:0 8:0 9:0.1 10:0 11:0 12:5 13:0 14:1 
-10 0:5.1 1:0.2 2:0.0997 3:0.5 4:0.5 5:0.1 6:0.3 7:0.1 8:0 9:0 10:0 11:0 12:4 13:0 14:1 
-10 0:5.5 1:0.2 2:0.2632 3:0.1 4:0.1 5:0.1 6:0.6 7:0.1 8:0 9:0 10:2.193 11:0 12:4 13:0 14:1 
-10 0:3.7 1:0.2 2:0.0588 3:0 4:0 5:0.1 6:0.1 7:0.1 8:0 9:0 10:0 11:0 12:4.5 13:0 14:1 
-10 0:6.1 1:0.2 2:0.0678 3:0.3 4:0.3 5:0.6 6:0.3 7:0 8:0 9:0.1 10:0 11:0 12:4 13:0 14:1 
-10 0:4.8 1:0 2:0.2227 3:0.9 4:0.9 5:0.2 6:0.3 7:0.3 8:0 9:0 10:0 11:0 12:5 13:0 14:1 
-10 0:5.9 1:0.2 2:0.0966 3:0.1 4:0.1 5:0.1 6:0.4 7:0.1 8:0 9:0 10:0 11:0 12:4 13:0 14:1 
-10 0:4.9 1:0.2 2:0.0262 3:0 4:0 5:0 6:0.1 7:0 8:0 9:0.1 10:0 11:0 12:5.6 13:0 14:1 
-10 0:3.9 1:0.2 2:0.1197 3:0.5 4:0.5 5:0.1 6:0.8 7:0.1 8:0 9:0 10:0 11:0 12:5 13:0 14:1 
-10 0:4.4 1:0.2 2:0.0327 3:0 4:0 5:0.1 6:0.1 7:0.1 8:0 9:0 10:0 11:0 12:4 13:0 14:1 
-10 0:5.1 1:0.1 2:0.1092 3:0 4:0 5:0.1 6:0.5 7:0.1 8:0.2 9:0 10:0 11:1.2075 12:4 13:2.7 14:1 
-10 0:4.1 1:0.2 2:0.1322 3:0 4:0 5:0.1 6:0.1 7:0.1 8:0 9:0 10:0 11:0 12:6 13:0 14:1 
-10 0:3.9 1:0.2 2:0.0799 3:0.1 4:0.1 5:0.1 6:0.7 7:0.1 8:0 9:0 10:0 11:0 12:4 13:0 14:1 
-10 0:3.2 1:0.2 2:0.1836 3:0 4:0 5:0.1 6:0 7:0.5 8:0 9:0 10:0 11:0 12:4 13:1.2 14:1 
-10 0:3.8 1:0.2 2:0.0647 3:0 4:0 5:0.1 6:0.5 7:0.1 8:0 9:0 10:0 11:0 12:5 13:0 14:1 
-10 0:4.2 1:0.1 2:0.1204 3:1 4:1 5:0.1 6:0.8 7:0.1 8:0 9:0 10:0 11:0 12:6.5 13:0 14:1 
-10 0:3 1:0.2 2:0.0594 3:0 4:0 5:0.1 6:0.1 7:0.1 8:0 9:0 10:0 11:0 12:4.5 13:0 14:1 
-10 0:6.7 1:0.6 2:0.0522 3:0.1 4:0.1 5:0.1 6:0.1 7:0.1 8:0.2 9:0 10:0 11:0 12:4 13:0 14:1 
-10 0:5.1 1:0.2 2:0.0937 3:0.3 4:0.3 5:0.1 6:0.1 7:0.1 8:0 9:0 10:0 11:0 12:6 13:0 14:1 
-10 0:3.7 1:0.2 2:0.127 3:0.2 4:0.2 5:0.1 6:0.9 7:0.1 8:0 9:0 10:1.5515 11:0 12:4.4 13:0 14:1 
-10 0:3.7 1:0.2 2:0.1201 3:0.1 4:0.1 5:0.1 6:0.6 7:0.1 8:0 9:0 10:0 11:0 12:9.9 13:0 14:1 
-10 0:4.1 1:0.2 2:0.0898 3:1 4:1 5:0.1 6:0.3 7:0.1 8:0 9:0 10:0 11:1.2075 12:4 13:0 14:1 
-10 0:3.1 1:0.2 2:0.0758 3:0 4:0 5:0 6:0.5 7:0 8:0 9:0 10:0 11:0 12:4 13:0 14:1 
-10 0:3.8 1:0.6 2:0.1334 3:0.1 4:0.1 5:0.1 6:0.1 7:0.1 8:0 9:0 10:0 11:0 12:4 13:0 14:1 
-10 0:3.6 1:0.6 2:0.0735 3:0 4:0 5:0.1 6:0.1 7:0.2 8:0 9:0.1 10:0 11:0.9885 12:4.5 13:0 14:1 
-10 0:4.4 1:0 2:0.1186 3:0.1 4:0.1 5:0.1 6:0.3 7:0.2 8:0 9:0.1 10:0 11:0 12:4 13:0 14:1 
-10 0:4.3 1:0.2 2:0.1542 3:0.3 4:0.3 5:0.1 6:0.1 7:0.1 8:0 9:0 10:0 11:0 12:4.3 13:0 14:1 
-10 0:4.4 1:0.6 2:0.2706 3:0.5 4:0.5 5:0.1 6:0.5 7:0.1 8:0 9:0 10:0 11:0 12:7 13:0 14:1 
-10 0:3.3 1:0.1 2:0.0838 3:0 4:0 5:0.1 6:0.1 7:0.1 8:0 9:0 10:0 11:0 12:4 13:0 14:1 
-10 0:4.2 1:0.2 2:0.1197 3:0.6 4:0.6 5:0.1 6:0.1 7:0.1 8:0 9:0 10:0 11:0 12:4 13:0 14:1 
-10 0:3.5 1:0.6 2:0.2505 3:0.5 4:0.5 5:0.1 6:0.5 7:0.1 8:0 9:0 10:0 11:0 12:6 13:0 14:1 
-10 0:4.8 1:0.2 2:0.112 3:0 4:0 5:0.1 6:0.1 7:0.1 8:0.2 9:0 10:0 11:0 12:4 13:0.3 14:1 
-10 0:3.4 1:0.2 2:0.1372 3:0.1 4:0.1 5:0.1 6:0.6 7:0.1 8:0 9:0 10:0 11:0 12:3.5 13:0 14:1 
-10 0:6.7 1:0.2 2:0.0715 3:0 4:0 5:0.6 6:0.1 7:0 8:0 9:0 10:0 11:1.196 12:4 13:0 14:1 
-10 0:4 1:0 2:0.1282 3:0.3 4:0.3 5:0.1 6:0.3 7:0.1 8:0 9:0 10:0 11:0 12:3.5 13:0 14:1 
-10 0:4.5 1:0.4 2:0.2162 3:0.1 4:0.1 5:0.6 6:1.1 7:0 8:0 9:0 10:0 11:0 12:4 13:0 14:1 
-10 0:4.7 1:0.2 2:0.131 3:0.1 4:0.1 5:0.1 6:0 7:0.1 8:0 9:0 10:0 11:0 12:5 13:0 14:1 
-10 0:5.6 1:0.2 2:0.0766 3:0.1 4:0.1 5:0.1 6:0.1 7:0.1 8:0 9:0 10:0 11:0 12:5.5 13:0 14:1 
-10 0:4.8 1:0.3 2:0.0225 3:0 4:0 5:0.2 6:0.1 7:0.4 8:0 9:0 10:0 11:0 12:5.8 13:0 14:1 
-10 0:5 1:0.2 2:0.1142 3:0.9 4:0.9 5:0.1 6:0.3 7:0.1 8:0 9:0 10:0 11:0.951 12:6.5 13:0 14:1 
-10 0:3.8 1:0 2:0.2334 3:0.1 4:0.1 5:0.1 6:0.3 7:0.2 8:0 9:0.1 10:0 11:0 12:4 13:0 14:1 
-10 0:3.9 1:0.6 2:0.1228 3:0.1 4:0.1 5:0.1 6:0.1 7:0.1 8:0 9:0 10:0 11:0 12:4 13:0 14:1 
-10 0:5 1:0.2 2:0.5212 3:0.1 4:0.1 5:0.1 6:0.9 7:0.1 8:0 9:0 10:1.5515 11:0 12:4 13:0 14:1 
-10 0:4.2 1:0.2 2:0.0805 3:0.5 4:0.5 5:0.1 6:0.3 7:0.1 8:0 9:0 10:0 11:0 12:4.4 13:0 14:1 
-10 0:3.3 1:0.2 2:0.0183 3:0.7 4:0.7 5:0.1 6:1 7:0.2 8:0 9:0.1 10:0 11:0 12:4 13:0 14:1 
-10 0:4.8 1:0.4 2:0.0836 3:0.3 4:0.3 5:0.1 6:0.3 7:0.1 8:0 9:0 10:0 11:0 12:3.5 13:0 14:1 
-10 0:4.5 1:0.2 2:0.2503 3:0.1 4:0.1 5:0.1 6:0.1 7:0.1 8:0 9:0 10:0 11:0 12:5.5 13:0 14:1 
-10 0:4.4 1:0.2 2:0.1134 3:0 4:0 5:0.1 6:0.1 7:0.1 8:0 9:0 10:3.844 11:0 12:6 13:0 14:1 
-10 0:3.6 1:0.2 2:0.1064 3:0 4:0 5:0.1 6:0.3 7:0.1 8:0 9:0 10:0 11:0.951 12:5 13:0 14:1 
-10 0:5.3 1:0.1 2:0.1792 3:0 4:0 5:0.1 6:0.5 7:0.1 8:0 9:0 10:0 11:0 12:4 13:0.9 14:1 
-10 0:3 1:0.2 2:0.2013 3:0 4:0 5:0.1 6:0 7:0.1 8:0 9:0 10:3.649 11:0 12:4 13:0 14:1 
-10 0:5.2 1:0.1 2:0.0304 3:0.5 4:0.5 5:0.1 6:0.5 7:0.1 8:0 9:0 10:0 11:0 12:5.5 13:0 14:1 
-10 0:4.9 1:0.4 2:0.1317 3:0.3 4:0.3 5:0.1 6:0.3 7:0.1 8:0 9:0 10:0 11:0.951 12:4 13:0 14:1 
-10 0:4.5 1:0.2 2:0.1259 3:0.1 4:0.1 5:0.1 6:0.6 7:0.1 8:0 9:0 10:0 11:0 12:4.7 13:0 14:1 
-10 0:4.9 1:0.2 2:0.1195 3:0.5 4:0.5 5:0.1 6:0.5 7:0.1 8:0 9:0 10:0 11:0 12:8 13:0 14:1 
-10 0:3.5 1:0.2 2:0.1354 3:1 4:1 5:0.1 6:0.3 7:0.1 8:0 9:0 10:0 11:0.9885 12:8 13:0 14:1 
-10 0:3.8 1:0.2 2:0.0902 3:0.1 4:0.1 5:0.1 6:0.6 7:0.1 8:0 9:0 10:0 11:0.951 12:4 13:0 14:1 
-10 0:3.7 1:0.2 2:0.1462 3:0.1 4:0.1 5:0.1 6:0.6 7:0.1 8:0 9:0 10:0 11:0 12:5 13:0 14:1 
-10 0:4.8 1:0 2:0.0379 3:0.9 4:0.9 5:0.1 6:0.3 7:0.2 8:0 9:0.1 10:0 11:0.951 12:4.6 13:0 14:1 
-10 0:4.3 1:0 2:0.1548 3:0.7 4:0.7 5:0.1 6:0.3 7:0.2 8:0 9:0.1 10:0 11:0 12:4 13:0 14:1 
-10 0:4.1 1:0.4 2:0.1326 3:0.5 4:0.5 5:0.1 6:1.1 7:0.1 8:0 9:0 10:0 11:0 12:4 13:0 14:1 
-10 0:4.2 1:0.2 2:0.1022 3:0.5 4:0.5 5:0.1 6:0.1 7:0.1 8:0 9:0 10:3.649 11:0 12:5.2 13:0 14:1 
-10 0:4.1 1:0.3 2:0.0904 3:0.6 4:0.6 5:0.1 6:0.3 7:0.1 8:0 9:0 10:0 11:0 12:4 13:0 14:1 
-10 0:4.4 1:0.1 2:0.0819 3:0 4:0 5:0 6:0.5 7:0 8:0 9:0 10:0 11:0 12:5 13:0 14:1 
-10 0:2.9 1:0.6 2:0.1771 3:0.1 4:0.1 5:0.1 6:0.5 7:0.2 8:0 9:0.1 10:0 11:0.9885 12:2.5 13:0 14:1 
-10 0:4.5 1:0.6 2:0.1018 3:0 4:0 5:0.1 6:0.9 7:0.1 8:0 9:0 10:0 11:0 12:6 13:0 14:1 
-10 0:3.4 1:0.1 2:0.1337 3:0.6 4:0.6 5:0.1 6:0.3 7:0.2 8:0 9:0.1 10:0 11:0 12:2.5 13:0 14:1 
-10 0:4.1 1:0.2 2:0.0803 3:0 4:0 5:0.1 6:0.6 7:0.1 8:0 9:0 10:1.5515 11:0 12:4 13:0 14:1 
-10 0:3.5 1:0.6 2:0.1966 3:0.3 4:0.3 5:0.1 6:0.5 7:0.1 8:0 9:0 10:0 11:0 12:4.5 13:0.4 14:1 
-10 0:3.3 1:0.2 2:0.024 3:0 4:0 5:0.1 6:0.5 7:0.2 8:0 9:0.1 10:0 11:0 12:4.5 13:0 14:1 
-10 0:6 1:0.6 2:0.1537 3:0.7 4:0.7 5:0.1 6:0.9 7:0.1 8:0 9:0 10:0 11:1.2075 12:7 13:0.5 14:1 
-10 0:5.8 1:0.4 2:0.1394 3:0 4:0 5:0.1 6:0.3 7:0.2 8:0 9:0.1 10:0 11:0 12:4 13:0 14:1 
-10 0:3.5 1:0.2 2:0.0608 3:0.1 4:0.1 5:0.1 6:0.7 7:0.1 8:0 9:0 10:0 11:0 12:5 13:0 14:1 
-10 0:3.1 1:0.2 2:0.1252 3:0.5 4:0.5 5:0.1 6:0.1 7:0.1 8:0 9:0 10:0 11:0 12:5 13:0.2 14:1 
-10 0:4.6 1:0.1 2:0.1672 3:0.3 4:0.3 5:0.1 6:0.1 7:0.1 8:0 9:0 10:0 11:0 12:4.5 13:0 14:1 
-10 0:3.5 1:0.3 2:0.1701 3:0.1 4:0.1 5:0.1 6:0 7:0.1 8:0.1 9:0 10:0 11:0 12:6 13:0 14:1 
-10 0:6.1 1:0.6 2:0.0573 3:0.1 4:0.1 5:0.1 6:0.1 7:0.1 8:0 9:0 10:0 11:0 12:3.5 13:0 14:1 
-10 0:5 1:0.6 2:0.1991 3:0.1 4:0.1 5:0.1 6:0.1 7:0.1 8:0 9:0 10:3.649 11:0 12:4 13:0 14:1 
-10 0:4.6 1:0.2 2:0.0721 3:0.1 4:0.1 5:0.1 6:0.1 7:0.1 8:0 9:0 10:0 11:0 12:4.5 13:0 14:1 
-10 0:2.8 1:0 2:0.3028 3:0.3 4:0.3 5:0.1 6:0.3 7:0.2 8:0 9:0.1 10:0 11:0 12:5 13:0 14:1 
-10 0:3.3 1:0.2 2:0.0779 3:0 4:0 5:0.1 6:0.5 7:0.1 8:0 9:0 10:0 11:0 12:6 13:0 14:1 
-10 0:5.4 1:0.2 2:0.0652 3:0.6 4:0.6 5:0.1 6:1 7:0.1 8:0 9:0 10:0 11:0 12:4 13:0 14:1 
-10 0:5 1:0.2 2:0.091 3:0 4:0 5:0.1 6:0.3 7:0.2 8:0 9:0.1 10:0 11:0.9885 12:4 13:0 14:1 
-10 0:2.5 1:0.2 2:0.2748 3:0.3 4:0.3 5:0.1 6:0.8 7:0 8:0 9:0 10:0 11:0 12:9.9 13:0 14:1 
-10 0:5.8 1:0.5 2:0.1154 3:0.5 4:0.5 5:0.1 6:0.5 7:0.1 8:0 9:0 10:0 11:0 12:4 13:0 14:1 
-10 0:5 1:0 2:0.2422 3:0.1 4:0.1 5:0.1 6:0.3 7:0.1 8:0 9:0 10:0 11:0 12:4.8 13:0 14:1 
-10 0:5 1:0.5 2:0.0992 3:0.1 4:0.1 5:0.1 6:0.5 7:0.1 8:0 9:0 10:0 11:0 12:4 13:0 14:1 
-10 0:4 1:0.2 2:0.1469 3:0 4:0 5:0.2 6:0.1 7:0 8:0 9:0.1 10:0 11:0 12:4.5 13:0 14:1 
-10 0:4.8 1:0.2 2:0.1242 3:0.5 4:0.5 5:0.1 6:0.6 7:0.1 8:0 9:0 10:0 11:0 12:4 13:0 14:1 
-10 0:4.5 1:0.3 2:0.2179 3:0.1 4:0.1 5:0.1 6:0 7:0.1 8:0.1 9:0 10:0 11:0 12:8 13:0 14:1 
-10 0:3 1:0.4 2:0.1598 3:0 4:0 5:0.1 6:0.3 7:0.1 8:0 9:0 10:0 11:0 12:5 13:0 14:1 
-10 0:4.4 1:0.2 2:0.2337 3:0 4:0 5:0 6:0.4 7:0 8:0 9:0 10:0 11:0 12:4 13:0 14:1 
-10 0:6.1 1:0.6 2:0.0771 3:0.3 4:0.3 5:0.1 6:0.5 7:0.1 8:0 9:0 10:0 11:0 12:4 13:0 14:1 
-10 0:3.8 1:0.2 2:0.0541 3:0 4:0 5:0.1 6:0.5 7:0.1 8:0 9:0 10:0 11:0 12:4.2 13:0 14:1 
-10 0:4.4 1:0.6 2:0.218 3:0.5 4:0.5 5:0.1 6:0.5 7:0.1 8:0 9:0 10:2.589 11:0 12:6 13:0 14:1 
-10 0:6.3 1:0.5 2:0.1021 3:0 4:0 5:0.6 6:0.5 7:0 8:0 9:0.1 10:0 11:0 12:4 13:0 14:1 
-10 0:4.8 1:0.1 2:0.1655 3:0.5 4:0.5 5:0.1 6:0.6 7:0.1 8:0.3 9:0 10:3.844 11:0 12:4 13:0 14:1 
-10 0:3.8 1:0.2 2:0.1364 3:1 4:1 5:0.1 6:0.3 7:0.1 8:0 9:0 10:0 11:0 12:4 13:0 14:1 
-10 0:4.5 1:0.1 2:0.168 3:0.1 4:0.1 5:0.1 6:0.6 7:0.1 8:0 9:0 10:0 11:0 12:4 13:0 14:1 
-10 0:3.8 1:0.2 2:0.0151 3:0.3 4:0.3 5:0.1 6:0.7 7:0.1 8:0 9:0 10:0 11:0 12:7.2 13:0.5 14:1 
-10 0:3.6 1:0.2 2:0.2405 3:0 4:0 5:0.1 6:0.3 7:0.1 8:0 9:0 10:0 11:0 12:6 13:0 14:1 
-10 0:4.6 1:0.2 2:0.1802 3:0 4:0 5:0.1 6:0.3 7:0.1 8:0 9:0 10:0 11:0.951 12:4 13:0 14:1 
-10 0:3.5 1:0.2 2:0.0231 3:0.3 4:0.3 5:0 6:0.3 7:0 8:0 9:0 10:0 11:0 12:4.5 13:0 14:1 
-10 0:6.5 1:0.1 2:0.1137 3:0.1 4:0.1 5:0.1 6:0.1 7:0.1 8:0 9:0 10:0 11:0 12:5.9 13:0 14:1 
-10 0:5.7 1:0.2 2:0.096 3:0.1 4:0.1 5:0.1 6:0.5 7:0.1 8:0 9:0 10:0 11:0 12:5 13:0 14:1 
-10 0:4.3 1:0.3 2:0.2509 3:0 4:0 5:0.1 6:0.3 7:0.1 8:0 9:0 10:0 11:0 12:4 13:0 14:1 
-10 0:5.3 1:0.2 2:0.0608 3:0.1 4:0.1 5:0.1 6:0.7 7:0.1 8:0 9:0 10:0 11:0 12:4.8 13:0 14:1 
-10 0:3.8 1:0.2 2:0.1288 3:0 4:0 5:0.1 6:0.3 7:0.1 8:0 9:0 10:0 11:0.9435 12:4 13:0 14:1 
-10 0:5.1 1:0.4 2:0.1037 3:0 4:0 5:0.1 6:0 7:0.1 8:0 9:0 10:0 11:0 12:4 13:0 14:1 
-10 0:4.6 1:0.2 2:0.0876 3:0 4:0 5:0.1 6:0.5 7:0.1 8:0 9:0 10:0 11:0.9885 12:4 13:0 14:1 
-10 0:6.7 1:0.2 2:0.1165 3:0 4:0 5:0.1 6:1.1 7:0.1 8:0 9:0 10:3.257 11:0 12:0.7 13:0 14:1 
-10 0:4.2 1:0.3 2:0.1079 3:0.6 4:0.6 5:0.2 6:0.3 7:0.4 8:0.2 9:0.1 10:0 11:0 12:4 13:1.2 14:1 
-10 0:6.5 1:0.5 2:0.0245 3:0.1 4:0.1 5:0.1 6:0.5 7:0.1 8:0 9:0 10:0 11:0 12:4 13:0 14:1 
-10 0:5 1:0.2 2:0.0604 3:0.1 4:0.1 5:0.1 6:0 7:0.2 8:0 9:0.1 10:2.589 11:0 12:4 13:0 14:1 
-10 0:5.8 1:0.6 2:0.1269 3:0.5 4:0.5 5:0.1 6:0.7 7:0.2 8:0 9:0.1 10:0 11:0 12:4 13:0 14:1 
-10 0:3.7 1:0.2 2:0.0222 3:0 4:0 5:0.1 6:0.9 7:0.1 8:0 9:0 10:0 11:0 12:4.3 13:0 14:1 
-10 0:4.9 1:0.2 2:0.0852 3:0.1 4:0.1 5:0.1 6:0.6 7:0.2 8:0 9:0.1 10:0 11:0 12:4 13:0 14:1 
-10 0:3.2 1:0.2 2:0.3459 3:0.5 4:0.5 5:0.1 6:0.2 7:0.1 8:0 9:0 10:0 11:0 12:5 13:0.9 14:1 
-10 0:3.5 1:0.2 2:0.0809 3:0.9 4:0.9 5:0.1 6:0.3 7:0.1 8:0 9:0 10:3.649 11:0 12:4 13:0 14:1 
-10 0:4.1 1:0 2:0.0984 3:0 4:0 5:0.1 6:0.3 7:0.1 8:0 9:0 10:0 11:0 12:4 13:0 14:1 
-10 0:4.8 1:0.2 2:0.0375 3:0 4:0 5:0.1 6:0.6 7:0.1 8:0 9:0 10:0 11:0 12:4.5 13:0 14:1 
-10 0:2.7 1:0.2 2:0.1294 3:0.1 4:0.1 5:0 6:0.5 7:0 8:0 9:0 10:0 11:0 12:5 13:0 14:1 
-10 0:5.5 1:0.2 2:0.0828 3:0.5 4:0.5 5:0.1 6:0.7 7:0.1 8:0 9:0 10:0 11:0 12:2.4 13:0 14:1 
-10 0:3.9 1:0.2 2:0.057 3:0.1 4:0.1 5:0.1 6:0 7:0.1 8:0 9:0 10:0 11:0 12:4 13:0 14:1 
-10 0:5.2 1:0.2 2:0.1144 3:0.1 4:0.1 5:0.6 6:0.4 7:0.4 8:0.2 9:0.1 10:0 11:0 12:4 13:0.3 14:1 
-10 0:5.1 1:0.2 2:0.0997 3:0.7 4:0.7 5:0.1 6:0.3 7:0.1 8:0 9:0 10:0 11:0 12:4 13:0 14:1 
-10 0:4 1:0.2 2:0.1631 3:0.1 4:0.1 5:0.1 6:0.1 7:0.1 8:0 9:0 10:0 11:0 12:4 13:0 14:1 
-10 0:6.1 1:0.6 2:0.0915 3:0 4:0 5:0.1 6:0.1 7:0.1 8:0 9:0 10:0 11:0 12:5 13:1 14:1 
-10 0:3.6 1:0.2 2:0.104 3:0 4:0 5:0.1 6:0.1 7:0.1 8:0.2 9:0 10:0 11:0 12:6 13:0.5 14:1 
-10 0:3.4 1:0.2 2:0.3172 3:0.5 4:0.5 5:0 6:0.3 7:0 8:0 9:0 10:0 11:0 12:5 13:0 14:1 
-10 0:3.2 1:0.6 2:0.1357 3:0 4:0 5:0.1 6:0.6 7:0.1 8:0 9:0 10:3.844 11:0 12:5 13:0 14:1 
-10 0:6.1 1:0.1 2:0.0204 3:0.1 4:0.1 5:0.1 6:0.8 7:0.1 8:0 9:0 10:0 11:0.924 12:6 13:0 14:1 
-10 0:5.2 1:0.2 2:0.0994 3:0.1 4:0.1 5:0.1 6:0.6 7:0.1 8:0 9:0 10:0 11:0 12:4 13:0 14:1 
-10 0:4 1:0.1 2:0.1809 3:0.5 4:0.5 5:0.2 6:0.1 7:0.5 8:0 9:0 10:0 11:0.782 12:7 13:1.1 14:1 
-10 0:4 1:0.4 2:0.1965 3:0.8 4:0.8 5:0.1 6:0.6 7:0.1 8:0.1 9:0 10:0 11:0.9435 12:4 13:0.5 14:1 
-10 0:4.2 1:0.2 2:0.1566 3:1.2 4:1.2 5:0 6:0.7 7:0.4 8:0 9:0 10:0 11:0 12:4 13:0 14:1 
-10 0:5 1:0.2 2:0.0936 3:0.1 4:0.1 5:0.1 6:0.7 7:0.1 8:0 9:0 10:0 11:0 12:6 13:0 14:1 
-10 0:2.4 1:0.2 2:0.164 3:0.1 4:0.1 5:0.1 6:0.4 7:0.1 8:0 9:0 10:0 11:0 12:4.5 13:0 14:1 
-10 0:3.9 1:0.4 2:0.2395 3:0.6 4:0.6 5:0.1 6:0.6 7:0.2 8:0 9:0.1 10:0 11:0 12:5 13:0 14:1 
-10 0:3.9 1:0.2 2:0.0165 3:0 4:0 5:0.1 6:0.3 7:0.1 8:0 9:0 10:0 11:0 12:4 13:0 14:1 
-10 0:5.3 1:0.2 2:0.0233 3:0.5 4:0.5 5:0.1 6:0.1 7:0.1 8:0 9:0 10:0 11:0 12:4.5 13:0 14:1 
-10 0:3.1 1:0.2 2:0.1217 3:0 4:0 5:0.1 6:0.5 7:0.1 8:0.1 9:0 10:0 11:0 12:9 13:0 14:1 
-10 0:3.1 1:0.2 2:0.0867 3:0 4:0 5:0.1 6:0.3 7:0.2 8:0 9:0.1 10:0 11:0 12:4 13:0 14:1 
-10 0:4.5 1:0.6 2:0.0246 3:0 4:0 5:0.1 6:0.8 7:0.1 8:0 9:0 10:2.193 11:0 12:3.5 13:0 14:1 
-10 0:5.7 1:0.2 2:0.118 3:0.1 4:0.1 5:0.1 6:0.7 7:0.1 8:0 9:0 10:0 11:0.9435 12:4 13:0 14:1 
-10 0:3.2 1:0.2 2:0.1228 3:0.7 4:0.7 5:0.2 6:0.5 7:0 8:0 9:0 10:0 11:0 12:5 13:0 14:1 
-10 0:3.6 1:0.3 2:0.1484 3:0.6 4:0.6 5:0.1 6:0 7:0.2 8:0 9:0.1 10:0 11:0 12:4 13:0 14:1 
-10 0:4.7 1:0.2 2:0.046 3:0.1 4:0.1 5:0.1 6:0.5 7:0.1 8:0 9:0 10:0 11:0 12:4 13:0 14:1 
-10 0:3.6 1:0.2 2:0.2286 3:0.1 4:0.1 5:0.1 6:0.1 7:0.1 8:0 9:0 10:0 11:0 12:5 13:0 14:1 
-10 0:5.6 1:0.1 2:0.0989 3:0.1 4:0.1 5:0.1 6:0.4 7:0.1 8:0 9:0 10:0 11:0.951 12:6 13:0 14:1 
-10 0:5.1 1:0.2 2:0.1258 3:0.5 4:0.5 5:0.1 6:0.1 7:0.1 8:0 9:0 10:0 11:0 12:4.5 13:0 14:1 
-10 0:4.4 1:0.6 2:0.1558 3:0.5 4:0.5 5:0.1 6:0.1 7:0.1 8:0 9:0 10:0 11:0 12:5 13:0 14:1 
-10 0:4.9 1:0.6 2:0.0855 3:0.3 4:0.3 5:0.1 6:0.1 7:0.1 8:0 9:0 10:0 11:0 12:5 13:0 14:1 
-10 0:4.6 1:0.2 2:0.383 3:0.1 4:0.1 5:0.1 6:0.6 7:0.1 8:0.1 9:0 10:0 11:0 12:6 13:0 14:1 
-10 0:4.1 1:0.6 2:0.0639 3:1 4:1 5:0.1 6:0.3 7:0.1 8:0 9:0 10:0 11:0 12:6 13:0 14:1 
-10 0:3 1:0.2 2:0.1207 3:0.5 4:0.5 5:0 6:0.6 7:0 8:0 9:0 10:0 11:0 12:4 13:0 14:1 
-10 0:3.9 1:0.2 2:0.0347 3:0.1 4:0.1 5:0.1 6:0.7 7:0.1 8:0 9:0 10:0 11:0 12:4 13:0 14:1 
-10 0:4 1:0.2 2:0.1552 3:0.6 4:0.6 5:0.1 6:0.3 7:0.1 8:0 9:0 10:3.649 11:0 12:3.6 13:0 14:1 
-10 0:6.1 1:0.2 2:0.0821 3:1 4:1 5:0.1 6:0.7 7:0.1 8:0 9:0 10:0 11:0 12:0.5 13:0 14:1 
-10 0:5.8 1:0.2 2:0.1737 3:0.7 4:0.7 5:0.1 6:0.6 7:0.1 8:0 9:0 10:0 11:0 12:4 13:0 14:1 
-10 0:4.3 1:0.4 2:0.1994 3:0 4:0 5:0.1 6:0.3 7:0.1 8:0.1 9:0 10:0 11:0 12:4 13:0 14:1 
-10 0:3.7 1:0.2 2:0.119 3:0.3 4:0.3 5:0.2 6:0.1 7:0.4 8:0 9:0 10:0 11:0 12:6 13:0 14:1 
-10 0:4.5 1:0.2 2:0.0703 3:0.1 4:0.1 5:0.1 6:0 7:0.1 8:0 9:0 10:0 11:0 12:4 13:0 14:1 
-10 0:2.8 1:0.6 2:0.1428 3:0.2 4:0.2 5:0.1 6:0.6 7:0.1 8:0 9:0 10:0 11:0 12:5 13:0 14:1 
-10 0:3.2 1:0.2 2:0.0544 3:0.2 4:0.2 5:0.2 6:0.5 7:0 8:0 9:0 10:0 11:0 12:4.3 13:0 14:1 
-10 0:3.6 1:0.1 2:0.0713 3:0.5 4:0.5 5:0.1 6:0.1 7:0.1 8:0 9:0 10:0 11:0 12:5.5 13:0 14:1 
-10 0:3.7 1:0.6 2:0.2688 3:0 4:0 5:0.1 6:0.1 7:0.1 8:0 9:0 10:0 11:0 12:8 13:0 14:1 
-10 0:3.7 1:0.6 2:0.1474 3:0 4:0 5:0.1 6:0.3 7:0.1 8:0 9:0 10:0 11:0 12:3.5 13:0 14:1 
-10 0:5.9 1:0.6 2:0.0849 3:0 4:0 5:0.1 6:0.1 7:0.1 8:0 9:0 10:0 11:0 12:4 13:0.8 14:1 
-10 0:4.6 1:0.2 2:0.1056 3:0.1 4:0.1 5:0.1 6:0 7:0.1 8:0 9:0 10:0 11:0 12:5.8 13:0 14:1 
-10 0:4 1:0.2 2:0.0584 3:1.2 4:1.2 5:0.1 6:0.9 7:0.1 8:0 9:0 10:0 11:0 12:4 13:0 14:1 
-10 0:4.8 1:0.2 2:0.0852 3:0.3 4:0.3 5:0.2 6:0.1 7:0.4 8:0 9:0.1 10:0 11:0 12:4 13:0 14:1 
-10 0:4.9 1:0.2 2:0.1666 3:1.2 4:1.2 5:0.1 6:0.7 7:0.1 8:0.1 9:0 10:0 11:0 12:4.2 13:0 14:1 
-10 0:4.1 1:0.2 2:0.0831 3:0.5 4:0.5 5:0.1 6:0.6 7:0.1 8:0 9:0 10:0 11:0.9435 12:5 13:0 14:1 
-10 0:6.2 1:0.2 2:0.0915 3:0.9 4:0.9 5:0.1 6:0.3 7:0.1 8:0 9:0 10:3.844 11:0 12:4 13:0.5 14:1 
-10 0:4.4 1:0.2 2:0.1473 3:0.6 4:0.6 5:0.1 6:0.6 7:0.1 8:0 9:0 10:0 11:0.924 12:4 13:0 14:1 
-10 0:2.6 1:0.2 2:0.1813 3:0.1 4:0.1 5:0.1 6:0.5 7:0.1 8:0 9:0 10:0 11:0 12:5 13:0 14:1 
-10 0:4 1:0.2 2:0.0702 3:0.5 4:0.5 5:0.1 6:0.6 7:0.1 8:0 9:0 10:0 11:0 12:4.5 13:0 14:1 
-10 0:3.3 1:0.2 2:0.1013 3:0.1 4:0.1 5:0 6:0.3 7:0 8:0 9:0 10:0 11:0 12:6 13:0 14:1 
-10 0:5.7 1:0.2 2:0.1609 3:0.1 4:0.1 5:0.1 6:0.9 7:0.1 8:0.1 9:0 10:0 11:0 12:4 13:0 14:1 
-10 0:3.6 1:0.2 2:0.0579 3:0.6 4:0.6 5:0.1 6:0.3 7:0.2 8:0 9:0.1 10:0 11:0 12:3 13:0 14:1 
-10 0:4.5 1:0.2 2:0.0315 3:0.3 4:0.3 5:0.1 6:0.3 7:0.1 8:0 9:0 10:0 11:0 12:3.6 13:0.8 14:1 
-10 0:5.4 1:0.2 2:0.0366 3:0.1 4:0.1 5:0.1 6:0.9 7:0.1 8:0 9:0 10:0 11:0 12:4 13:0 14:1 
-10 0:6 1:0.2 2:0.0365 3:0.1 4:0.1 5:0.1 6:0.3 7:0.1 8:0 9:0 10:0 11:0 12:4 13:0 14:1 
-10 0:4.8 1:0.1 2:0.0399 3:0.5 4:0.5 5:0.1 6:0.5 7:0.1 8:0 9:0 10:0 11:0 12:7 13:0 14:1 
-10 0:4.4 1:0.1 2:0.1219 3:0.1 4:0.1 5:0.1 6:0.1 7:0.1 8:0 9:0 10:0 11:0.9885 12:4.5 13:0 14:1 
-10 0:6.1 1:0.1 2:0.1108 3:1 4:1 5:0.1 6:0.3 7:0.1 8:0 9:0 10:0 11:0 12:3.5 13:0 14:1 
-10 0:4 1:0 2:0.235 3:0.6 4:0.6 5:0.1 6:0 7:0.1 8:0 9:0 10:0 11:0 12:4 13:0 14:1 
-10 0:5.7 1:0.2 2:0.1195 3:0.5 4:0.5 5:0.1 6:0.1 7:0.1 8:0 9:0 10:0 11:0 12:5 13:0 14:1 
-10 0:3.4 1:0.6 2:0.1194 3:0 4:0 5:0.1 6:0.3 7:0.1 8:0 9:0 10:0 11:0 12:6 13:0 14:1 
-10 0:5.4 1:0.2 2:0.1402 3:0.1 4:0.1 5:0.1 6:0.9 7:0.1 8:0 9:0 10:2.589 11:0 12:5 13:0 14:1 
-10 0:4.2 1:0.2 2:0.1936 3:0 4:0 5:0.1 6:0.3 7:0.1 8:0 9:0 10:0 11:0 12:4.5 13:0 14:1 
-10 0:6.5 1:0 2:0.1421 3:0.3 4:0.3 5:0.1 6:0.3 7:0.1 8:0 9:0 10:3.257 11:0 12:3.5 13:0 14:1 
-10 0:7.1 1:0.6 2:0.0909 3:0.1 4:0.1 5:0.1 6:0 7:0.2 8:0 9:0.1 10:0 11:0 12:2 13:0 14:1 
-10 0:3.5 1:0.2 2:0.081 3:0 4:0 5:0.1 6:0.1 7:0.1 8:0 9:0 10:0 11:0 12:5.5 13:0 14:1 
-10 0:4.1 1:0.2 2:0.2865 3:0.1 4:0.1 5:0.1 6:0.6 7:0.1 8:0.1 9:0 10:0 11:0 12:4 13:0 14:1 
-10 0:4.4 1:0.2 2:0.0749 3:0 4:0 5:0.1 6:0.1 7:0.1 8:0 9:0 10:0 11:0 12:4 13:0 14:1 
-10 0:5 1:0.6 2:0.1088 3:0.5 4:0.5 5:0.1 6:0.5 7:0.1 8:0 9:0 10:0 11:0 12:6 13:0 14:1 
-10 0:4.6 1:0.2 2:0.0678 3:1 4:1 5:0.1 6:0.3 7:0.1 8:0 9:0 10:0 11:0 12:6 13:0 14:1 
-10 0:4.4 1:0.2 2:0.0297 3:0.6 4:0.6 5:0.1 6:0.5 7:0.1 8:0 9:0 10:3.844 11:0 12:4 13:0 14:1 
-10 0:4.7 1:0.2 2:0.116 3:0.6 4:0.6 5:0.1 6:0 7:0.2 8:0 9:0.1 10:0 11:0 12:4 13:1.3 14:1 
-10 0:6.4 1:0.5 2:0.1143 3:0.1 4:0.1 5:0.1 6:0.5 7:0.1 8:0 9:0 10:0 11:0 12:4 13:0.5 14:1 
-10 0:3.7 1:0.2 2:0.128 3:0.1 4:0.1 5:0.1 6:0.1 7:0.1 8:0 9:0 10:0 11:0.951 12:4.5 13:0 14:1 
-10 0:3.7 1:0.2 2:0.1162 3:0.1 4:0.1 5:0.1 6:0.1 7:0.1 8:0 9:0 10:0 11:0.9435 12:5 13:0 14:1 
-10 0:4.4 1:0.2 2:0.0986 3:0.9 4:0.9 5:0.1 6:0.3 7:0.1 8:0 9:0 10:0 11:0 12:4 13:0 14:1 
-10 0:5.1 1:0.2 2:0.282 3:0.1 4:0.1 5:0.1 6:0.9 7:0.1 8:0.1 9:0 10:0 11:0.951 12:4 13:0 14:1 
-10 0:5.6 1:0.2 2:0.1273 3:0.1 4:0.1 5:0.1 6:0.6 7:0.1 8:0 9:0 10:0 11:0 12:4.8 13:0 14:1 
-10 0:4.3 1:0.2 2:0.137 3:0.3 4:0.3 5:0.1 6:0.1 7:0.1 8:0 9:0 10:0 11:0.951 12:4 13:0 14:1 
-10 0:3.8 1:0.2 2:0.1064 3:0 4:0 5:0.1 6:0.5 7:0.1 8:0 9:0 10:0 11:0 12:4 13:0 14:1 
-10 0:4.1 1:0.2 2:0.1589 3:0.3 4:0.3 5:0.1 6:0.3 7:0.1 8:0.2 9:0 10:0 11:0 12:4.5 13:2.7 14:1 
-10 0:3.5 1:0.2 2:0.0206 3:0 4:0 5:0.1 6:0.5 7:0.1 8:0 9:0 10:0 11:0 12:4.5 13:0 14:1 
-10 0:3.8 1:0.2 2:0.0588 3:0 4:0 5:0.2 6:0.5 7:0 8:0 9:0 10:0 11:0 12:4.8 13:0 14:1 
-10 0:4 1:0.4 2:0.1487 3:0.5 4:0.5 5:0.1 6:0.1 7:0.1 8:0 9:0 10:0 11:0 12:4.2 13:0 14:1 
-10 0:5.5 1:0.2 2:0.1352 3:0.1 4:0.1 5:0.1 6:0.6 7:0.1 8:0 9:0 10:0 11:0 12:4 13:0 14:1 
-10 0:4.9 1:0.2 2:0.1264 3:0.3 4:0.3 5:0.1 6:0.3 7:0.2 8:0 9:0.1 10:0 11:0 12:5 13:0 14:1 
-10 0:4.5 1:0.2 2:0.1241 3:0 4:0 5:0.2 6:0.4 7:0 8:0 9:0 10:0 11:0 12:4.5 13:0.5 14:1 
-10 0:3 1:0.2 2:0.0801 3:0 4:0 5:0.1 6:0 7:0.1 8:0 9:0 10:0 11:0 12:4 13:0 14:1 
-10 0:5.3 1:0.1 2:0.1333 3:0.1 4:0.1 5:0.1 6:0.1 7:0.1 8:0.1 9:0 10:0 11:0 12:4.5 13:0 14:1 
-10 0:4.2 1:0.2 2:0.171 3:0.5 4:0.5 5:0.1 6:0.3 7:0.2 8:0 9:0.1 10:0 11:0 12:5 13:0 14:1 
-10 0:2.6 1:0.2 2:0.1137 3:0.5 4:0.5 5:0.1 6:1 7:0.1 8:0 9:0 10:1.5515 11:0 12:4 13:0 14:1 
-10 0:5.1 1:0.2 2:0.0816 3:0.7 4:0.7 5:0.1 6:0.6 7:0.1 8:0 9:0 10:1.5515 11:0 12:5 13:0 14:1 
-10 0:4.9 1:0.2 2:0.1153 3:0.1 4:0.1 5:0.1 6:0.4 7:0.2 8:0.1 9:0.1 10:0 11:0 12:4 13:0 14:1 
-10 0:3.8 1:0.2 2:0.0211 3:0 4:0 5:0.1 6:0.5 7:0.1 8:0 9:0 10:3.649 11:0 12:4 13:0 14:1 
-10 0:3.9 1:0.2 2:0.1619 3:0 4:0 5:0.1 6:0.1 7:0.1 8:0 9:0 10:0 11:0 12:5 13:0 14:1 
-10 0:3.5 1:0.4 2:0.0701 3:0.3 4:0.3 5:0.1 6:0.3 7:0.2 8:0 9:0.1 10:0 11:0 12:3.5 13:0 14:1 
-10 0:3.3 1:0.2 2:0.1055 3:0.1 4:0.1 5:0.1 6:0.5 7:0.1 8:0 9:0 10:1.5515 11:0 12:4 13:0 14:1 
-10 0:5 1:0.3 2:0.1084 3:0.1 4:0.1 5:0.1 6:0 7:0.1 8:0 9:0 10:0 11:0 12:4 13:0 14:1 
-10 0:3.8 1:0.6 2:0.0766 3:1 4:1 5:0.1 6:0.3 7:0.1 8:0.2 9:0 10:0 11:0 12:4 13:0 14:1 
-10 0:3.5 1:0.2 2:0.1249 3:0.7 4:0.7 5:0.1 6:0.1 7:0.1 8:0 9:0 10:3.649 11:0 12:5 13:0 14:1 
-10 0:5.1 1:0.2 2:0.1113 3:0 4:0 5:0.1 6:0.7 7:0.1 8:0 9:0 10:0 11:0 12:5.6 13:0 14:1 
-10 0:4.9 1:0.2 2:0.1279 3:0.1 4:0.1 5:0.1 6:0.5 7:0.1 8:0 9:0 10:0 11:0 12:4 13:0 14:1 
-10 0:4.3 1:0 2:0.14 3:0 4:0 5:0.1 6:0 7:0.1 8:0 9:0 10:0 11:0 12:5 13:0 14:1 
-10 0:5.1 1:0.2 2:0.108 3:0.1 4:0.1 5:0.1 6:0.7 7:0.1 8:0 9:0 10:0 11:0 12:8.4 13:0 14:1 
