svm_type c_svc
kernel_type rbf
gamma 0.0001
nr_class 2
total_sv 255
rho -0.87361875906153752
label 0 1
probA -6.2774385622041925e+66
probB -6.2774385622041925e+66
nr_sv 142 113
SV
10 0:3.9 1:0 2:0.0526 3:0 4:0 5:0 6:0 7:0 8:0 9:0 10:1.087 11:0 12:4 13:0 
10 0:5 1:0.1 2:0.0566 3:0 4:0 5:0.1 6:0.1 7:0.1 8:0 9:0 10:0 11:0 12:1.3 13:0 
10 0:5.3 1:0.2 2:0.1594 3:0.2 4:0.2 5:0.1 6:0.2 7:0.1 8:0.1 9:0 10:0 11:0 12:4 13:0 
10 0:3.2 1:0.2 2:0.1392 3:0.6 4:0.6 5:0 6:0.5 7:0 8:0.1 9:0 10:0 11:0 12:5 13:0 
0.64350077040441112 0:3.2 1:0.2 2:0.1269 3:0.1 4:0.1 5:0 6:0.9 7:0.4 8:0 9:0 10:0 11:0 12:4 13:0 
9.9737793289413386 0:3.8 1:0.2 2:0.0196 3:0.2 4:0.2 5:0.1 6:0.5 7:0.1 8:0 9:0 10:0 11:0 12:5 13:0 
10 0:4.3 1:0.2 2:0.0795 3:0.2 4:0.2 5:0.1 6:0.7 7:0.1 8:0 9:0 10:0 11:1.021 12:4 13:0 
10 0:3.9 1:0.2 2:0.2494 3:0.1 4:0.1 5:0.2 6:0.1 7:0 8:0 9:0 10:0 11:0 12:8 13:0 
0.65574217293627268 0:4.9 1:0.2 2:0.1313 3:0.1 4:0.1 5:0.1 6:0.6 7:0.1 8:0 9:0 10:0 11:0 12:4 13:0 
10 0:4.5 1:0.2 2:0.2628 3:0 4:0 5:0.2 6:0.1 7:0.3 8:0 9:0 10:0 11:0.704 12:4 13:0 
6.5404286236663696 0:3 1:0.3 2:0.0407 3:0.5 4:0.5 5:0.1 6:0 7:0.3 8:0 9:0 10:0 11:0 12:4 13:0 
0.6574208752315982 0:4.8 1:0.2 2:0.1646 3:0.2 4:0.2 5:0 6:0.9 7:0.4 8:0 9:0 10:0 11:0 12:4 13:0.6 
6.2215707094605763 0:4.8 1:0.1 2:0.1803 3:0.6 4:0.6 5:0.1 6:0.3 7:0.1 8:0 9:0 10:0 11:0 12:4 13:0 
10 0:5.3 1:0.1 2:0.0601 3:0 4:0 5:0.1 6:0.3 7:0.1 8:0 9:0 10:0 11:0 12:4 13:0 
10 0:4.9 1:0.2 2:0.0643 3:0.1 4:0.1 5:0.4 6:0 7:0.4 8:0 9:0.1 10:0 11:0 12:4 13:0 
0.27325013537809284 0:4.4 1:0.2 2:0.0872 3:0.3 4:0.3 5:0.2 6:0.1 7:0.4 8:0 9:0.1 10:0 11:0 12:4 13:0 
0.67287734437810487 0:2.9 1:0.2 2:0.1844 3:0.7 4:0.7 5:0 6:0.3 7:0 8:0 9:0 10:0 11:0 12:4.3 13:0 
10 0:4.7 1:0.6 2:0.0746 3:0.1 4:0.1 5:0.2 6:0.1 7:0 8:0 9:0 10:0 11:0 12:6 13:0 
0.085187642980364353 0:4.6 1:0.2 2:0.1471 3:1.1 4:1.1 5:0.1 6:0.9 7:0.1 8:0 9:0 10:0 11:0 12:4 13:0.4 
10 0:4.1 1:0.2 2:0.1001 3:0.1 4:0.1 5:0.1 6:0 7:0.1 8:0 9:0 10:0 11:0 12:4.8 13:0 
10 0:3 1:0.2 2:0.1278 3:0.1 4:0.1 5:0.1 6:0.9 7:0.1 8:0 9:0 10:2.5065 11:0 12:4 13:0 
10 0:3 1:0.2 2:0.0404 3:0 4:0 5:0.1 6:0.5 7:0.1 8:0 9:0 10:1.2035 11:0 12:4 13:0 
10 0:4 1:0.2 2:0.0219 3:0.6 4:0.6 5:0.1 6:0 7:0.1 8:0 9:0 10:0 11:0 12:4 13:0 
10 0:5.2 1:0.2 2:0.1878 3:0 4:0 5:0.1 6:0.4 7:0.1 8:0 9:0 10:0 11:0 12:4 13:0.1 
10 0:5.9 1:0.2 2:0.1086 3:0.1 4:0.1 5:0.1 6:0.5 7:0.1 8:0 9:0 10:0 11:0 12:4.8 13:0 
10 0:5.7 1:0.2 2:0.1698 3:0.7 4:0.7 5:0.1 6:0.3 7:0.1 8:0 9:0 10:0 11:0 12:4 13:0 
10 0:2.9 1:0.4 2:0.0785 3:0.5 4:0.5 5:0 6:0.2 7:0 8:0 9:0 10:0 11:0 12:5 13:0 
10 0:4.7 1:0.1 2:0.1013 3:0.3 4:0.3 5:0 6:0.3 7:0 8:0 9:0.1 10:0 11:0 12:5 13:0 
10 0:1.7 1:0.5 2:0.2071 3:1.2 4:1.2 5:0 6:0.5 7:0.3 8:0 9:0.1 10:17.0475 11:0 12:3.2 13:0 
10 0:4.2 1:0.2 2:0.0847 3:0.1 4:0.1 5:0.1 6:0.2 7:0.1 8:0 9:0 10:0 11:0 12:4 13:0 
1.5978114725152126 0:2.4 1:0.2 2:0.2936 3:0 4:0 5:0 6:0.5 7:0.5 8:0 9:0 10:0 11:0 12:4 13:0 
10 0:2.8 1:0.2 2:0.2566 3:0.5 4:0.5 5:0.1 6:0.5 7:0.2 8:0 9:0.1 10:2.032 11:0 12:2.5 13:0 
10 0:5.3 1:0.2 2:0.065 3:0.4 4:0.4 5:0.1 6:0.2 7:0.1 8:0 9:0 10:0 11:0 12:5 13:0 
10 0:5.6 1:0.6 2:0.2058 3:0.5 4:0.5 5:0.1 6:0.5 7:0.1 8:0 9:0 10:0 11:0 12:5 13:0 
10 0:5.5 1:0.2 2:0.1681 3:0.5 4:0.5 5:0.1 6:0.5 7:0.1 8:0 9:0 10:0 11:0 12:5.6 13:0 
10 0:4 1:0.2 2:0.0807 3:0 4:0 5:0.1 6:0.1 7:0.1 8:0 9:0 10:0 11:0 12:6 13:0 
10 0:2.8 1:0.2 2:0.0473 3:0.6 4:0.6 5:0 6:0.5 7:0 8:0 9:0.1 10:0 11:0 12:6 13:0 
10 0:3.8 1:0.1 2:0.0822 3:0.1 4:0.1 5:0.1 6:0.6 7:0.1 8:0 9:0 10:2.193 11:0 12:3.5 13:0 
10 0:3.7 1:0.2 2:0.1726 3:0 4:0 5:0.1 6:0.5 7:0.1 8:0 9:0 10:0 11:0 12:5 13:0 
10 0:4.3 1:0.1 2:0.0387 3:0.1 4:0.1 5:0.1 6:0.6 7:0.1 8:0 9:0 10:0 11:0 12:6 13:0 
10 0:6.1 1:0.6 2:0.0452 3:0.1 4:0.1 5:0.1 6:0.6 7:0.1 8:0 9:0 10:0 11:0 12:4 13:0 
10 0:6.4 1:0.2 2:0.1231 3:0.2 4:0.2 5:0.1 6:0.6 7:0.1 8:0 9:0 10:0 11:1.0895 12:4 13:0 
4.4844763506638454 0:4.7 1:0.4 2:0.1263 3:0.5 4:0.5 5:0.2 6:0 7:0.4 8:0 9:0.1 10:0 11:0 12:3.8 13:0.4 
10 0:4.8 1:0.2 2:0.1275 3:0.1 4:0.1 5:0.1 6:0.6 7:0.1 8:0 9:0 10:0 11:0 12:4.6 13:0 
2.0799057190836376 0:7.1 1:0.1 2:0.3357 3:0.5 4:0.5 5:0.4 6:0.5 7:0.4 8:0.1 9:0 10:0 11:0.908 12:0.2 13:0 
10 0:2.9 1:0.2 2:0.1301 3:0.1 4:0.1 5:0.2 6:0.6 7:0 8:0 9:0 10:0 11:0 12:6 13:0 
7.0490484576403487 0:4.2 1:0.2 2:0.1552 3:0 4:0 5:0.4 6:0.4 7:0.5 8:0.1 9:0 10:0 11:0 12:5 13:0 
10 0:4.4 1:0.6 2:0.0532 3:0.3 4:0.3 5:0.2 6:0.1 7:0.4 8:0.2 9:0.1 10:0 11:0 12:4 13:0 
10 0:3.9 1:0.3 2:0.1599 3:0.6 4:0.6 5:0 6:0.1 7:0 8:0 9:0 10:0 11:0 12:4.2 13:0 
10 0:2.7 1:0.2 2:0.0849 3:0.1 4:0.1 5:0 6:0.4 7:0 8:0 9:0 10:0 11:0.99 12:4 13:0 
0.0093815717903011492 0:3.4 1:0.2 2:0.3286 3:0.1 4:0.1 5:0 6:0.2 7:0 8:0.1 9:0 10:0 11:0 12:4 13:0 
10 0:3.3 1:0.2 2:0.0253 3:0 4:0 5:0.1 6:0.3 7:0.1 8:0 9:0 10:0 11:0 12:6.5 13:0 
10 0:3.4 1:0.2 2:0.2065 3:0.1 4:0.1 5:0.1 6:0 7:0.1 8:0.1 9:0 10:0 11:0 12:4 13:0 
8.0438052406850815 0:5.3 1:0.5 2:0.0918 3:0 4:0 5:0.2 6:0.5 7:0 8:0 9:0.1 10:0 11:0 12:5 13:0 
0.49919745896278667 0:4.1 1:0.4 2:0.3558 3:0 4:0 5:0.1 6:0.6 7:0.1 8:0.1 9:0 10:0 11:0 12:4 13:0 
10 0:4.1 1:0.3 2:0.0888 3:0 4:0 5:0.1 6:1 7:0.1 8:0 9:0 10:0 11:0 12:2.4 13:0 
10 0:2.6 1:0.2 2:0.2698 3:0.3 4:0.3 5:0 6:0.3 7:0 8:0 9:0.1 10:0 11:0.938 12:4 13:0 
10 0:4.2 1:0.4 2:0.1731 3:0.5 4:0.5 5:0 6:0.3 7:0 8:0 9:0.1 10:0 11:0.67 12:4 13:0 
0.011171162666090114 0:3.7 1:0 2:0.0327 3:0.1 4:0.1 5:0.2 6:0 7:0.4 8:0 9:0.1 10:0 11:0 12:3.5 13:0 
10 0:3.5 1:0.2 2:0.0246 3:0.1 4:0.1 5:0.2 6:0.6 7:0 8:0 9:0 10:0 11:0 12:6 13:0 
8.5996551872004172 0:6 1:0.2 2:0.0583 3:0.1 4:0.1 5:0.1 6:0.6 7:0.1 8:0.2 9:0 10:0 11:0 12:4 13:0 
9.5916813186651115 0:3.8 1:0.2 2:0.124 3:0 4:0 5:0.1 6:0.5 7:0.1 8:0 9:0 10:0 11:0 12:5 13:1.4 
10 0:4.5 1:0.2 2:0.0743 3:0 4:0 5:0.1 6:0.3 7:0.1 8:0 9:0 10:0 11:0 12:5.5 13:0 
10 0:6.4 1:0.5 2:0.1274 3:1.3 4:1.3 5:0.2 6:0.5 7:0 8:0 9:0 10:0 11:0 12:4 13:0 
8.7400558201047414 0:9 1:0.2 2:0.0351 3:0.1 4:0.1 5:0 6:0.4 7:0 8:0.1 9:0 10:0 11:1.103 12:4 13:0 
10 0:5.4 1:0.2 2:0.12 3:0.1 4:0.1 5:0.1 6:0 7:0.1 8:0.1 9:0 10:0 11:0 12:2 13:0 
10 0:5.3 1:0.4 2:0.0953 3:1.4 4:1.4 5:0 6:0.9 7:0 8:0 9:0.1 10:0 11:0 12:3.5 13:0 
10 0:6.6 1:0.1 2:0.1139 3:0.1 4:0.1 5:0.1 6:0.8 7:0.1 8:0 9:0 10:0.7045 11:0 12:5 13:0 
10 0:6.5 1:0.2 2:0.1201 3:0.1 4:0.1 5:0.2 6:0 7:0 8:0 9:0.1 10:0 11:0 12:4 13:0 
10 0:3.5 1:0.2 2:0.3658 3:0.2 4:0.2 5:0.4 6:0.7 7:0 8:0.1 9:0 10:1.837 11:0 12:4 13:0 
10 0:2.5 1:0.2 2:0.1085 3:0.5 4:0.5 5:0 6:0 7:0 8:0 9:0 10:0 11:0 12:4.2 13:0 
10 0:5.9 1:0 2:0.1825 3:0.1 4:0.1 5:0.1 6:0.4 7:0.1 8:0 9:0 10:0 11:0 12:4 13:0 
8.6980978064359498 0:3.8 1:0.2 2:0.1219 3:0.5 4:0.5 5:0.2 6:0.6 7:0 8:0 9:0 10:0 11:0.8705 12:4 13:0 
10 0:5.6 1:0.2 2:0.1383 3:0.1 4:0.1 5:0.1 6:0 7:0.1 8:0 9:0 10:0 11:0 12:3.5 13:0.5 
10 0:4.5 1:0.2 2:0.104 3:0.1 4:0.1 5:0.1 6:0 7:0.1 8:0 9:0 10:0 11:0 12:4 13:0.5 
10 0:4.2 1:0.2 2:0.2654 3:0 4:0 5:0.1 6:0 7:0.2 8:0.1 9:0.1 10:0 11:0 12:4 13:0 
7.4903865229515869 0:5.8 1:0.2 2:0.1759 3:0.5 4:0.5 5:0 6:0.7 7:0 8:0 9:0 10:0 11:0 12:2 13:0 
0.85968608205521146 0:4.5 1:0.2 2:0.1275 3:0.7 4:0.7 5:0.6 6:0.1 7:0 8:0 9:0.1 10:0 11:0 12:4.5 13:0 
0.062582136622386708 0:5 1:0.2 2:0.1389 3:0.8 4:0.8 5:0.2 6:0.6 7:0 8:0 9:0 10:0 11:0 12:4 13:0 
10 0:4.5 1:0.2 2:0.0666 3:0.1 4:0.1 5:0.1 6:0.5 7:0.1 8:0 9:0 10:0 11:0 12:6 13:0 
10 0:5.9 1:0.2 2:0.0992 3:0.5 4:0.5 5:0.1 6:0.5 7:0.1 8:0 9:0 10:2.032 11:0 12:4 13:0 
10 0:1.7 1:0.2 2:0.1299 3:0.4 4:0.4 5:0 6:0.4 7:0.3 8:0 9:0 10:0.5275 11:0 12:2.4 13:0 
10 0:5 1:0.1 2:0.0208 3:0.3 4:0.3 5:0.1 6:0.8 7:0.1 8:0 9:0 10:1.2035 11:0 12:9.8 13:0 
0.069931434089815989 0:4.3 1:0.2 2:0.3246 3:0.1 4:0.1 5:0.1 6:0.2 7:0.1 8:0.1 9:0 10:0 11:0 12:4 13:0 
0.29061043042058782 0:6 1:0.2 2:0.1181 3:0 4:0 5:0.2 6:0.3 7:0 8:0 9:0.1 10:0 11:0 12:4.2 13:0 
10 0:5 1:0.2 2:0.1317 3:0.8 4:0.8 5:0.1 6:0.6 7:0.1 8:0 9:0 10:0 11:0 12:4 13:1.8 
1.4444756179783682 0:3.6 1:0.2 2:0.1361 3:0 4:0 5:0.1 6:0.3 7:0.1 8:0 9:0 10:0 11:0 12:4.5 13:0 
1.8174925629542038 0:6.5 1:0.2 2:0.0755 3:0.1 4:0.1 5:0.1 6:0.7 7:0.1 8:0 9:0 10:0 11:0 12:1.6 13:0 
10 0:3.7 1:0.6 2:0.039 3:0 4:0 5:0.2 6:0.5 7:0 8:0 9:0.1 10:0 11:0 12:6 13:0 
10 0:3.9 1:0.5 2:0.1069 3:0.3 4:0.3 5:0.1 6:0.5 7:0.2 8:0.2 9:0.1 10:1.732 11:0 12:4 13:0.5 
10 0:3.8 1:0.2 2:0.1151 3:0.1 4:0.1 5:0.2 6:0.5 7:0 8:0 9:0 10:0 11:0 12:8 13:0 
10 0:4.3 1:0.2 2:0.1177 3:0.1 4:0.1 5:0.2 6:0 7:0 8:0 9:0.1 10:0 11:0 12:4 13:0 
10 0:3.9 1:0.1 2:0.1184 3:0.1 4:0.1 5:0.1 6:0.1 7:0.1 8:0 9:0 10:0 11:0 12:4 13:0 
10 0:4.3 1:0.2 2:0.0342 3:0.5 4:0.5 5:0.1 6:0.6 7:0.1 8:0 9:0 10:0 11:0.7425 12:5 13:0 
10 0:5.8 1:0.1 2:0.2181 3:0.1 4:0.1 5:0.1 6:0.2 7:0.1 8:0 9:0 10:0 11:0 12:4 13:0 
10 0:6.6 1:0.2 2:0.0869 3:0.1 4:0.1 5:0 6:0.7 7:0 8:0 9:0 10:1.025 11:0 12:5.5 13:0 
10 0:2.6 1:0.2 2:0.1525 3:0 4:0 5:0 6:0 7:0 8:0 9:0 10:0 11:0 12:4 13:0 
10 0:5.5 1:0.4 2:0.0669 3:1.2 4:1.2 5:0.1 6:0 7:0.1 8:0 9:0 10:0 11:0 12:4 13:0 
8.2703930486885522 0:1.7 1:0.2 2:0.184 3:1.1 4:1.1 5:0 6:0.4 7:0.5 8:0 9:0 10:0 11:0 12:4.8 13:0.4 
0.19769722276483725 0:3 1:0.2 2:0.064 3:0.1 4:0.1 5:0 6:0.6 7:0.5 8:0 9:0 10:0 11:0 12:4 13:0 
10 0:4.9 1:0.2 2:0.0484 3:0.3 4:0.3 5:0 6:0.3 7:0 8:0 9:0 10:0 11:0 12:6 13:0 
6.4822239800246431 0:6.7 1:0.5 2:0.0245 3:0.2 4:0.2 5:0.1 6:0.5 7:0.1 8:0 9:0 10:0 11:0 12:0.8 13:0 
6.2267631597694093 0:3.1 1:0.2 2:0.1063 3:0 4:0 5:0 6:0.3 7:0.3 8:0 9:0 10:0 11:0 12:2.5 13:0 
4.9432765050407985 0:6.5 1:0.2 2:0.1096 3:0.2 4:0.2 5:0.6 6:0.4 7:0.4 8:0.4 9:0 10:0 11:0 12:4 13:0 
0.6301799515639207 0:4.2 1:0.2 2:0.076 3:0.1 4:0.1 5:0.1 6:0 7:0.2 8:0 9:0.1 10:0 11:0 12:3.5 13:0 
10 0:5.6 1:0.1 2:0.1243 3:0.5 4:0.5 5:0.1 6:0.5 7:0.1 8:0 9:0 10:0 11:0 12:4.5 13:0 
10 0:4.4 1:0.2 2:0.1089 3:0.1 4:0.1 5:0 6:0.6 7:0 8:0.1 9:0 10:0 11:0 12:4 13:0 
10 0:3.8 1:0.2 2:0.1174 3:0.1 4:0.1 5:0.1 6:0.5 7:0.1 8:0 9:0 10:0 11:0 12:5 13:0 
10 0:4.6 1:0.2 2:0.146 3:1.1 4:1.1 5:0.2 6:0.6 7:0 8:0 9:0.1 10:0 11:1.1695 12:4.5 13:0 
10 0:3.4 1:0.2 2:0.1546 3:0.7 4:0.7 5:0.2 6:1 7:0 8:0 9:0.1 10:0 11:0 12:6.4 13:0 
10 0:2.8 1:0.2 2:0.1131 3:0.8 4:0.8 5:0.1 6:0.2 7:0.1 8:0.4 9:0 10:0 11:1.0895 12:4 13:0.6 
10 0:3.2 1:0.2 2:0.2477 3:0.5 4:0.5 5:0.1 6:0.1 7:0.1 8:0 9:0 10:0 11:0 12:5 13:0 
10 0:5.2 1:0.2 2:0.1296 3:1.3 4:1.3 5:0.1 6:0.9 7:0.1 8:0 9:0 10:0 11:0 12:4 13:0.4 
10 0:1.7 1:0.2 2:0.1189 3:0.2 4:0.2 5:0 6:0.2 7:0.3 8:0 9:0 10:1.088 11:0 12:1.8 13:0 
10 0:3.3 1:0.2 2:0.1552 3:1.2 4:1.2 5:0 6:0.6 7:0.4 8:0 9:0.1 10:0 11:0 12:3.5 13:0 
10 0:3.6 1:0.3 2:0.1733 3:0.3 4:0.3 5:0 6:0.3 7:0 8:0 9:0 10:0 11:0.704 12:4 13:0 
10 0:2.3 1:0.2 2:0.139 3:0.1 4:0.1 5:0 6:0.2 7:0 8:0 9:0 10:0 11:0 12:7.2 13:2.3 
1.8858012313165164 0:4.7 1:0.4 2:0.1952 3:0.3 4:0.3 5:0.1 6:0.3 7:0.1 8:0 9:0 10:0 11:0 12:4 13:0 
10 0:4 1:0.1 2:0.1386 3:0 4:0 5:0.3 6:0.3 7:0 8:0 9:0.1 10:1.087 11:0 12:4 13:0 
4.3192594100210036 0:2.7 1:0.2 2:0.079 3:0.5 4:0.5 5:0 6:0.6 7:0.3 8:0.2 9:0 10:0 11:0.99 12:4 13:1.2 
10 0:3.4 1:0.4 2:0.1935 3:0.1 4:0.1 5:0 6:0.8 7:0 8:0.1 9:0 10:0.297 11:0 12:6 13:0 
7.6651960207344843 0:4.2 1:0.4 2:0.231 3:0.5 4:0.5 5:0.1 6:0 7:0.2 8:0 9:0.1 10:0 11:0 12:4 13:0 
0.36406104882617085 0:2.9 1:0.2 2:0.2468 3:0 4:0 5:0 6:0.3 7:0 8:0 9:0 10:0 11:0 12:4 13:0 
6.1201426364552916 0:3.8 1:0.2 2:0.2386 3:0.5 4:0.5 5:0.1 6:0.7 7:0.1 8:0.1 9:0 10:0 11:0 12:5 13:0 
10 0:3.2 1:0.2 2:0.0901 3:0 4:0 5:0.1 6:0.3 7:0.1 8:0 9:0 10:0 11:0 12:5 13:0 
10 0:5 1:0.2 2:0.1313 3:1.3 4:1.3 5:0.3 6:0.6 7:0.4 8:0 9:0 10:0 11:0 12:4 13:0 
0.07114130543190833 0:2.4 1:0.2 2:0.1155 3:0 4:0 5:0 6:1 7:0 8:0 9:0.1 10:0 11:0 12:2 13:0 
10 0:3.7 1:0.2 2:0.0861 3:0.1 4:0.1 5:0.1 6:0 7:0.2 8:0 9:0.1 10:0 11:0 12:6 13:0 
1.7719542625387064 0:5.2 1:0.2 2:0.0242 3:0.1 4:0.1 5:0.2 6:0.7 7:0.4 8:0 9:0 10:0 11:0 12:4 13:0 
10 0:3 1:0.2 2:0.2065 3:0.1 4:0.1 5:0 6:0.7 7:0 8:0 9:0 10:0 11:0 12:6 13:0 
10 0:2.7 1:0.2 2:0.1094 3:1.2 4:1.2 5:0 6:0.4 7:0 8:0 9:0 10:0 11:0 12:4 13:0 
3.6217407477267263 0:3.3 1:0.2 2:0.0759 3:0.6 4:0.6 5:0.1 6:0.6 7:0.1 8:0 9:0 10:0 11:0 12:4.5 13:2.2 
0.20002152677877622 0:2.8 1:0 2:0.0476 3:0 4:0 5:0 6:0.3 7:0 8:0 9:0 10:0 11:0 12:2 13:0 
10 0:5.2 1:0.5 2:0.1846 3:1.5 4:1.5 5:0 6:0.5 7:0.5 8:0.1 9:0 10:0.297 11:0 12:4 13:0 
10 0:6.3 1:0.5 2:0.2727 3:1.3 4:1.3 5:0.1 6:0.5 7:0.1 8:0 9:0 10:0 11:0 12:3.5 13:0 
10 0:5.9 1:0.4 2:0.1949 3:0.1 4:0.1 5:0.1 6:0.7 7:0.1 8:0 9:0 10:0 11:0 12:4.5 13:0 
0.066937985455408675 0:4.5 1:0.4 2:0.1117 3:0 4:0 5:0.2 6:0.3 7:0.4 8:0 9:0.1 10:0 11:0 12:4 13:0 
10 0:4.6 1:0.3 2:0.2522 3:0.1 4:0.1 5:0.2 6:0 7:0 8:0 9:0 10:0 11:0 12:4 13:0 
10 0:3.5 1:0.2 2:0.0219 3:0.6 4:0.6 5:0 6:0.1 7:0 8:0 9:0.1 10:0 11:0 12:6 13:0 
10 0:3.3 1:0.2 2:0.121 3:0 4:0 5:0 6:0.6 7:0.3 8:0 9:0 10:0 11:0 12:2 13:0 
10 0:4.1 1:0.2 2:0.233 3:0.1 4:0.1 5:0.2 6:0 7:0.4 8:0 9:0.1 10:0 11:0 12:3.6 13:0 
10 0:2.3 1:0.2 2:0.2738 3:1.1 4:1.1 5:0 6:0.4 7:0.3 8:0 9:0 10:0 11:0 12:4 13:2.4 
-10 0:5.2 1:0.1 2:0.1424 3:0.1 4:0.1 5:0.1 6:0.1 7:0.1 8:0 9:0 10:0 11:0 12:4.5 13:0 
-10 0:3.1 1:0.2 2:0.0311 3:0.3 4:0.3 5:0 6:0.3 7:0 8:0 9:0.1 10:7.042 11:0 12:5 13:0 
-10 0:4.2 1:0.2 2:0.1083 3:0 4:0 5:0.1 6:0.1 7:0.1 8:0 9:0 10:2.589 11:0 12:4 13:0 
-10 0:3.7 1:0.2 2:0.1905 3:0.5 4:0.5 5:0.1 6:0.1 7:0.1 8:0.1 9:0 10:0 11:0 12:8 13:0 
-10 0:3 1:0 2:0.096 3:0 4:0 5:0.1 6:0.3 7:0.1 8:0.2 9:0 10:0 11:0 12:4 13:0.3 
-10 0:4 1:0.2 2:0.0827 3:0.7 4:0.7 5:0.1 6:0.6 7:0.1 8:0.2 9:0 10:0 11:0 12:4 13:0.5 
-10 0:4.3 1:0.1 2:0.1984 3:0.3 4:0.3 5:0.2 6:0.1 7:0.4 8:0 9:0.1 10:0 11:0 12:4.5 13:0 
-10 0:4 1:0.2 2:0.1314 3:0.9 4:0.9 5:0.1 6:0.3 7:0.1 8:0 9:0 10:0 11:0 12:6 13:0 
-10 0:5.6 1:0.4 2:0.1473 3:0 4:0 5:0.1 6:1 7:0.1 8:0 9:0 10:0 11:0 12:4 13:0 
-10 0:5.4 1:0.5 2:0.1224 3:0.5 4:0.5 5:0.1 6:0.5 7:0.1 8:0.2 9:0 10:0 11:0 12:6 13:0.5 
-10 0:3.1 1:0.2 2:0.0572 3:0.5 4:0.5 5:0.1 6:0.5 7:0.1 8:0 9:0 10:0 11:0 12:3.8 13:0.5 
-10 0:5.7 1:0.3 2:0.2295 3:0 4:0 5:0.1 6:0.3 7:0.1 8:0.1 9:0 10:0 11:0 12:4 13:0 
-10 0:4.7 1:0.2 2:0.0352 3:1 4:1 5:0.1 6:0.3 7:0.2 8:0 9:0.1 10:0 11:0.951 12:6 13:0.7 
-10 0:5 1:0.3 2:0.1709 3:0 4:0 5:0.2 6:0.1 7:0 8:0 9:0 10:0 11:0 12:5.5 13:0 
-10 0:4.3 1:0.2 2:0.1616 3:0.5 4:0.5 5:0.1 6:1 7:0.1 8:0 9:0 10:0 11:0 12:4 13:0 
-10 0:4.2 1:0.2 2:0.0792 3:0.9 4:0.9 5:0.1 6:0.3 7:0.1 8:0 9:0 10:0 11:0 12:4.5 13:0 
-10 0:5.3 1:0.2 2:0.1154 3:0.1 4:0.1 5:0.1 6:0 7:0.2 8:0 9:0.1 10:0 11:0 12:4 13:0 
-10 0:4.9 1:0.6 2:0.1302 3:0.5 4:0.5 5:0.1 6:0.1 7:0.1 8:0 9:0 10:0 11:0 12:5 13:0 
-10 0:2.9 1:0.1 2:0.1102 3:0 4:0 5:0.1 6:0.5 7:0.1 8:0 9:0 10:0 11:0 12:7 13:0 
-10 0:4.4 1:0.2 2:0.2334 3:0.1 4:0.1 5:0.2 6:0.6 7:0 8:0 9:0.1 10:7.172 11:0 12:4 13:0 
-10 0:4.9 1:0.4 2:0.1822 3:0.1 4:0.1 5:0.1 6:1.1 7:0.1 8:0 9:0 10:0 11:0 12:4 13:0 
-10 0:4.3 1:0.3 2:0.279 3:0.9 4:0.9 5:0 6:0.3 7:0 8:0 9:0.1 10:0 11:0 12:5 13:0 
-10 0:3.4 1:0.4 2:0.1537 3:0 4:0 5:0.1 6:1.1 7:0.1 8:0 9:0 10:0 11:0 12:4 13:0 
-10 0:4.8 1:0.1 2:0.1299 3:0.9 4:0.9 5:0.1 6:0.3 7:0.1 8:0 9:0 10:0 11:0.951 12:6 13:0 
-10 0:3.7 1:0.2 2:0.1377 3:0.5 4:0.5 5:0.1 6:0.5 7:0.1 8:0 9:0 10:0 11:0 12:4.8 13:0 
-10 0:7.6 1:0.2 2:0.0843 3:0.3 4:0.3 5:0.1 6:0.1 7:0.1 8:0 9:0 10:0 11:0 12:4 13:0 
-10 0:4.4 1:0.2 2:0.1347 3:0 4:0 5:0.1 6:0.1 7:0.1 8:0 9:0 10:7.512 11:0 12:6 13:0 
-10 0:3.2 1:0.6 2:0.2157 3:0.1 4:0.1 5:0.1 6:0.6 7:0.1 8:0 9:0 10:3.844 11:0 12:4 13:0 
-10 0:3.8 1:0.2 2:0.0444 3:1 4:1 5:0.1 6:0.3 7:0.1 8:0 9:0 10:0 11:0 12:4 13:0 
-10 0:5.6 1:0.1 2:0.2279 3:0.1 4:0.1 5:0.1 6:0.4 7:0.1 8:0 9:0 10:0 11:0.9435 12:5 13:0.9 
-10 0:4.9 1:0.4 2:0.134 3:0.7 4:0.7 5:0.1 6:0.6 7:0.1 8:0.1 9:0 10:0 11:0 12:4 13:0 
-10 0:2.9 1:0 2:0.182 3:0 4:0 5:0.1 6:0.3 7:0.1 8:0 9:0 10:0 11:0 12:5 13:0 
-10 0:4.7 1:0.2 2:0.1955 3:0 4:0 5:0.1 6:0.1 7:0.2 8:0 9:0.1 10:0 11:0 12:4 13:0 
-10 0:3.1 1:0.2 2:0.0781 3:0.6 4:0.6 5:0.1 6:0 7:0.1 8:0 9:0 10:0 11:0 12:4 13:0 
-10 0:3.8 1:0.3 2:0.0855 3:0.3 4:0.3 5:0.1 6:0.3 7:0.1 8:0 9:0 10:0 11:0 12:4 13:1.1 
-10 0:4.9 1:0.2 2:0.0557 3:0.5 4:0.5 5:0.1 6:0.6 7:0.1 8:0.2 9:0 10:0 11:0 12:4 13:0 
-10 0:4.5 1:0.2 2:0.1335 3:0.7 4:0.7 5:0 6:0.3 7:0 8:0 9:0.1 10:0 11:0.782 12:4 13:0 
-10 0:5.2 1:0.5 2:0.1718 3:0.1 4:0.1 5:0.2 6:0.5 7:0 8:0 9:0 10:0 11:0 12:4.5 13:0 
-10 0:4.5 1:0.1 2:0.1366 3:0.3 4:0.3 5:0.1 6:0.5 7:0.1 8:0 9:0 10:0 11:0 12:4 13:0 
-10 0:5.1 1:0.2 2:0.0652 3:0.5 4:0.5 5:0.1 6:0.5 7:0.1 8:0 9:0 10:0 11:0.9885 12:4 13:0 
-10 0:2.8 1:0 2:0.1016 3:0 4:0 5:0.1 6:0.3 7:0.1 8:0 9:0 10:0 11:0 12:4 13:0 
-10 0:4.4 1:0.4 2:0.1232 3:0.5 4:0.5 5:0.1 6:0.1 7:0.1 8:0.1 9:0 10:0 11:0 12:3.8 13:0 
-10 0:4 1:0.2 2:0.1945 3:0.8 4:0.8 5:0.1 6:0.9 7:0.1 8:0 9:0 10:0 11:0 12:4 13:0.4 
-10 0:3.7 1:0.3 2:0.0197 3:0.5 4:0.5 5:0.1 6:0 7:0.1 8:0 9:0 10:0 11:0 12:4.2 13:0 
-10 0:5.8 1:0 2:0.0744 3:0.9 4:0.9 5:0.1 6:0.3 7:0.1 8:0 9:0 10:0 11:0 12:0.1 13:0 
-10 0:4 1:0.3 2:0.0386 3:0.3 4:0.3 5:0 6:0.1 7:0 8:0 9:0.1 10:7.042 11:0 12:5.5 13:0 
-10 0:3.5 1:0.2 2:0.0944 3:0.3 4:0.3 5:0.1 6:0.3 7:0.5 8:0 9:0 10:3.649 11:0 12:4 13:0 
-10 0:5.1 1:0.2 2:0.1761 3:0 4:0 5:0.1 6:0.1 7:0.1 8:0 9:0 10:0 11:0 12:5 13:0 
-10 0:3.6 1:0.2 2:0.0874 3:0 4:0 5:0.1 6:0.4 7:0.1 8:0.1 9:0 10:3.649 11:0 12:3.6 13:0 
-10 0:5.8 1:0.6 2:0.143 3:0.1 4:0.1 5:0.1 6:0.5 7:0.2 8:0 9:0.1 10:7.512 11:0 12:3.5 13:0 
-10 0:3.7 1:0.2 2:0.1415 3:0.1 4:0.1 5:0.1 6:0.6 7:0.1 8:0 9:0 10:0 11:0 12:4 13:0 
-10 0:5.4 1:0.6 2:0.0852 3:0.8 4:0.8 5:0.1 6:0.9 7:0.1 8:0 9:0 10:0 11:0 12:4 13:0 
-10 0:3.7 1:0.2 2:0.4319 3:0 4:0 5:0 6:0.1 7:0 8:0.1 9:0 10:0 11:0 12:6 13:0 
-10 0:2.8 1:0.2 2:0.0521 3:1 4:1 5:0 6:0.3 7:0 8:0 9:0 10:0 11:0 12:5.5 13:0 
-10 0:4.1 1:0.2 2:0.1223 3:0 4:0 5:0.1 6:0.1 7:0.1 8:0 9:0 10:0 11:0 12:5 13:1.1 
-10 0:3.8 1:0.4 2:0.0782 3:0.3 4:0.3 5:0.1 6:0.1 7:0.1 8:0 9:0 10:0 11:0 12:7 13:0 
-10 0:4 1:0.2 2:0.2363 3:0 4:0 5:0.1 6:0.3 7:0.1 8:0 9:0 10:0 11:0 12:4 13:0 
-10 0:5.8 1:0.2 2:0.1607 3:0.1 4:0.1 5:0.1 6:0 7:0.1 8:0 9:0 10:0 11:0 12:4.5 13:0 
-10 0:4 1:0.2 2:0.141 3:0.6 4:0.6 5:0.1 6:1 7:0.1 8:0 9:0 10:0 11:0.9885 12:6 13:0 
-10 0:4.1 1:0.2 2:0.0766 3:1 4:1 5:0.1 6:0.3 7:0.2 8:0 9:0.1 10:0 11:0 12:4 13:0 
-10 0:4.2 1:0.1 2:0.2058 3:0.1 4:0.1 5:0.1 6:0.8 7:0.1 8:0.2 9:0 10:0 11:0 12:4 13:1.6 
-10 0:3.7 1:0.6 2:0.1747 3:0.5 4:0.5 5:0.1 6:0.1 7:0.1 8:0.2 9:0 10:0 11:0 12:7.5 13:1.7 
-10 0:6.4 1:0.2 2:0.0144 3:0.1 4:0.1 5:0.1 6:0.1 7:0.1 8:0 9:0 10:0 11:0 12:4 13:0 
-10 0:3.3 1:0.2 2:0.1509 3:0.1 4:0.1 5:0.1 6:0.6 7:0.2 8:0 9:0.1 10:0 11:0 12:4 13:0 
-10 0:6.1 1:0.2 2:0.0475 3:0.1 4:0.1 5:0.1 6:0.1 7:0.1 8:0 9:0 10:0 11:0 12:4 13:0 
-10 0:4.4 1:0.2 2:0.1161 3:0.5 4:0.5 5:0.1 6:0.6 7:0.1 8:0 9:0 10:3.649 11:0 12:4 13:0 
-10 0:2.4 1:0.2 2:0.1898 3:0.5 4:0.5 5:0.1 6:0.9 7:0.2 8:0 9:0.1 10:3.649 11:0 12:4.8 13:0 
-10 0:4.2 1:0.4 2:0.0663 3:0.5 4:0.5 5:0.1 6:0.6 7:0.1 8:0 9:0 10:2.589 11:0 12:4 13:0 
-10 0:5.7 1:0.3 2:0.2887 3:0.3 4:0.3 5:0.1 6:0.5 7:0.1 8:0 9:0 10:7.512 11:0 12:4 13:0 
-10 0:4.1 1:0.2 2:0.1498 3:1 4:1 5:0.1 6:0.3 7:0.1 8:0 9:0 10:0 11:0 12:6 13:0 
-10 0:4.8 1:0.2 2:0.0993 3:0 4:0 5:0.1 6:0 7:0.1 8:0 9:0 10:3.844 11:0 12:4 13:0 
-10 0:3.1 1:0.2 2:0.1477 3:0.1 4:0.1 5:0.1 6:0.7 7:0.1 8:0 9:0 10:0 11:0 12:4.5 13:0 
-10 0:5.5 1:0.2 2:0.1621 3:0.1 4:0.1 5:0.1 6:0.5 7:0.1 8:0 9:0 10:2.193 11:0 12:4 13:0 
-10 0:3.5 1:0.2 2:0.1316 3:0.6 4:0.6 5:0.1 6:0 7:0.1 8:0 9:0 10:0 11:0 12:4 13:0 
-10 0:4.1 1:0.6 2:0.0238 3:0.5 4:0.5 5:0.1 6:0.8 7:0.1 8:0 9:0 10:0 11:0 12:5.4 13:0 
-10 0:3.4 1:0.2 2:0.097 3:0.3 4:0.3 5:0.1 6:0.1 7:0.1 8:0.2 9:0 10:3.649 11:0 12:3.5 13:2 
-10 0:3.6 1:0.1 2:0.1396 3:0 4:0 5:0.2 6:0.3 7:0 8:0.1 9:0.1 10:0 11:0 12:4 13:0 
-10 0:4.3 1:0.2 2:0.1275 3:0.5 4:0.5 5:0.1 6:0.3 7:0.2 8:0 9:0.1 10:0 11:0.9435 12:5 13:0 
-10 0:3.8 1:0.2 2:0.2014 3:0.7 4:0.7 5:0.1 6:0.6 7:0.1 8:0 9:0 10:3.649 11:0 12:4 13:0 
-10 0:3.6 1:0 2:0.081 3:0.1 4:0.1 5:0.1 6:1.1 7:0.1 8:0 9:0 10:3.649 11:0 12:4 13:0 
-10 0:3.3 1:0.2 2:0.0801 3:0 4:0 5:0.1 6:0.1 7:0.1 8:0 9:0 10:0 11:0 12:4 13:0 
-10 0:3.3 1:0.2 2:0.0756 3:0 4:0 5:0.1 6:0.1 7:0.1 8:0 9:0 10:0 11:0 12:4 13:0 
-10 0:5.9 1:0.5 2:0.2527 3:0 4:0 5:0.1 6:0.5 7:0.1 8:0 9:0 10:0 11:0 12:4 13:0 
-10 0:3.8 1:0.3 2:0.0648 3:0.1 4:0.1 5:0.1 6:0 7:0.1 8:0 9:0 10:0 11:0 12:4 13:0 
-10 0:4 1:0.2 2:0.0653 3:0.7 4:0.7 5:0.1 6:1 7:0.1 8:0 9:0 10:0 11:0 12:4 13:0 
-10 0:6.2 1:0.2 2:0.1834 3:0.3 4:0.3 5:0.1 6:0.3 7:0.1 8:0 9:0 10:0 11:0 12:4 13:0 
-10 0:4.3 1:0.2 2:0.1186 3:0 4:0 5:0.2 6:0.1 7:0 8:0 9:0 10:0 11:0.782 12:4.5 13:0 
-10 0:5.7 1:0.2 2:0.1443 3:0 4:0 5:0.2 6:0.1 7:0 8:0 9:0.1 10:0 11:0 12:4.5 13:0 
-10 0:4 1:0 2:0.125 3:0.7 4:0.7 5:0.1 6:0.9 7:0.1 8:0 9:0 10:0 11:0 12:3.8 13:0 
-10 0:4.4 1:0.2 2:0.11 3:0.5 4:0.5 5:0.1 6:0 7:0.2 8:0 9:0.1 10:0 11:1.2075 12:0.6 13:0 
-10 0:3.5 1:0.2 2:0.1495 3:0.1 4:0.1 5:0.1 6:0.4 7:0.2 8:0 9:0.1 10:0 11:0 12:4 13:0 
-10 0:3.4 1:0 2:0.0666 3:0 4:0 5:0.1 6:0.1 7:0.1 8:0 9:0 10:3.844 11:0 12:4.5 13:0.5 
-10 0:2.5 1:0.2 2:0.059 3:0 4:0 5:0.1 6:0.1 7:0.1 8:0 9:0 10:0 11:0 12:5.5 13:0 
-10 0:5.2 1:0.6 2:0.0898 3:0 4:0 5:0.1 6:0.1 7:0.1 8:0 9:0 10:0 11:0 12:5 13:0 
-10 0:5 1:0 2:0.1958 3:0 4:0 5:0.1 6:1.1 7:0.1 8:0 9:0 10:0 11:0 12:4 13:0 
-10 0:4.1 1:0.2 2:0.3025 3:0.3 4:0.3 5:0.1 6:0.1 7:0.1 8:0 9:0 10:0 11:0.9885 12:6.5 13:0 
-10 0:2.8 1:0.5 2:0.0836 3:0.5 4:0.5 5:0.1 6:0.5 7:0.2 8:0 9:0.1 10:0 11:0.9435 12:4 13:0 
-10 0:4.6 1:0.2 2:0.1279 3:0.9 4:0.9 5:0.1 6:0.1 7:0.1 8:0 9:0 10:7.512 11:0 12:6 13:0 
-10 0:3.5 1:0.2 2:0.0628 3:1.5 4:1.5 5:0.2 6:0.6 7:0 8:0 9:0 10:0 11:0 12:5 13:0 
-10 0:3.2 1:0 2:0.0625 3:0 4:0 5:0.1 6:0.1 7:0.2 8:0 9:0.1 10:0 11:0 12:4 13:0 
-10 0:6.3 1:0.6 2:0.151 3:0.1 4:0.1 5:0.1 6:0.1 7:0.1 8:0 9:0 10:0 11:0 12:4 13:0 
-10 0:3 1:0.2 2:0.0201 3:0.6 4:0.6 5:0.1 6:0.4 7:0.2 8:0 9:0.1 10:0 11:0 12:2.5 13:0 
-10 0:3.3 1:0.2 2:0.1415 3:0.3 4:0.3 5:0.1 6:0.3 7:0.1 8:0 9:0 10:0 11:0 12:5 13:0 
-10 0:4.4 1:0.2 2:0.0792 3:0.5 4:0.5 5:0.1 6:0.3 7:0.1 8:0 9:0 10:0 11:0 12:4 13:0 
-10 0:4.5 1:0.6 2:0.134 3:0.5 4:0.5 5:0.1 6:0.6 7:0.1 8:0 9:0 10:0 11:0 12:5.5 13:0 
-10 0:6 1:0.2 2:0.1664 3:0.1 4:0.1 5:0.1 6:0.6 7:0.1 8:0 9:0 10:0 11:0 12:4 13:0 
-10 0:4.2 1:0.2 2:0.1342 3:0.6 4:0.6 5:0.1 6:0.1 7:0.1 8:0.1 9:0 10:0 11:0 12:4 13:0.5 
-10 0:4.4 1:0.1 2:0.1595 3:0.1 4:0.1 5:0.1 6:0.5 7:0.2 8:0 9:0.1 10:0 11:0 12:4 13:0 
-10 0:4 1:0.2 2:0.0495 3:0.7 4:0.7 5:0.1 6:0.9 7:0.1 8:0.2 9:0 10:0 11:0 12:4 13:0 
-10 0:4.9 1:0.2 2:0.1309 3:0.3 4:0.3 5:0.1 6:0.1 7:0.1 8:0 9:0 10:0 11:0.9885 12:4.5 13:0 
-10 0:3 1:0.2 2:0.0805 3:0 4:0 5:0.1 6:1 7:0.2 8:0 9:0.1 10:0 11:0 12:1.6 13:0 
-10 0:6 1:0.2 2:0.1372 3:0.5 4:0.5 5:0 6:0.3 7:0.4 8:0 9:0 10:0 11:0 12:4 13:0 
-10 0:3.8 1:0.2 2:0.0618 3:0 4:0 5:0.1 6:0.5 7:0.1 8:0 9:0 10:7.512 11:0 12:6 13:0 
