svm_type c_svc
kernel_type rbf
gamma 0.0001
nr_class 2
total_sv 242
rho -0.53950545556637353
label 0 1
probA -6.2774385622041925e+66
probB -6.2774385622041925e+66
nr_sv 124 118
SV
10 0:6.2 1:0.4 2:0.0775 3:0.1 4:0.1 5:0.1 6:0.7 7:0.1 8:0 9:0 10:0 11:0 12:4 13:0 
10 0:5.2 1:0.2 2:0.0332 3:0.5 4:0.5 5:0.1 6:0 7:0.1 8:0 9:0 10:0 11:0 12:4 13:0 
10 0:5.8 1:0.2 2:0.1229 3:0.5 4:0.5 5:0.2 6:0.4 7:0.4 8:0 9:0.1 10:0 11:0 12:4.2 13:2.5 
10 0:2.4 1:0.2 2:0.2636 3:0 4:0 5:0 6:0.1 7:0 8:0.1 9:0 10:0 11:0 12:4 13:0 
10 0:4.3 1:0.2 2:0.0762 3:0.5 4:0.5 5:0.1 6:0.1 7:0.1 8:0 9:0 10:0 11:0 12:4 13:0 
10 0:4.7 1:0.4 2:0.3689 3:0.1 4:0.1 5:0.4 6:0 7:0.4 8:0.1 9:0.1 10:0 11:0 12:4 13:0 
10 0:4.9 1:0.2 2:0.0964 3:0.7 4:0.7 5:0.3 6:0.2 7:0.4 8:0 9:0 10:0 11:0.69 12:4.2 13:0 
10 0:2.4 1:0.4 2:0.1687 3:0.5 4:0.5 5:0.2 6:0.2 7:0 8:0.1 9:0 10:0 11:0 12:5 13:0 
9.3323099291232232 0:7.4 1:0.2 2:0.0674 3:0.5 4:0.5 5:0.2 6:0 7:0 8:0 9:0.1 10:0 11:0 12:0.9 13:0 
10 0:3.8 1:0.1 2:0.1293 3:0.1 4:0.1 5:0.1 6:0.6 7:0.1 8:0 9:0 10:0 11:0 12:5 13:0 
10 0:4.4 1:0.1 2:0.1377 3:0.3 4:0.3 5:0.1 6:0.3 7:0.1 8:0 9:0 10:0 11:0 12:4 13:0 
10 0:4.6 1:0.1 2:0.1669 3:0.5 4:0.5 5:0.2 6:0.1 7:0 8:0 9:0 10:0 11:0 12:5 13:0 
10 0:7.2 1:0.2 2:0.1395 3:0.2 4:0.2 5:0.6 6:0 7:0.4 8:0 9:0.1 10:0 11:0 12:4 13:0 
10 0:6.9 1:0.2 2:0.0925 3:0.2 4:0.2 5:0 6:0.9 7:0 8:0 9:0.1 10:0 11:0 12:4 13:0 
10 0:2.8 1:0.2 2:0.0775 3:0 4:0 5:0 6:0.7 7:0 8:0 9:0 10:0 11:0 12:5.5 13:0 
10 0:4.3 1:0.6 2:0.128 3:0.3 4:0.3 5:0.1 6:0.1 7:0.1 8:0 9:0 10:2.5065 11:0 12:4.5 13:0 
10 0:4.7 1:0.2 2:0.0594 3:0.3 4:0.3 5:0.2 6:0.1 7:0.4 8:0 9:0 10:0 11:0 12:4.2 13:0 
10 0:5.1 1:0.2 2:0.0648 3:0.1 4:0.1 5:0.1 6:0.3 7:0.1 8:0 9:0 10:0 11:0 12:4 13:0 
10 0:2.7 1:0.2 2:0.1074 3:0.9 4:0.9 5:0 6:0.3 7:0 8:0 9:0.1 10:0 11:0 12:7 13:0 
10 0:5.8 1:0.4 2:0.1926 3:0 4:0 5:0 6:0.3 7:0 8:0 9:0.1 10:0 11:0 12:4 13:0 
10 0:5.9 1:0.2 2:0.1356 3:0.1 4:0.1 5:0.1 6:0.6 7:0.1 8:0 9:0 10:0 11:0 12:4 13:0 
10 0:2.9 1:0.2 2:0.0233 3:0.5 4:0.5 5:0 6:0 7:0 8:0 9:0 10:0 11:0 12:6 13:0 
10 0:5.7 1:0.6 2:0.0706 3:0 4:0 5:0.2 6:0.3 7:0 8:0 9:0 10:0 11:0 12:8 13:0 
2.1499490441953766 0:4.2 1:0.5 2:0.0933 3:0.1 4:0.1 5:0.1 6:0.5 7:0.1 8:0 9:0 10:0 11:0 12:4 13:0 
1.5674179449170933 0:5.5 1:0.5 2:0.0714 3:0.1 4:0.1 5:0.1 6:0.5 7:0.2 8:0.2 9:0.1 10:0 11:0 12:4 13:0 
10 0:2.5 1:0.2 2:0.1361 3:0.5 4:0.5 5:0 6:1 7:0 8:0 9:0 10:1.087 11:0 12:4 13:0 
10 0:4.9 1:0.2 2:0.0927 3:0 4:0 5:0 6:0.3 7:0 8:0 9:0.1 10:0 11:0 12:4.5 13:0 
9.447970713187102 0:4.8 1:0.2 2:0.031 3:0.1 4:0.1 5:0 6:0 7:0.4 8:0.1 9:0.1 10:0 11:0 12:3.7 13:0 
10 0:5.2 1:0.2 2:0.1364 3:0.3 4:0.3 5:0.2 6:0.3 7:0 8:0 9:0.1 10:3.4245 11:0 12:6 13:0 
10 0:2.4 1:0.2 2:0.1697 3:0.1 4:0.1 5:0.1 6:0.2 7:0.1 8:0 9:0 10:0 11:0 12:5 13:0 
10 0:2.6 1:0.4 2:0.1413 3:0 4:0 5:0 6:0.3 7:0.3 8:0 9:0 10:0.5275 11:0 12:4 13:0 
10 0:3.9 1:0.2 2:0.1411 3:0.1 4:0.1 5:0 6:0.2 7:0.3 8:0 9:0 10:0 11:0 12:6 13:0 
10 0:5 1:0.1 2:0.0775 3:0.1 4:0.1 5:0.1 6:0.1 7:0.1 8:0 9:0 10:0 11:0 12:3.2 13:0 
10 0:5.2 1:0.6 2:0.0347 3:0 4:0 5:0.1 6:0.5 7:0.1 8:0 9:0 10:0 11:0 12:5.5 13:0 
10 0:4.7 1:0.2 2:0.1642 3:0.4 4:0.4 5:0.3 6:0.2 7:0.4 8:0 9:0 10:0 11:0 12:4 13:2.4 
10 0:3 1:0.2 2:0.0843 3:0.1 4:0.1 5:0 6:0.8 7:0.3 8:0.1 9:0 10:0 11:0 12:6 13:0 
10 0:3.8 1:0.1 2:0.1817 3:0.1 4:0.1 5:0.1 6:0.5 7:0.1 8:0 9:0 10:0 11:0 12:6.4 13:0 
10 0:5.8 1:0.1 2:0.0243 3:0.1 4:0.1 5:0.1 6:0.6 7:0.1 8:0 9:0 10:0 11:0 12:6 13:0 
10 0:4.7 1:0.6 2:0.1685 3:1.1 4:1.1 5:0.1 6:0.7 7:0.1 8:0 9:0 10:0 11:0 12:5 13:0.1 
10 0:6 1:0.2 2:0.1354 3:0.1 4:0.1 5:0.1 6:0.6 7:0.1 8:0 9:0 10:0 11:0 12:4 13:0 
10 0:7.1 1:0.2 2:0.0532 3:0.1 4:0.1 5:0.1 6:0.6 7:0.1 8:0 9:0 10:0 11:0 12:1.5 13:0 
10 0:5.8 1:0.5 2:0.1077 3:0.1 4:0.1 5:0.1 6:0.5 7:0.1 8:0 9:0 10:0 11:0 12:5 13:0 
10 0:2.4 1:0.2 2:0.3781 3:0.1 4:0.1 5:0 6:0.1 7:0.5 8:0 9:0 10:2.0505 11:0 12:5 13:0 
10 0:7 1:0.5 2:0.1137 3:0.4 4:0.4 5:0.6 6:0.5 7:0.4 8:0 9:0.1 10:0.5555 11:0 12:1.5 13:0 
10 0:3.5 1:0.2 2:0.1775 3:0.3 4:0.3 5:0 6:0.5 7:0 8:0 9:0 10:0 11:0 12:6 13:0 
10 0:4.3 1:0.4 2:0.132 3:0.3 4:0.3 5:0 6:0.3 7:0 8:0 9:0 10:0 11:0 12:3.8 13:0 
10 0:2.7 1:0 2:0.1694 3:0.5 4:0.5 5:0.1 6:0.7 7:0.1 8:0 9:0 10:1.7055 11:0 12:4 13:0 
10 0:2 1:0.5 2:0.0779 3:0.2 4:0.2 5:0.3 6:0.5 7:0.3 8:0.2 9:0.1 10:0 11:0.881 12:4 13:0.5 
10 0:2.4 1:0.2 2:0.1169 3:0.4 4:0.4 5:0 6:0.9 7:0 8:0 9:0 10:0 11:0.8605 12:4 13:0 
10 0:4.8 1:0.3 2:0.075 3:0.5 4:0.5 5:0.2 6:0.1 7:0 8:0 9:0 10:0 11:0 12:4 13:0 
10 0:2.2 1:0.2 2:0.1636 3:0.1 4:0.1 5:0 6:0.5 7:0.3 8:0 9:0.1 10:1.2985 11:0 12:4 13:0 
9.6903883980191008 0:3.2 1:0.2 2:0.1537 3:0.5 4:0.5 5:0.1 6:0 7:0.1 8:0 9:0 10:0 11:0 12:4 13:0.4 
10 0:5.8 1:0.1 2:0.1386 3:0.1 4:0.1 5:0.6 6:0.1 7:0 8:0 9:0 10:0 11:0 12:5 13:0 
10 0:4.5 1:0.4 2:0.0588 3:0 4:0 5:0.1 6:0.3 7:0.2 8:0 9:0.1 10:0 11:0 12:5.5 13:0 
10 0:4.1 1:0.2 2:0.1325 3:0.3 4:0.3 5:0 6:0.1 7:0 8:0 9:0 10:0 11:0 12:3.5 13:2.3 
10 0:4.2 1:0.2 2:0.1782 3:0.5 4:0.5 5:0.1 6:0.3 7:0.1 8:0 9:0 10:0 11:0 12:5 13:0 
10 0:3.6 1:0.4 2:0.0753 3:0 4:0 5:0 6:0.3 7:0 8:0 9:0 10:0 11:0 12:5 13:0 
0.30878381488577672 0:3.1 1:0.2 2:0.1654 3:0 4:0 5:0.6 6:0.5 7:0.4 8:0 9:0.1 10:0 11:0.69 12:4 13:0.1 
6.1680870994042003 0:4.5 1:0.2 2:0.1647 3:0.5 4:0.5 5:0 6:0.5 7:0 8:0.1 9:0 10:0 11:0 12:4 13:0 
10 0:6 1:0.2 2:0.1207 3:0.1 4:0.1 5:0.1 6:0.6 7:0.1 8:0 9:0 10:0 11:0 12:3.5 13:0 
10 0:4 1:0.2 2:0.0985 3:0.7 4:0.7 5:0.1 6:1 7:0.1 8:0 9:0 10:2.193 11:0 12:4 13:0 
10 0:4.1 1:0.2 2:0.0855 3:0.1 4:0.1 5:0.1 6:0.6 7:0.1 8:0 9:0 10:0 11:1.0255 12:6 13:0 
10 0:2.9 1:0.2 2:0.1843 3:0 4:0 5:0 6:0.3 7:0 8:0 9:0 10:2.325 11:0 12:4 13:0 
10 0:5.5 1:0.2 2:0.1176 3:0.5 4:0.5 5:0.2 6:0 7:0 8:0.2 9:0.1 10:0 11:0 12:4 13:0 
10 0:2.6 1:0.2 2:0.1234 3:0.7 4:0.7 5:0.1 6:0 7:0.1 8:0 9:0 10:0 11:1.1885 12:4.5 13:0 
10 0:3.5 1:0.2 2:0.1595 3:0.5 4:0.5 5:0.1 6:0.6 7:0.1 8:0 9:0 10:1.2035 11:0 12:4 13:0 
10 0:4.3 1:0 2:0.1772 3:0 4:0 5:0.1 6:0.3 7:0.1 8:0 9:0 10:0 11:0 12:5 13:0 
10 0:5.6 1:0.2 2:0.106 3:0.1 4:0.1 5:0.6 6:0.4 7:0.4 8:0.1 9:0.1 10:0.297 11:0 12:2 13:0 
10 0:5.5 1:0.1 2:0.1365 3:0.1 4:0.1 5:0.1 6:0.7 7:0.1 8:0 9:0 10:0 11:0 12:7.2 13:0 
0.89835184404752511 0:2.9 1:0.2 2:0.1814 3:0.2 4:0.2 5:0 6:0.6 7:0.3 8:0.1 9:0 10:0 11:0 12:4 13:2.1 
10 0:4.6 1:0 2:0.1311 3:0 4:0 5:0.1 6:0.3 7:0.1 8:0 9:0 10:0 11:0 12:3.7 13:0 
2.1524254192021002 0:5.8 1:0.1 2:0.0594 3:1.2 4:1.2 5:0.1 6:0.6 7:0.1 8:0 9:0 10:0 11:0 12:4 13:0 
10 0:3.9 1:0.2 2:0.0327 3:0.1 4:0.1 5:0 6:0.2 7:0 8:0 9:0 10:0 11:0 12:4 13:0 
10 0:4.7 1:0.1 2:0.0722 3:0 4:0 5:0.2 6:0.5 7:0 8:0 9:0.1 10:0 11:0 12:5 13:0 
10 0:3.1 1:0.2 2:0.1658 3:0.1 4:0.1 5:0.2 6:0.6 7:0.4 8:0 9:0 10:0 11:0 12:5.5 13:0 
10 0:5.5 1:0.2 2:0.0791 3:0.1 4:0.1 5:0 6:0.5 7:0 8:0 9:0 10:0 11:0 12:3.8 13:0 
10 0:2.8 1:0.2 2:0.1336 3:0.7 4:0.7 5:0 6:0.9 7:0 8:0 9:0.1 10:0 11:0.8345 12:4.2 13:0 
10 0:4.1 1:0.1 2:0.0337 3:0.5 4:0.5 5:0.1 6:0.1 7:0.1 8:0 9:0 10:0 11:0 12:6 13:0 
10 0:6.1 1:0.1 2:0.0249 3:0.1 4:0.1 5:0.1 6:0.8 7:0.1 8:0 9:0 10:0 11:1.176 12:5 13:0 
10 0:2.1 1:0.5 2:0.1017 3:0.1 4:0.1 5:0 6:0.5 7:0 8:0 9:0.1 10:0.5275 11:0 12:4 13:0 
10 0:2.3 1:0.2 2:0.1433 3:0.1 4:0.1 5:0 6:0.5 7:0 8:0 9:0.1 10:1.2315 11:0 12:4 13:0 
10 0:6.1 1:0.2 2:0.0875 3:0.1 4:0.1 5:0.1 6:0.9 7:0.1 8:0 9:0 10:0 11:0 12:4 13:0 
10 0:2.4 1:0.2 2:0.072 3:0.1 4:0.1 5:0 6:0.4 7:0.3 8:0.1 9:0 10:0 11:0.8605 12:3 13:0 
0.74916461200745943 0:6.8 1:0.1 2:0.2145 3:0.2 4:0.2 5:0 6:0.8 7:0.4 8:0 9:0 10:0 11:0 12:2 13:0 
10 0:4.3 1:0.2 2:0.0639 3:0.5 4:0.5 5:0.2 6:0.1 7:0 8:0 9:0 10:0 11:0 12:4.5 13:0 
10 0:4.7 1:0.1 2:0.0633 3:0.1 4:0.1 5:0.1 6:0.4 7:0.2 8:0 9:0.1 10:0 11:0 12:7.5 13:1.3 
10 0:4.1 1:0.2 2:0.1728 3:0.7 4:0.7 5:0 6:0.3 7:0 8:0 9:0.1 10:0 11:0 12:6 13:0 
10 0:6.4 1:0.2 2:0.1154 3:0.1 4:0.1 5:0.1 6:0.7 7:0.1 8:0 9:0 10:0 11:0 12:4.5 13:0 
10 0:4.8 1:0.2 2:0.1135 3:0.7 4:0.7 5:0 6:0 7:0.4 8:0 9:0 10:0 11:0 12:4 13:0 
10 0:3.2 1:0.2 2:0.0749 3:0.1 4:0.1 5:0.1 6:0.1 7:0.1 8:0 9:0 10:0 11:0.836 12:6 13:0 
10 0:7.3 1:0.1 2:0.1205 3:0.1 4:0.1 5:0.1 6:0.1 7:0.1 8:0 9:0 10:0 11:0 12:4 13:0 
10 0:2.5 1:0.2 2:0.3391 3:0.1 4:0.1 5:0.2 6:0 7:0 8:0 9:0 10:0 11:0 12:4 13:0 
10 0:2.4 1:0.2 2:0.2183 3:0 4:0 5:0 6:0.1 7:0 8:0 9:0 10:0 11:0 12:5 13:0 
10 0:6.2 1:0.4 2:0.1978 3:0 4:0 5:0.6 6:0.3 7:0 8:0 9:0.1 10:0 11:0 12:4.8 13:0 
10 0:4.6 1:0.1 2:0.1205 3:0.1 4:0.1 5:0.1 6:0.5 7:0.1 8:0 9:0 10:0 11:0 12:5 13:0 
10 0:4.8 1:0.2 2:0.1938 3:0.2 4:0.2 5:0.1 6:0.1 7:0.1 8:0 9:0 10:0 11:0 12:5 13:0 
10 0:2.8 1:0.6 2:0.0969 3:0.5 4:0.5 5:0.1 6:0.1 7:0.1 8:0 9:0 10:0 11:0 12:7 13:0 
10 0:2.7 1:0.2 2:0.0654 3:0.1 4:0.1 5:0.1 6:0.6 7:0.1 8:0 9:0 10:0 11:0 12:7 13:0 
7.5351511810110514 0:3.3 1:0.2 2:0.1756 3:0.5 4:0.5 5:0.1 6:0.6 7:0.2 8:0 9:0.1 10:0 11:0 12:6 13:0 
10 0:3.3 1:0.6 2:0.1058 3:0.5 4:0.5 5:0.1 6:0.6 7:0.1 8:0 9:0 10:0 11:0 12:6 13:0.5 
10 0:5.4 1:0.1 2:0.2761 3:0.1 4:0.1 5:0.1 6:0.5 7:0.1 8:0.1 9:0 10:0 11:0 12:4 13:0 
10 0:2.9 1:0.2 2:0.1203 3:0.7 4:0.7 5:0.2 6:1 7:0 8:0 9:0.1 10:1.087 11:0 12:4.5 13:0 
10 0:3.5 1:0.1 2:0.253 3:0 4:0 5:0 6:0.1 7:0 8:0 9:0 10:0 11:0 12:4 13:0 
10 0:4.7 1:0.2 2:0.2323 3:0.5 4:0.5 5:0.2 6:0.5 7:0.3 8:0 9:0 10:0 11:0 12:5.5 13:0 
10 0:6.3 1:0.4 2:0.0196 3:0.8 4:0.8 5:0.1 6:0.4 7:0.1 8:0 9:0 10:0 11:0 12:5.5 13:0 
10 0:3.5 1:0.2 2:0.1035 3:0.1 4:0.1 5:0 6:0.5 7:0 8:0 9:0 10:0 11:0 12:4.5 13:0 
10 0:5.3 1:0.1 2:0.2112 3:1.2 4:1.2 5:0.1 6:0.8 7:0.1 8:0 9:0 10:0 11:0 12:6 13:0 
10 0:4.3 1:0.2 2:0.1079 3:0.3 4:0.3 5:0.1 6:0.3 7:0.2 8:0.2 9:0.1 10:0 11:0 12:5 13:0.5 
10 0:8.1 1:0.1 2:0.0924 3:0.1 4:0.1 5:0.1 6:0.1 7:0.1 8:0 9:0 10:0 11:0 12:3 13:0 
10 0:4.2 1:0.2 2:0.11 3:0.1 4:0.1 5:0.2 6:0.9 7:0 8:0 9:0 10:0 11:0 12:5.5 13:0 
10 0:5.1 1:0.4 2:0.1642 3:1.4 4:1.4 5:0.1 6:0.4 7:0.1 8:0 9:0 10:0 11:0 12:4 13:0 
10 0:5.1 1:0.2 2:0.0906 3:0.5 4:0.5 5:0.1 6:0.1 7:0.1 8:0 9:0 10:0 11:0 12:4 13:0 
10 0:3.2 1:0.2 2:0.1958 3:0 4:0 5:0.1 6:0.6 7:0.1 8:0 9:0 10:0 11:0 12:7 13:0.4 
10 0:4.4 1:0.2 2:0.0219 3:0.1 4:0.1 5:0 6:0.7 7:0.4 8:0 9:0 10:0 11:0 12:7 13:0 
10 0:2.1 1:0.2 2:0.1738 3:0.5 4:0.5 5:0 6:0.1 7:0 8:0 9:0.1 10:2.0505 11:0 12:4 13:0 
10 0:7.8 1:0.2 2:0.1243 3:0.1 4:0.1 5:0.6 6:0.4 7:0 8:0.1 9:0.1 10:1.482 11:0 12:4 13:0 
10 0:4.9 1:0.2 2:0.0837 3:0.1 4:0.1 5:0 6:0 7:0 8:0 9:0.1 10:0 11:0 12:4.4 13:0 
10 0:6 1:0.1 2:0.1049 3:0.1 4:0.1 5:0 6:0.8 7:0.4 8:0 9:0 10:0 11:0 12:4.2 13:0 
10 0:4.7 1:0.2 2:0.2282 3:0.1 4:0.1 5:0.2 6:0 7:0.4 8:0 9:0.1 10:0 11:0 12:4 13:0 
10 0:5.1 1:0.2 2:0.083 3:0.5 4:0.5 5:0.6 6:0.3 7:0 8:0 9:0.1 10:1.6625 11:0 12:4 13:0 
10 0:4.6 1:0.2 2:0.1273 3:0 4:0 5:0 6:0.5 7:0 8:0 9:0 10:0 11:0.752 12:4 13:0 
10 0:3.5 1:0.2 2:0.1971 3:0.1 4:0.1 5:0 6:0.1 7:0 8:0 9:0 10:0 11:0 12:4.5 13:0 
10 0:4.5 1:0.2 2:0.0607 3:0.3 4:0.3 5:0.2 6:0.3 7:0 8:0 9:0 10:0 11:0 12:4.5 13:0 
10 0:4 1:0.2 2:0.056 3:0.5 4:0.5 5:0.1 6:0.9 7:0.1 8:0 9:0 10:1.29 11:0 12:4 13:0 
-10 0:3.4 1:0.2 2:0.2293 3:0.5 4:0.5 5:0.1 6:0.3 7:0.1 8:0 9:0 10:0 11:0 12:5 13:0 
-10 0:3.4 1:0.2 2:0.0734 3:0 4:0 5:0.1 6:0.3 7:0.1 8:0 9:0 10:0 11:0 12:5 13:0 
-10 0:3.8 1:0.6 2:0.0673 3:0 4:0 5:0.1 6:0.1 7:0.1 8:0 9:0 10:7.512 11:0 12:8 13:0 
-10 0:5 1:0.2 2:0.1333 3:0.1 4:0.1 5:0.1 6:0.1 7:0.1 8:0 9:0 10:3.844 11:0 12:5 13:0 
-10 0:3.7 1:0.4 2:0.1263 3:0.5 4:0.5 5:0.1 6:1 7:0.1 8:0 9:0 10:0 11:0 12:4.5 13:0 
-10 0:4.4 1:0.2 2:0.1208 3:0.5 4:0.5 5:0.2 6:0.9 7:0.4 8:0 9:0 10:0 11:0 12:5.8 13:0 
-10 0:4.2 1:0.2 2:0.1502 3:0 4:0 5:0.1 6:0.1 7:0.1 8:0 9:0 10:0 11:0 12:4 13:0 
-10 0:4.1 1:0.2 2:0.0691 3:0.6 4:0.6 5:0.1 6:0.1 7:0.2 8:0 9:0.1 10:0 11:0 12:5 13:0 
-10 0:6.7 1:0.2 2:0.1573 3:1 4:1 5:0.1 6:0.3 7:0.1 8:0 9:0 10:10.0255 11:0 12:4.8 13:0 
-10 0:3.3 1:0.3 2:0.217 3:0.7 4:0.7 5:0.2 6:0.6 7:0.4 8:0.1 9:0.1 10:0 11:0 12:4 13:0 
-10 0:5.4 1:0.2 2:0.1446 3:0 4:0 5:0.1 6:0.5 7:0.1 8:0 9:0 10:0 11:0 12:3.5 13:0 
-10 0:4.7 1:0.2 2:0.1793 3:0.5 4:0.5 5:0.1 6:0.3 7:0.1 8:0 9:0 10:0 11:0 12:5 13:0 
-10 0:5.2 1:0.1 2:0.227 3:0 4:0 5:0.1 6:0.3 7:0.1 8:0 9:0 10:0 11:0 12:6 13:0 
-10 0:3.7 1:0.2 2:0.0153 3:0.7 4:0.7 5:0.1 6:0.6 7:0.1 8:0 9:0 10:0 11:0.9885 12:4 13:0 
-10 0:2.9 1:0.2 2:0.2378 3:0 4:0 5:0.1 6:0.1 7:0.2 8:0 9:0 10:0 11:0 12:4 13:0 
-10 0:6.5 1:0.5 2:0.1329 3:0.5 4:0.5 5:0.1 6:0.5 7:0.1 8:0 9:0 10:0 11:0 12:3 13:0 
-10 0:5.7 1:0.2 2:0.0475 3:0.1 4:0.1 5:0.1 6:0.5 7:0.1 8:0 9:0 10:0 11:0 12:4 13:0 
-10 0:5.2 1:0.2 2:0.0175 3:1.2 4:1.2 5:0.1 6:0.6 7:0.1 8:0 9:0 10:0 11:0.9435 12:4.7 13:0 
-10 0:6 1:0.2 2:0.0267 3:0.8 4:0.8 5:0 6:0.7 7:0 8:0 9:0 10:0 11:0 12:4.8 13:0 
-10 0:3.1 1:0.2 2:0.1144 3:0 4:0 5:0.1 6:0.3 7:0.1 8:0 9:0 10:3.844 11:0 12:4 13:0.9 
-10 0:4.2 1:0.1 2:0.1455 3:1 4:1 5:0.1 6:0.3 7:0.1 8:0 9:0 10:0 11:0.951 12:5 13:0 
-10 0:5.1 1:0.2 2:0.2785 3:0.3 4:0.3 5:0.1 6:0.6 7:0.1 8:0 9:0 10:0 11:0 12:4 13:0 
-10 0:4.6 1:0.2 2:0.0695 3:1 4:1 5:0.1 6:0.3 7:0.1 8:0 9:0 10:7.512 11:0 12:4.5 13:0 
-10 0:3.4 1:0.2 2:0.1043 3:0.1 4:0.1 5:0.1 6:0.5 7:0.1 8:0 9:0 10:0 11:0 12:4.5 13:0 
-10 0:3.3 1:0.2 2:0.1395 3:0.5 4:0.5 5:0.1 6:0.1 7:0.1 8:0 9:0 10:0 11:0 12:4 13:0 
-10 0:4.9 1:0.2 2:0.1821 3:0 4:0 5:0.1 6:0.5 7:0.1 8:0 9:0 10:0 11:0 12:2.6 13:0 
-10 0:4.3 1:0.2 2:0.1048 3:0.5 4:0.5 5:0.1 6:0.6 7:0.1 8:0 9:0 10:7.512 11:0 12:6 13:0 
-10 0:3 1:0.2 2:0.0704 3:0 4:0 5:0.1 6:0 7:0.2 8:0.1 9:0.1 10:0 11:0 12:4 13:0 
-10 0:3.3 1:0.2 2:0.1193 3:0 4:0 5:0.1 6:0.1 7:0.1 8:0 9:0 10:7.512 11:0 12:6 13:0 
-10 0:5.2 1:0.1 2:0.1966 3:0.9 4:0.9 5:0.1 6:0.3 7:0.1 8:0 9:0 10:0 11:0 12:6 13:0 
-10 0:3.6 1:0.2 2:0.1281 3:0.5 4:0.5 5:0.1 6:0.5 7:0.1 8:0 9:0 10:2.589 11:0 12:5 13:0 
-10 0:5 1:0.6 2:0.1327 3:0.9 4:0.9 5:0.4 6:0.3 7:0 8:0 9:0 10:0 11:0 12:4 13:0 
-10 0:3 1:0 2:0.1151 3:0 4:0 5:0.1 6:1 7:0.1 8:0 9:0 10:0 11:0 12:4 13:0 
-10 0:3.5 1:0.2 2:0.1986 3:0.9 4:0.9 5:0.1 6:0.3 7:0.1 8:0.2 9:0 10:0 11:0 12:4 13:2 
-10 0:4.3 1:0.2 2:0.1185 3:0.1 4:0.1 5:0.1 6:0.9 7:0.1 8:0 9:0 10:0 11:0 12:4 13:0 
-10 0:4.4 1:0.1 2:0.2276 3:1.5 4:1.5 5:0.1 6:0.2 7:0.1 8:0.1 9:0 10:0 11:0 12:4 13:0 
-10 0:4.2 1:0.2 2:0.2317 3:0.6 4:0.6 5:0.2 6:0.3 7:0.4 8:0 9:0.1 10:4.307 11:0 12:4 13:0 
-10 0:4.2 1:0.2 2:0.1678 3:0.1 4:0.1 5:0.1 6:0.6 7:0.1 8:0.1 9:0 10:0 11:0 12:4 13:0 
-10 0:3.3 1:0.2 2:0.124 3:0 4:0 5:0.1 6:0.1 7:0.1 8:0 9:0 10:0 11:0 12:4 13:0 
-10 0:5 1:0.6 2:0.149 3:0.1 4:0.1 5:0.1 6:0.5 7:0.1 8:0 9:0 10:0 11:0 12:5 13:0 
-10 0:3.7 1:0.2 2:0.1094 3:0.7 4:0.7 5:0.1 6:0.6 7:0.1 8:0 9:0 10:0 11:0 12:4 13:2.2 
-10 0:3.4 1:0.1 2:0.1292 3:0.1 4:0.1 5:0.1 6:0.6 7:0.1 8:0 9:0 10:0 11:0 12:4 13:0 
-10 0:3.5 1:0.2 2:0.1383 3:0.3 4:0.3 5:0 6:0.3 7:0 8:0 9:0 10:0 11:0 12:6 13:0 
-10 0:3.1 1:0.2 2:0.0806 3:0.3 4:0.3 5:0.1 6:1 7:0.1 8:0 9:0 10:0 11:0.951 12:4 13:0 
-10 0:4.4 1:0.2 2:0.0428 3:0 4:0 5:0.2 6:0.1 7:0.3 8:0 9:0.1 10:0 11:0 12:5 13:0 
-10 0:3.4 1:0.2 2:0.1477 3:0 4:0 5:0.1 6:0.1 7:0.1 8:0 9:0 10:0 11:0 12:4.5 13:0 
-10 0:5 1:0.4 2:0.0343 3:0.1 4:0.1 5:0.1 6:0.1 7:0.1 8:0 9:0 10:0 11:0 12:4.2 13:0 
-10 0:4.2 1:0.2 2:0.1101 3:0 4:0 5:0.1 6:0.1 7:0.1 8:0 9:0 10:3.649 11:0 12:4.5 13:0 
-10 0:4.3 1:0.2 2:0.1208 3:0 4:0 5:0 6:0.3 7:0 8:0 9:0 10:0 11:0 12:4 13:0.5 
-10 0:6.5 1:0.1 2:0.0805 3:0.2 4:0.2 5:0.1 6:0.1 7:0.1 8:0 9:0 10:4.693 11:0 12:5.9 13:0.5 
-10 0:4.2 1:0.2 2:0.1901 3:0 4:0 5:0.1 6:1 7:0.1 8:0 9:0 10:0 11:0 12:4 13:0 
-10 0:4.2 1:0.2 2:0.1028 3:0.3 4:0.3 5:0 6:0.1 7:0 8:0 9:0.1 10:7.042 11:0 12:5 13:0 
-10 0:4.2 1:0.4 2:0.0858 3:0 4:0 5:0.1 6:0.3 7:0.2 8:0 9:0.1 10:0 11:0 12:4 13:0 
-10 0:5.5 1:0.2 2:0.1341 3:0.1 4:0.1 5:0.1 6:0.7 7:0.1 8:0 9:0 10:3.844 11:0 12:4 13:0 
-10 0:2.9 1:0 2:0.2418 3:0 4:0 5:0.1 6:0.1 7:0.1 8:0 9:0 10:3.844 11:0 12:4 13:0 
-10 0:5.4 1:0.2 2:0.1941 3:0.1 4:0.1 5:0.1 6:0.7 7:0.1 8:0 9:0 10:0 11:0 12:4 13:0 
-10 0:4.6 1:0.3 2:0.1137 3:0.1 4:0.1 5:0.1 6:0 7:0.2 8:0 9:0.1 10:0 11:0 12:4 13:0 
-10 0:5.9 1:0.4 2:0.2856 3:0.1 4:0.1 5:0.1 6:0 7:0.2 8:0 9:0.1 10:0 11:0 12:3.8 13:0 
-10 0:5.3 1:0.6 2:0.0871 3:0.9 4:0.9 5:0.1 6:0.1 7:0.1 8:0 9:0 10:0 11:0 12:7 13:0 
-10 0:5.1 1:0.2 2:0.2627 3:0 4:0 5:0 6:0.5 7:0 8:0 9:0 10:0 11:0 12:5.5 13:0 
-10 0:3.7 1:0.2 2:0.1904 3:0.7 4:0.7 5:0.1 6:1 7:0.2 8:0 9:0.1 10:0 11:0 12:2.4 13:0 
-10 0:4.3 1:0.2 2:0.1541 3:0 4:0 5:0.1 6:0.5 7:0.1 8:0 9:0 10:0 11:0 12:5 13:0 
-10 0:4 1:0.2 2:0.0888 3:0.7 4:0.7 5:0.1 6:0.1 7:0.1 8:0 9:0 10:0 11:0 12:5 13:0 
-10 0:4 1:0.2 2:0.1614 3:0 4:0 5:0 6:0.5 7:0 8:0.4 9:0.1 10:0 11:0 12:5.5 13:0 
-10 0:4.8 1:0.2 2:0.0693 3:0.7 4:0.7 5:0.1 6:1 7:0.1 8:0 9:0 10:0 11:0 12:5 13:0 
-10 0:6 1:0.2 2:0.0214 3:0.1 4:0.1 5:0.1 6:0.7 7:0.1 8:0 9:0 10:0 11:0 12:6 13:0 
-10 0:4.6 1:0.2 2:0.0616 3:0.3 4:0.3 5:0 6:1 7:0 8:0 9:0 10:0 11:0 12:3.5 13:0 
-10 0:4.3 1:0.2 2:0.1863 3:0 4:0 5:0.1 6:0.1 7:0.1 8:0 9:0 10:0 11:0.951 12:4 13:0.8 
-10 0:3.2 1:0.2 2:0.1569 3:0.1 4:0.1 5:0.1 6:0.6 7:0.1 8:0 9:0 10:2.589 11:0 12:4.8 13:0 
-10 0:3.3 1:0.2 2:0.1154 3:0 4:0 5:0.1 6:0.3 7:0.1 8:0 9:0 10:1.5515 11:0 12:4.7 13:0 
-10 0:6.4 1:0.2 2:0.1836 3:0 4:0 5:0.1 6:0.3 7:0.1 8:0 9:0 10:0 11:0 12:4 13:0 
-10 0:5.6 1:0.2 2:0.1267 3:0.5 4:0.5 5:0.1 6:0.6 7:0.1 8:0 9:0 10:0 11:0 12:5 13:0 
-10 0:4.7 1:0.2 2:0.1299 3:0.1 4:0.1 5:0.1 6:0.7 7:0.1 8:0 9:0 10:0 11:0 12:5 13:0 
-10 0:5.7 1:0.2 2:0.0233 3:0.1 4:0.1 5:0.6 6:0.7 7:0.4 8:0 9:0 10:0 11:0.3265 12:4.2 13:0 
-10 0:5.3 1:0.2 2:0.1319 3:0.5 4:0.5 5:0.1 6:0 7:0.2 8:0 9:0.1 10:2.193 11:0 12:4 13:0 
-10 0:4.1 1:0.2 2:0.1226 3:0 4:0 5:0.2 6:0.3 7:0 8:0 9:0.1 10:0 11:0 12:5 13:0 
-10 0:5.1 1:0.2 2:0.0997 3:0.5 4:0.5 5:0.1 6:0.3 7:0.1 8:0 9:0 10:0 11:0 12:4 13:0 
-10 0:5.5 1:0.2 2:0.2632 3:0.1 4:0.1 5:0.1 6:0.6 7:0.1 8:0 9:0 10:2.193 11:0 12:4 13:0 
-10 0:3.7 1:0.2 2:0.0588 3:0 4:0 5:0.1 6:0.1 7:0.1 8:0 9:0 10:0 11:0 12:4.5 13:0 
-10 0:6.1 1:0.2 2:0.0678 3:0.3 4:0.3 5:0.6 6:0.3 7:0 8:0 9:0.1 10:0 11:0 12:4 13:0 
-10 0:4.8 1:0 2:0.2227 3:0.9 4:0.9 5:0.2 6:0.3 7:0.3 8:0 9:0 10:0 11:0 12:5 13:0 
-10 0:5.9 1:0.2 2:0.0966 3:0.1 4:0.1 5:0.1 6:0.4 7:0.1 8:0 9:0 10:0 11:0 12:4 13:0 
-10 0:4.9 1:0.2 2:0.0262 3:0 4:0 5:0 6:0.1 7:0 8:0 9:0.1 10:0 11:0 12:5.6 13:0 
-10 0:3.9 1:0.2 2:0.1197 3:0.5 4:0.5 5:0.1 6:0.8 7:0.1 8:0 9:0 10:0 11:0 12:5 13:0 
-10 0:4.4 1:0.2 2:0.0327 3:0 4:0 5:0.1 6:0.1 7:0.1 8:0 9:0 10:0 11:0 12:4 13:0 
-10 0:7.1 1:0.1 2:0.0974 3:0.3 4:0.3 5:0.1 6:0.5 7:0.1 8:0 9:0 10:5.3025 11:0 12:4 13:0 
-10 0:5.1 1:0.1 2:0.1092 3:0 4:0 5:0.1 6:0.5 7:0.1 8:0.2 9:0 10:0 11:1.2075 12:4 13:2.7 
-10 0:4.1 1:0.2 2:0.1322 3:0 4:0 5:0.1 6:0.1 7:0.1 8:0 9:0 10:0 11:0 12:6 13:0 
-10 0:3.9 1:0.2 2:0.0799 3:0.1 4:0.1 5:0.1 6:0.7 7:0.1 8:0 9:0 10:0 11:0 12:4 13:0 
-10 0:3.2 1:0.2 2:0.1836 3:0 4:0 5:0.1 6:0 7:0.5 8:0 9:0 10:0 11:0 12:4 13:1.2 
-10 0:3.8 1:0.2 2:0.0647 3:0 4:0 5:0.1 6:0.5 7:0.1 8:0 9:0 10:0 11:0 12:5 13:0 
-10 0:3.7 1:0.2 2:0.1248 3:0 4:0 5:0.1 6:0.3 7:0.1 8:0 9:0 10:3.844 11:0 12:5 13:0 
-10 0:4.2 1:0.1 2:0.1204 3:1 4:1 5:0.1 6:0.8 7:0.1 8:0 9:0 10:0 11:0 12:6.5 13:0 
-10 0:3 1:0.2 2:0.0594 3:0 4:0 5:0.1 6:0.1 7:0.1 8:0 9:0 10:0 11:0 12:4.5 13:0 
-10 0:3.9 1:0.2 2:0.1372 3:0 4:0 5:0.1 6:0.1 7:0.1 8:0 9:0 10:7.512 11:0 12:4.5 13:0 
-10 0:6.7 1:0.6 2:0.0522 3:0.1 4:0.1 5:0.1 6:0.1 7:0.1 8:0.2 9:0 10:0 11:0 12:4 13:0 
-10 0:5.1 1:0.2 2:0.0937 3:0.3 4:0.3 5:0.1 6:0.1 7:0.1 8:0 9:0 10:0 11:0 12:6 13:0 
-10 0:3.7 1:0.2 2:0.127 3:0.2 4:0.2 5:0.1 6:0.9 7:0.1 8:0 9:0 10:1.5515 11:0 12:4.4 13:0 
-10 0:3.7 1:0.2 2:0.1201 3:0.1 4:0.1 5:0.1 6:0.6 7:0.1 8:0 9:0 10:0 11:0 12:9.9 13:0 
-10 0:4.1 1:0.2 2:0.0898 3:1 4:1 5:0.1 6:0.3 7:0.1 8:0 9:0 10:0 11:1.2075 12:4 13:0 
-10 0:3.1 1:0.2 2:0.0758 3:0 4:0 5:0 6:0.5 7:0 8:0 9:0 10:0 11:0 12:4 13:0 
-10 0:3.8 1:0.6 2:0.1334 3:0.1 4:0.1 5:0.1 6:0.1 7:0.1 8:0 9:0 10:0 11:0 12:4 13:0 
-10 0:3.6 1:0.6 2:0.0735 3:0 4:0 5:0.1 6:0.1 7:0.2 8:0 9:0.1 10:0 11:0.9885 12:4.5 13:0 
-10 0:4.4 1:0 2:0.1186 3:0.1 4:0.1 5:0.1 6:0.3 7:0.2 8:0 9:0.1 10:0 11:0 12:4 13:0 
-10 0:4.3 1:0.2 2:0.1542 3:0.3 4:0.3 5:0.1 6:0.1 7:0.1 8:0 9:0 10:0 11:0 12:4.3 13:0 
-10 0:4.4 1:0.6 2:0.2706 3:0.5 4:0.5 5:0.1 6:0.5 7:0.1 8:0 9:0 10:0 11:0 12:7 13:0 
-10 0:3.3 1:0.1 2:0.0838 3:0 4:0 5:0.1 6:0.1 7:0.1 8:0 9:0 10:0 11:0 12:4 13:0 
-10 0:4.2 1:0.2 2:0.1197 3:0.6 4:0.6 5:0.1 6:0.1 7:0.1 8:0 9:0 10:0 11:0 12:4 13:0 
-10 0:3.5 1:0.6 2:0.2505 3:0.5 4:0.5 5:0.1 6:0.5 7:0.1 8:0 9:0 10:0 11:0 12:6 13:0 
-10 0:4.8 1:0.2 2:0.112 3:0 4:0 5:0.1 6:0.1 7:0.1 8:0.2 9:0 10:0 11:0 12:4 13:0.3 
-10 0:3.4 1:0.2 2:0.1372 3:0.1 4:0.1 5:0.1 6:0.6 7:0.1 8:0 9:0 10:0 11:0 12:3.5 13:0 
-10 0:6.7 1:0.2 2:0.0715 3:0 4:0 5:0.6 6:0.1 7:0 8:0 9:0 10:0 11:1.196 12:4 13:0 
-10 0:4 1:0 2:0.1282 3:0.3 4:0.3 5:0.1 6:0.3 7:0.1 8:0 9:0 10:0 11:0 12:3.5 13:0 
-10 0:4.5 1:0.4 2:0.2162 3:0.1 4:0.1 5:0.6 6:1.1 7:0 8:0 9:0 10:0 11:0 12:4 13:0 
-10 0:4.7 1:0.2 2:0.131 3:0.1 4:0.1 5:0.1 6:0 7:0.1 8:0 9:0 10:0 11:0 12:5 13:0 
-10 0:5.6 1:0.2 2:0.0766 3:0.1 4:0.1 5:0.1 6:0.1 7:0.1 8:0 9:0 10:0 11:0 12:5.5 13:0 
-10 0:4.8 1:0.3 2:0.0225 3:0 4:0 5:0.2 6:0.1 7:0.4 8:0 9:0 10:0 11:0 12:5.8 13:0 
-10 0:3.9 1:0.6 2:0.2241 3:0 4:0 5:0.1 6:0.1 7:0.1 8:0 9:0 10:7.512 11:0 12:5 13:0 
