svm_type c_svc
kernel_type rbf
gamma 0.0001
nr_class 2
total_sv 275
rho -0.54972173852822992
label 0 1
probA -6.2774385622041925e+66
probB -6.2774385622041925e+66
nr_sv 139 136
SV
10 0:2.3 1:0.4 2:0.0783 3:0 4:0 5:0 6:0.3 7:0.3 8:0 9:0.1 10:0 11:0 12:6 13:0 
10 0:5.8 1:0.2 2:0.2418 3:0 4:0 5:0.1 6:0 7:0.1 8:0 9:0 10:0 11:0 12:4 13:0 
10 0:6.6 1:0.2 2:0.1844 3:0.1 4:0.1 5:0.4 6:0.9 7:0 8:0.1 9:0 10:0 11:0 12:4 13:0 
10 0:5.6 1:0.2 2:0.1149 3:0.1 4:0.1 5:0.1 6:0.4 7:0.1 8:0 9:0 10:0 11:0 12:5 13:2.9 
2.505527797817805 0:3 1:0.2 2:0.1369 3:0 4:0 5:0 6:0.3 7:0 8:0.1 9:0 10:0 11:0 12:4.5 13:0.5 
10 0:4.8 1:0.6 2:0.094 3:0.3 4:0.3 5:0.3 6:0.5 7:0 8:0.2 9:0 10:0 11:0 12:5 13:0.3 
10 0:2 1:0 2:0.1518 3:0.6 4:0.6 5:0 6:0.4 7:0.3 8:0 9:0 10:0 11:0.8595 12:2 13:0 
10 0:1.9 1:0.5 2:0.1641 3:0.1 4:0.1 5:0 6:0.5 7:0.4 8:0 9:0 10:0 11:1.0005 12:4 13:0 
10 0:6.6 1:0.6 2:0.1024 3:0.4 4:0.4 5:0.1 6:0.1 7:0.1 8:0 9:0 10:0.7045 11:0 12:0.1 13:0.5 
10 0:3.7 1:0.2 2:0.0841 3:0.1 4:0.1 5:0 6:0.4 7:0 8:0 9:0 10:0 11:0 12:7.5 13:0 
10 0:9 1:0.2 2:0.0931 3:0.1 4:0.1 5:0 6:0.4 7:0 8:0 9:0.1 10:0 11:0 12:4 13:0 
10 0:6.1 1:0.2 2:0.085 3:0.1 4:0.1 5:0.1 6:0.9 7:0.1 8:0 9:0 10:0 11:0 12:4 13:0 
10 0:3 1:0.1 2:0.0725 3:1.5 4:1.5 5:0.1 6:0.7 7:0.1 8:0 9:0 10:0 11:0 12:7.5 13:0 
10 0:6.1 1:0.2 2:0.0875 3:0.1 4:0.1 5:0.1 6:0.9 7:0.1 8:0 9:0 10:1.7355 11:0 12:4 13:0 
10 0:3 1:0.2 2:0.1234 3:0 4:0 5:0.1 6:0.1 7:0.1 8:0 9:0 10:0 11:0 12:5 13:0 
10 0:3.6 1:0.2 2:0.0797 3:0.6 4:0.6 5:0.2 6:1 7:0 8:0 9:0.1 10:0 11:0 12:6 13:0 
10 0:2.7 1:0.2 2:0.0935 3:0 4:0 5:0 6:0.5 7:0 8:0.1 9:0.1 10:0 11:0.795 12:4 13:0 
10 0:4.9 1:0.2 2:0.0213 3:0.1 4:0.1 5:0.1 6:0.6 7:0.1 8:0 9:0 10:0 11:0 12:4 13:0 
10 0:5.8 1:0.1 2:0.0554 3:0.1 4:0.1 5:0.1 6:0.8 7:0.1 8:0 9:0 10:0 11:0 12:6 13:0 
10 0:3.9 1:0.6 2:0.1482 3:0.4 4:0.4 5:0.1 6:0.1 7:0.1 8:0 9:0 10:0 11:0.8255 12:4 13:0.4 
10 0:4.1 1:0.2 2:0.0806 3:0 4:0 5:0.1 6:0.1 7:0.1 8:0.1 9:0 10:0 11:0 12:5 13:0 
10 0:3.1 1:0.2 2:0.0348 3:0 4:0 5:0 6:0.3 7:0 8:0 9:0 10:0 11:0 12:4.7 13:0 
10 0:4.1 1:0.2 2:0.1995 3:0.7 4:0.7 5:0.1 6:0.7 7:0.1 8:0 9:0 10:0 11:0 12:5.5 13:0 
10 0:6.9 1:0.2 2:0.1142 3:0.1 4:0.1 5:0.1 6:0.5 7:0.2 8:0 9:0.1 10:0 11:0 12:4 13:0 
10 0:4.1 1:0.2 2:0.1546 3:0.1 4:0.1 5:0.1 6:0.7 7:0.1 8:0 9:0 10:0 11:0 12:5 13:0 
10 0:4.5 1:0.3 2:0.1161 3:0.1 4:0.1 5:0.2 6:1 7:0 8:0 9:0.1 10:2.4325 11:0 12:4 13:0 
10 0:6.3 1:0.3 2:0.0844 3:0.1 4:0.1 5:0.6 6:0.2 7:0 8:0.1 9:0 10:0 11:0 12:4 13:0 
10 0:2.8 1:0.2 2:0.2003 3:0 4:0 5:0.1 6:0.3 7:0.1 8:0 9:0 10:0 11:0 12:4.5 13:0 
10 0:4.2 1:0.5 2:0.125 3:0.5 4:0.5 5:0.2 6:0.5 7:0.4 8:0 9:0 10:0 11:0 12:4 13:0 
10 0:2.7 1:0.2 2:0.0942 3:0.1 4:0.1 5:0.1 6:0.6 7:0.1 8:0 9:0 10:0 11:0 12:5.3 13:0 
10 0:5.6 1:0.1 2:0.136 3:0.5 4:0.5 5:0.1 6:0.5 7:0.1 8:0 9:0 10:0 11:0 12:6 13:0 
10 0:3 1:0.6 2:0.1397 3:0.5 4:0.5 5:0 6:0.1 7:0 8:0 9:0.1 10:0 11:0 12:6 13:0 
10 0:4.6 1:0.2 2:0.1257 3:0.1 4:0.1 5:0.1 6:0.9 7:0.1 8:0 9:0 10:0 11:0 12:5 13:0 
10 0:5.1 1:0.2 2:0.2057 3:0.1 4:0.1 5:0.1 6:0.6 7:0.1 8:0 9:0 10:0 11:0 12:5.4 13:0 
10 0:3.4 1:0.2 2:0.0798 3:0.5 4:0.5 5:0.1 6:0.8 7:0.1 8:0 9:0 10:0 11:0 12:5.4 13:0.4 
10 0:4.4 1:0.2 2:0.1314 3:0.7 4:0.7 5:0.1 6:0.6 7:0.1 8:0 9:0 10:1.7055 11:0 12:4 13:0 
10 0:8.8 1:0.1 2:0.1401 3:1 4:1 5:0.1 6:0.3 7:0.1 8:0 9:0 10:0 11:0 12:4 13:0 
10 0:5.1 1:0.2 2:0.1639 3:0.1 4:0.1 5:0.2 6:0 7:0 8:0 9:0.1 10:0 11:0 12:4.3 13:0 
10 0:4.7 1:0.2 2:0.1243 3:0.1 4:0.1 5:0.1 6:0.4 7:0.1 8:0 9:0 10:0 11:0 12:4 13:0 
10 0:4.7 1:0.2 2:0.0311 3:0.1 4:0.1 5:0 6:0 7:0.4 8:0 9:0.1 10:0 11:0 12:4 13:0 
10 0:2.4 1:0.4 2:0.1969 3:0.2 4:0.2 5:0 6:0.4 7:0 8:0.2 9:0 10:0 11:0 12:4.5 13:0 
10 0:3.6 1:0.2 2:0.283 3:0 4:0 5:0.1 6:0.3 7:0.1 8:0 9:0 10:0 11:0 12:4 13:0 
10 0:5.1 1:0.5 2:0.1125 3:0.3 4:0.3 5:0.1 6:0.5 7:0.1 8:0 9:0 10:0 11:0 12:4 13:0 
10 0:5.9 1:0.3 2:0.0294 3:0.5 4:0.5 5:0 6:0.1 7:0.3 8:0.1 9:0.1 10:0 11:0 12:4 13:0 
8.0061531078825716 0:6.5 1:0.2 2:0.0807 3:0.1 4:0.1 5:0.1 6:0.6 7:0.1 8:0 9:0 10:0 11:0 12:3 13:0 
10 0:2.4 1:0 2:0.1299 3:0 4:0 5:0 6:0 7:0 8:0 9:0.1 10:0 11:0 12:6.5 13:0 
10 0:3.9 1:0.2 2:0.023 3:0.1 4:0.1 5:0.1 6:0.7 7:0.1 8:0 9:0 10:0 11:0 12:6 13:0 
10 0:4.9 1:0.4 2:0.0794 3:0 4:0 5:0.2 6:0.3 7:0 8:0.1 9:0.1 10:0 11:0 12:4 13:0 
10 0:5.1 1:0.4 2:0.1201 3:0.6 4:0.6 5:0.1 6:0.3 7:0.1 8:0 9:0 10:0 11:0 12:6 13:0 
10 0:5.9 1:0.2 2:0.103 3:0.3 4:0.3 5:0.1 6:0.3 7:0.1 8:0 9:0 10:0 11:0 12:5.5 13:0 
10 0:5 1:0.2 2:0.0513 3:0.1 4:0.1 5:0.1 6:0.6 7:0.1 8:0 9:0 10:2.193 11:0 12:4 13:0.5 
10 0:6.1 1:0.4 2:0.2181 3:0.1 4:0.1 5:0.1 6:1.1 7:0.1 8:0 9:0 10:0 11:0 12:4 13:0 
10 0:3.7 1:0.2 2:0.1379 3:0.5 4:0.5 5:0.4 6:0 7:0.3 8:0 9:0 10:0 11:0 12:6.2 13:0 
10 0:3.1 1:0.2 2:0.1571 3:0 4:0 5:0.2 6:0.1 7:0 8:0 9:0 10:2.325 11:0 12:4.5 13:0 
10 0:4.8 1:0.2 2:0.2371 3:0.1 4:0.1 5:0.1 6:0.6 7:0.1 8:0 9:0 10:0 11:0 12:4 13:0 
10 0:5.5 1:0.2 2:0.1197 3:0.1 4:0.1 5:0.6 6:0 7:0.3 8:0 9:0.1 10:0 11:0 12:4 13:0 
10 0:4.2 1:0.1 2:0.1133 3:0.5 4:0.5 5:0.1 6:0.8 7:0.1 8:0 9:0 10:0 11:0 12:6 13:0 
7.8466058095727664 0:5 1:0.2 2:0.2436 3:0.1 4:0.1 5:0.2 6:0 7:0.4 8:0 9:0.1 10:0 11:0 12:4 13:0.8 
10 0:7.5 1:0.1 2:0.1416 3:1 4:1 5:0.1 6:0.3 7:0.1 8:0 9:0 10:0 11:0 12:3.5 13:0 
10 0:5.2 1:0.3 2:0.0216 3:0.1 4:0.1 5:0.2 6:0 7:0.4 8:0 9:0.1 10:0 11:0 12:4 13:0 
10 0:4.3 1:0.2 2:0.2807 3:0.1 4:0.1 5:0.1 6:0.6 7:0.1 8:0 9:0 10:0 11:0 12:4.5 13:0 
10 0:4.9 1:0.2 2:0.1012 3:0.1 4:0.1 5:0.2 6:0 7:0 8:0 9:0 10:0 11:0 12:4 13:0 
10 0:4.8 1:0.1 2:0.2699 3:0.5 4:0.5 5:0.1 6:0.1 7:0.1 8:0 9:0 10:0 11:0 12:6 13:0 
10 0:5.2 1:0.3 2:0.1375 3:0.1 4:0.1 5:0.2 6:0 7:0 8:0 9:0.1 10:0 11:0 12:4.3 13:0 
10 0:2.8 1:0.1 2:0.1484 3:0.5 4:0.5 5:0 6:0.7 7:0 8:0 9:0 10:0 11:0.881 12:4 13:0 
10 0:3.8 1:0.2 2:0.0445 3:0 4:0 5:0 6:0 7:0 8:0 9:0.1 10:0 11:0 12:5 13:0 
10 0:7.3 1:0.2 2:0.0202 3:0.1 4:0.1 5:0.6 6:0.4 7:0 8:0 9:0.1 10:0 11:0 12:3.7 13:0 
10 0:4.4 1:0.4 2:0.2781 3:0 4:0 5:0.2 6:1.1 7:0 8:0 9:0 10:0 11:0 12:4 13:0 
10 0:4.7 1:0.2 2:0.1363 3:0 4:0 5:0 6:0.1 7:0.4 8:0.1 9:0.1 10:0 11:0 12:4.5 13:0 
10 0:2.8 1:0.2 2:0.1021 3:0.6 4:0.6 5:0 6:0.4 7:0 8:0 9:0.1 10:0 11:0 12:8 13:0 
8.5803832999697782 0:4.2 1:0.2 2:0.2329 3:0.1 4:0.1 5:0.1 6:0.5 7:0.1 8:0 9:0 10:0 11:0 12:4 13:0 
10 0:5.2 1:0.2 2:0.1269 3:0.1 4:0.1 5:0 6:0.5 7:0 8:0 9:0 10:0 11:0.938 12:5 13:0 
10 0:3.7 1:0.2 2:0.0253 3:0 4:0 5:0 6:0.1 7:0 8:0 9:0 10:0 11:0 12:4.5 13:0 
10 0:5 1:0.2 2:0.286 3:0.1 4:0.1 5:0.1 6:0.6 7:0.1 8:0 9:0 10:0 11:0 12:4 13:0 
10 0:3.9 1:0.2 2:0.1891 3:0.1 4:0.1 5:0.1 6:0.7 7:0.1 8:0 9:0 10:0 11:0 12:6.5 13:0 
10 0:2.6 1:0.2 2:0.1902 3:1.1 4:1.1 5:0.1 6:0.6 7:0.1 8:0 9:0 10:0 11:0.814 12:5 13:0 
10 0:2.1 1:0.2 2:0.1608 3:0.5 4:0.5 5:0 6:0.4 7:0 8:0 9:0 10:0 11:0 12:5.7 13:0 
10 0:4.4 1:0.4 2:0.0237 3:0.5 4:0.5 5:0 6:0.4 7:0.3 8:0.1 9:0 10:0 11:0 12:4 13:0 
10 0:2.9 1:0.3 2:0.2044 3:0.5 4:0.5 5:0 6:1.2 7:0 8:0.1 9:0 10:0 11:0 12:6 13:0 
10 0:4.3 1:0.2 2:0.0584 3:0.1 4:0.1 5:0.1 6:0.5 7:0.1 8:0 9:0 10:0 11:0 12:4.5 13:0 
10 0:4.5 1:0.3 2:0.1922 3:0 4:0 5:0.1 6:0.1 7:0.1 8:0 9:0 10:0 11:0 12:4 13:0 
10 0:5.1 1:0.2 2:0.122 3:0.1 4:0.1 5:0.2 6:0 7:0.4 8:0 9:0.1 10:0 11:0 12:4 13:0 
10 0:3.5 1:0.5 2:0.2222 3:0.6 4:0.6 5:0 6:0.5 7:0 8:0 9:0 10:0 11:0 12:5.5 13:0 
10 0:6.1 1:0.4 2:0.0688 3:0.1 4:0.1 5:0.6 6:0 7:0.4 8:0 9:0.1 10:0.7355 11:0 12:3.5 13:0 
10 0:4.7 1:0.2 2:0.1742 3:0.1 4:0.1 5:0.1 6:0.2 7:0.1 8:0 9:0 10:0 11:0 12:4 13:0.5 
10 0:5.7 1:0.2 2:0.18 3:1 4:1 5:0.1 6:0.3 7:0.1 8:0 9:0 10:0 11:0 12:6 13:0 
10 0:3.3 1:0.2 2:0.0276 3:0.5 4:0.5 5:0 6:0.3 7:0 8:0 9:0.1 10:1.837 11:0 12:1.6 13:0 
10 0:3.9 1:0.2 2:0.1188 3:0 4:0 5:0 6:0.3 7:0 8:0 9:0 10:0 11:0 12:4 13:0 
10 0:7.1 1:0.2 2:0.1832 3:0 4:0 5:0.2 6:1 7:0.3 8:0 9:0.1 10:1.1645 11:0 12:1.6 13:0 
10 0:5.7 1:0.2 2:0.0607 3:0.3 4:0.3 5:0.3 6:0.3 7:0 8:0 9:0.1 10:0 11:0 12:4 13:0 
10 0:4.7 1:0.2 2:0.0318 3:0.5 4:0.5 5:0.2 6:0 7:0 8:0 9:0 10:0 11:0 12:4 13:0 
10 0:5.9 1:0 2:0.0716 3:0.1 4:0.1 5:0 6:0 7:0.3 8:0 9:0 10:0 11:0 12:4 13:0 
0.14749396894545722 0:3.5 1:0.2 2:0.125 3:0 4:0 5:0 6:0 7:0.3 8:0 9:0.1 10:0 11:0 12:4 13:0 
10 0:6.2 1:0.5 2:0.1533 3:0.8 4:0.8 5:0.1 6:0.5 7:0.1 8:0 9:0 10:1.7055 11:0 12:5 13:0 
9.2205802572548272 0:4 1:0.2 2:0.1054 3:1.2 4:1.2 5:0 6:0.6 7:0.5 8:0.1 9:0 10:0 11:0 12:5.5 13:0 
10 0:3.6 1:0.2 2:0.1298 3:0.1 4:0.1 5:0 6:0.5 7:0 8:0 9:0 10:0 11:0 12:5 13:0 
10 0:4.9 1:0.6 2:0.1751 3:0.1 4:0.1 5:0.2 6:0.1 7:0.4 8:0 9:0.1 10:0 11:0 12:4 13:0 
10 0:4.6 1:0.6 2:0.0672 3:0 4:0 5:0.1 6:0.5 7:0.1 8:0 9:0 10:0 11:0 12:5.2 13:0 
10 0:4.4 1:0.1 2:0.1567 3:0.1 4:0.1 5:0.1 6:0.7 7:0.1 8:0 9:0 10:0 11:0 12:5.5 13:0 
10 0:5.4 1:0.2 2:0.3051 3:0.1 4:0.1 5:0.1 6:0.8 7:0.1 8:0 9:0 10:0 11:0 12:4 13:0 
10 0:2.3 1:0.2 2:0.0252 3:0 4:0 5:0 6:0.5 7:0 8:0 9:0 10:0 11:0 12:5 13:0 
10 0:2.5 1:0.4 2:0.1108 3:0 4:0 5:0 6:0.3 7:0 8:0 9:0 10:0 11:0 12:4.5 13:0 
10 0:3.7 1:0.1 2:0.0933 3:0.1 4:0.1 5:0.1 6:0.1 7:0.1 8:0 9:0 10:0 11:0 12:6 13:0 
10 0:3.7 1:0.2 2:0.2371 3:0.1 4:0.1 5:0 6:0.5 7:0 8:0.1 9:0 10:0 11:0 12:4.4 13:0 
10 0:5.9 1:0.2 2:0.1541 3:0.1 4:0.1 5:0.2 6:0.5 7:0.4 8:0 9:0.1 10:0 11:0.881 12:3 13:0 
10 0:5.4 1:0.2 2:0.2704 3:0.1 4:0.1 5:0.1 6:0.7 7:0.1 8:0.1 9:0 10:2.5065 11:0 12:4 13:0 
10 0:5.4 1:0.1 2:0.0779 3:0.3 4:0.3 5:0.1 6:0.5 7:0.1 8:0 9:0 10:0 11:0 12:5 13:0 
10 0:5.1 1:0.2 2:0.1674 3:1.2 4:1.2 5:0.1 6:0.2 7:0.1 8:0 9:0 10:1.0525 11:0 12:4.5 13:0 
10 0:4 1:0.2 2:0.1771 3:0.1 4:0.1 5:0 6:0 7:0 8:0 9:0.1 10:0 11:0 12:4 13:0 
10 0:5 1:0.2 2:0.0769 3:0.1 4:0.1 5:0.2 6:0 7:0 8:0 9:0.1 10:0 11:0 12:4 13:0 
10 0:3.1 1:0.2 2:0.0454 3:0.1 4:0.1 5:0.1 6:0.6 7:0.1 8:0 9:0 10:0 11:0 12:5 13:0 
10 0:3.7 1:0.2 2:0.0977 3:0.1 4:0.1 5:0.2 6:0.7 7:0 8:0 9:0 10:0 11:0 12:5 13:0 
10 0:4.3 1:0.6 2:0.1338 3:0.1 4:0.1 5:0.1 6:0.4 7:0.1 8:0.2 9:0 10:0 11:0 12:7.8 13:1.7 
10 0:5.2 1:0.1 2:0.1181 3:1.2 4:1.2 5:0.1 6:0.1 7:0.1 8:0 9:0 10:0 11:0 12:6 13:0 
10 0:3.2 1:0.2 2:0.0589 3:0.1 4:0.1 5:0 6:0.4 7:0 8:0 9:0 10:0 11:0 12:5.2 13:0 
10 0:1.9 1:0.5 2:0.1172 3:0.5 4:0.5 5:0 6:0.5 7:0.3 8:0 9:0 10:0 11:0 12:5 13:0 
10 0:4 1:0.2 2:0.1378 3:0.6 4:0.6 5:0 6:0 7:0.3 8:0 9:0.1 10:0 11:0 12:4.5 13:0 
10 0:5.3 1:0.3 2:0.0888 3:0.1 4:0.1 5:0.1 6:0 7:0.1 8:0.1 9:0 10:0 11:0 12:4 13:0 
10 0:3.9 1:0.2 2:0.2023 3:0.4 4:0.4 5:0.1 6:0.4 7:0.2 8:0.1 9:0.1 10:1.7055 11:0 12:3.4 13:0 
10 0:5.9 1:0.2 2:0.2012 3:0.1 4:0.1 5:0.2 6:0.1 7:0 8:0 9:0.1 10:0 11:0 12:4 13:0 
10 0:1.8 1:0.5 2:0.1154 3:0.5 4:0.5 5:0 6:0.5 7:0.3 8:0 9:0.1 10:0.297 11:0 12:1.5 13:0 
3.6932557585567993 0:5.8 1:0.6 2:0.1249 3:1.2 4:1.2 5:0.1 6:0.7 7:0.2 8:0 9:0.1 10:0 11:0 12:4 13:0 
10 0:5 1:0.6 2:0.1191 3:0.1 4:0.1 5:0.1 6:0.6 7:0.1 8:0 9:0 10:0 11:0.836 12:6 13:0 
10 0:4.5 1:0.1 2:0.1745 3:0.5 4:0.5 5:0.1 6:0.5 7:0.1 8:0 9:0 10:2.5065 11:0 12:4 13:0 
10 0:4.4 1:0.1 2:0.0821 3:0.1 4:0.1 5:0.1 6:0.1 7:0.1 8:0 9:0 10:0 11:0 12:6.6 13:0 
10 0:2.5 1:0.2 2:0.2025 3:0.1 4:0.1 5:0.2 6:0.6 7:0 8:0 9:0 10:0 11:0 12:5 13:0 
10 0:1.7 1:0.5 2:0.2262 3:1.2 4:1.2 5:0 6:0.5 7:0.3 8:0 9:0 10:0.5275 11:0 12:3 13:0 
10 0:2.5 1:0.2 2:0.1506 3:0.1 4:0.1 5:0.2 6:0.6 7:0 8:0 9:0 10:1.6625 11:0 12:4.5 13:0 
10 0:7 1:0.3 2:0.1107 3:0.1 4:0.1 5:0.1 6:0 7:0.1 8:0.1 9:0 10:0 11:0 12:4 13:0 
10 0:3.5 1:0.2 2:0.046 3:0.5 4:0.5 5:0.1 6:0.6 7:0.1 8:0 9:0 10:0 11:1.0255 12:4.5 13:0 
10 0:4.9 1:0.2 2:0.0688 3:0.3 4:0.3 5:0.2 6:0.1 7:0 8:0 9:0.1 10:0 11:0 12:7.5 13:0 
10 0:2.4 1:0.2 2:0.029 3:0.7 4:0.7 5:0 6:1.1 7:0 8:0 9:0 10:0 11:0 12:6 13:0 
10 0:2.8 1:0.4 2:0.147 3:0 4:0 5:0 6:0.3 7:0 8:0 9:0.1 10:0 11:0 12:4 13:0 
10 0:4.7 1:0.2 2:0.0233 3:0.1 4:0.1 5:0.1 6:0 7:0.1 8:0 9:0 10:0 11:0 12:3.8 13:0 
10 0:3.8 1:0.2 2:0.0569 3:0.1 4:0.1 5:0.2 6:0.4 7:0.4 8:0 9:0.1 10:0 11:0 12:4.8 13:0 
10 0:3.1 1:0.2 2:0.1422 3:1.2 4:1.2 5:0.1 6:0.8 7:0.1 8:0 9:0 10:1.0525 11:0 12:4 13:0.4 
10 0:3 1:0.2 2:0.0392 3:0.1 4:0.1 5:0 6:0 7:0.4 8:0 9:0 10:0 11:1.0005 12:4.2 13:0 
10 0:5.7 1:0.3 2:0.1893 3:0.1 4:0.1 5:0.2 6:0 7:0.4 8:0 9:0.1 10:0 11:0 12:4 13:0 
10 0:3.5 1:0.2 2:0.1271 3:0 4:0 5:0.2 6:0.5 7:0 8:0 9:0.1 10:0 11:0.99 12:6.5 13:0 
-10 0:5 1:0.2 2:0.1142 3:0.9 4:0.9 5:0.1 6:0.3 7:0.1 8:0 9:0 10:0 11:0.951 12:6.5 13:0 
-10 0:3.8 1:0 2:0.2334 3:0.1 4:0.1 5:0.1 6:0.3 7:0.2 8:0 9:0.1 10:0 11:0 12:4 13:0 
-10 0:3.9 1:0.6 2:0.1228 3:0.1 4:0.1 5:0.1 6:0.1 7:0.1 8:0 9:0 10:0 11:0 12:4 13:0 
-10 0:5.4 1:0.1 2:0.0835 3:0.1 4:0.1 5:0.1 6:0.6 7:0.1 8:0 9:0 10:7.512 11:0 12:5.2 13:0 
-10 0:5 1:0.2 2:0.5212 3:0.1 4:0.1 5:0.1 6:0.9 7:0.1 8:0 9:0 10:1.5515 11:0 12:4 13:0 
-10 0:4.2 1:0.2 2:0.0805 3:0.5 4:0.5 5:0.1 6:0.3 7:0.1 8:0 9:0 10:0 11:0 12:4.4 13:0 
-10 0:3.3 1:0.2 2:0.0183 3:0.7 4:0.7 5:0.1 6:1 7:0.2 8:0 9:0.1 10:0 11:0 12:4 13:0 
-10 0:4.8 1:0.4 2:0.0836 3:0.3 4:0.3 5:0.1 6:0.3 7:0.1 8:0 9:0 10:0 11:0 12:3.5 13:0 
-10 0:4.5 1:0.2 2:0.2503 3:0.1 4:0.1 5:0.1 6:0.1 7:0.1 8:0 9:0 10:0 11:0 12:5.5 13:0 
-10 0:4.4 1:0.2 2:0.1134 3:0 4:0 5:0.1 6:0.1 7:0.1 8:0 9:0 10:3.844 11:0 12:6 13:0 
-10 0:3.6 1:0.2 2:0.1064 3:0 4:0 5:0.1 6:0.3 7:0.1 8:0 9:0 10:0 11:0.951 12:5 13:0 
-10 0:5.3 1:0.1 2:0.1792 3:0 4:0 5:0.1 6:0.5 7:0.1 8:0 9:0 10:0 11:0 12:4 13:0.9 
-10 0:3 1:0.2 2:0.2013 3:0 4:0 5:0.1 6:0 7:0.1 8:0 9:0 10:3.649 11:0 12:4 13:0 
-10 0:5.2 1:0.1 2:0.0304 3:0.5 4:0.5 5:0.1 6:0.5 7:0.1 8:0 9:0 10:0 11:0 12:5.5 13:0 
-10 0:4.9 1:0.4 2:0.1317 3:0.3 4:0.3 5:0.1 6:0.3 7:0.1 8:0 9:0 10:0 11:0.951 12:4 13:0 
-10 0:4.5 1:0.2 2:0.1259 3:0.1 4:0.1 5:0.1 6:0.6 7:0.1 8:0 9:0 10:0 11:0 12:4.7 13:0 
-10 0:4.9 1:0.2 2:0.1195 3:0.5 4:0.5 5:0.1 6:0.5 7:0.1 8:0 9:0 10:0 11:0 12:8 13:0 
-10 0:3.5 1:0.2 2:0.1354 3:1 4:1 5:0.1 6:0.3 7:0.1 8:0 9:0 10:0 11:0.9885 12:8 13:0 
-10 0:3.8 1:0.2 2:0.0902 3:0.1 4:0.1 5:0.1 6:0.6 7:0.1 8:0 9:0 10:0 11:0.951 12:4 13:0 
-10 0:3.7 1:0.2 2:0.1462 3:0.1 4:0.1 5:0.1 6:0.6 7:0.1 8:0 9:0 10:0 11:0 12:5 13:0 
-10 0:4.8 1:0 2:0.0379 3:0.9 4:0.9 5:0.1 6:0.3 7:0.2 8:0 9:0.1 10:0 11:0.951 12:4.6 13:0 
-10 0:4.3 1:0 2:0.1548 3:0.7 4:0.7 5:0.1 6:0.3 7:0.2 8:0 9:0.1 10:0 11:0 12:4 13:0 
-10 0:4.1 1:0.4 2:0.1326 3:0.5 4:0.5 5:0.1 6:1.1 7:0.1 8:0 9:0 10:0 11:0 12:4 13:0 
-10 0:4.2 1:0.2 2:0.1022 3:0.5 4:0.5 5:0.1 6:0.1 7:0.1 8:0 9:0 10:3.649 11:0 12:5.2 13:0 
-10 0:4.1 1:0.3 2:0.0904 3:0.6 4:0.6 5:0.1 6:0.3 7:0.1 8:0 9:0 10:0 11:0 12:4 13:0 
-10 0:4.4 1:0.1 2:0.0819 3:0 4:0 5:0 6:0.5 7:0 8:0 9:0 10:0 11:0 12:5 13:0 
-10 0:2.9 1:0.6 2:0.1771 3:0.1 4:0.1 5:0.1 6:0.5 7:0.2 8:0 9:0.1 10:0 11:0.9885 12:2.5 13:0 
-10 0:4.5 1:0.6 2:0.1018 3:0 4:0 5:0.1 6:0.9 7:0.1 8:0 9:0 10:0 11:0 12:6 13:0 
-10 0:3.4 1:0.1 2:0.1337 3:0.6 4:0.6 5:0.1 6:0.3 7:0.2 8:0 9:0.1 10:0 11:0 12:2.5 13:0 
-10 0:4.1 1:0.2 2:0.0803 3:0 4:0 5:0.1 6:0.6 7:0.1 8:0 9:0 10:1.5515 11:0 12:4 13:0 
-10 0:3.5 1:0.6 2:0.1966 3:0.3 4:0.3 5:0.1 6:0.5 7:0.1 8:0 9:0 10:0 11:0 12:4.5 13:0.4 
-10 0:3.3 1:0.2 2:0.024 3:0 4:0 5:0.1 6:0.5 7:0.2 8:0 9:0.1 10:0 11:0 12:4.5 13:0 
-10 0:6 1:0.6 2:0.1537 3:0.7 4:0.7 5:0.1 6:0.9 7:0.1 8:0 9:0 10:0 11:1.2075 12:7 13:0.5 
-10 0:5.8 1:0.4 2:0.1394 3:0 4:0 5:0.1 6:0.3 7:0.2 8:0 9:0.1 10:0 11:0 12:4 13:0 
-10 0:3.5 1:0.2 2:0.0608 3:0.1 4:0.1 5:0.1 6:0.7 7:0.1 8:0 9:0 10:0 11:0 12:5 13:0 
-10 0:3.1 1:0.2 2:0.1252 3:0.5 4:0.5 5:0.1 6:0.1 7:0.1 8:0 9:0 10:0 11:0 12:5 13:0.2 
-10 0:4.6 1:0.1 2:0.1672 3:0.3 4:0.3 5:0.1 6:0.1 7:0.1 8:0 9:0 10:0 11:0 12:4.5 13:0 
-10 0:3.5 1:0.3 2:0.1701 3:0.1 4:0.1 5:0.1 6:0 7:0.1 8:0.1 9:0 10:0 11:0 12:6 13:0 
-10 0:3.3 1:0.2 2:0.2408 3:0.3 4:0.3 5:0.1 6:0.3 7:0.1 8:0 9:0 10:7.512 11:0 12:4.4 13:0 
-10 0:6.1 1:0.6 2:0.0573 3:0.1 4:0.1 5:0.1 6:0.1 7:0.1 8:0 9:0 10:0 11:0 12:3.5 13:0 
-10 0:5 1:0.6 2:0.1991 3:0.1 4:0.1 5:0.1 6:0.1 7:0.1 8:0 9:0 10:3.649 11:0 12:4 13:0 
-10 0:4.6 1:0.2 2:0.0721 3:0.1 4:0.1 5:0.1 6:0.1 7:0.1 8:0 9:0 10:0 11:0 12:4.5 13:0 
-10 0:2.8 1:0 2:0.3028 3:0.3 4:0.3 5:0.1 6:0.3 7:0.2 8:0 9:0.1 10:0 11:0 12:5 13:0 
-10 0:3.3 1:0.2 2:0.0779 3:0 4:0 5:0.1 6:0.5 7:0.1 8:0 9:0 10:0 11:0 12:6 13:0 
-10 0:5.4 1:0.2 2:0.0652 3:0.6 4:0.6 5:0.1 6:1 7:0.1 8:0 9:0 10:0 11:0 12:4 13:0 
-10 0:5 1:0.2 2:0.091 3:0 4:0 5:0.1 6:0.3 7:0.2 8:0 9:0.1 10:0 11:0.9885 12:4 13:0 
-10 0:6.5 1:0.2 2:0.238 3:0 4:0 5:0.1 6:0 7:0.1 8:0 9:0 10:5.3025 11:0 12:2 13:0 
-10 0:2.5 1:0.2 2:0.2748 3:0.3 4:0.3 5:0.1 6:0.8 7:0 8:0 9:0 10:0 11:0 12:9.9 13:0 
-10 0:5.8 1:0.5 2:0.1154 3:0.5 4:0.5 5:0.1 6:0.5 7:0.1 8:0 9:0 10:0 11:0 12:4 13:0 
-10 0:5 1:0 2:0.2422 3:0.1 4:0.1 5:0.1 6:0.3 7:0.1 8:0 9:0 10:0 11:0 12:4.8 13:0 
-10 0:5 1:0.5 2:0.0992 3:0.1 4:0.1 5:0.1 6:0.5 7:0.1 8:0 9:0 10:0 11:0 12:4 13:0 
-10 0:4 1:0.2 2:0.1469 3:0 4:0 5:0.2 6:0.1 7:0 8:0 9:0.1 10:0 11:0 12:4.5 13:0 
-10 0:4.8 1:0.2 2:0.1242 3:0.5 4:0.5 5:0.1 6:0.6 7:0.1 8:0 9:0 10:0 11:0 12:4 13:0 
-10 0:4.5 1:0.3 2:0.2179 3:0.1 4:0.1 5:0.1 6:0 7:0.1 8:0.1 9:0 10:0 11:0 12:8 13:0 
-10 0:3 1:0.4 2:0.1598 3:0 4:0 5:0.1 6:0.3 7:0.1 8:0 9:0 10:0 11:0 12:5 13:0 
-10 0:4.4 1:0.2 2:0.2337 3:0 4:0 5:0 6:0.4 7:0 8:0 9:0 10:0 11:0 12:4 13:0 
-10 0:6.1 1:0.6 2:0.0771 3:0.3 4:0.3 5:0.1 6:0.5 7:0.1 8:0 9:0 10:0 11:0 12:4 13:0 
-10 0:3.8 1:0.2 2:0.0541 3:0 4:0 5:0.1 6:0.5 7:0.1 8:0 9:0 10:0 11:0 12:4.2 13:0 
-10 0:4.4 1:0.6 2:0.218 3:0.5 4:0.5 5:0.1 6:0.5 7:0.1 8:0 9:0 10:2.589 11:0 12:6 13:0 
-10 0:5.4 1:0.2 2:0.0674 3:0.9 4:0.9 5:0.1 6:0.3 7:0.1 8:0 9:0 10:7.512 11:0 12:4.5 13:0 
-10 0:6.3 1:0.5 2:0.1021 3:0 4:0 5:0.6 6:0.5 7:0 8:0 9:0.1 10:0 11:0 12:4 13:0 
-10 0:4.8 1:0.1 2:0.1655 3:0.5 4:0.5 5:0.1 6:0.6 7:0.1 8:0.3 9:0 10:3.844 11:0 12:4 13:0 
-10 0:3.8 1:0.2 2:0.1364 3:1 4:1 5:0.1 6:0.3 7:0.1 8:0 9:0 10:0 11:0 12:4 13:0 
-10 0:4.5 1:0.1 2:0.168 3:0.1 4:0.1 5:0.1 6:0.6 7:0.1 8:0 9:0 10:0 11:0 12:4 13:0 
-10 0:3.8 1:0.2 2:0.0151 3:0.3 4:0.3 5:0.1 6:0.7 7:0.1 8:0 9:0 10:0 11:0 12:7.2 13:0.5 
-10 0:3.6 1:0.2 2:0.2405 3:0 4:0 5:0.1 6:0.3 7:0.1 8:0 9:0 10:0 11:0 12:6 13:0 
-10 0:4.6 1:0.2 2:0.1802 3:0 4:0 5:0.1 6:0.3 7:0.1 8:0 9:0 10:0 11:0.951 12:4 13:0 
-10 0:3.5 1:0.2 2:0.0231 3:0.3 4:0.3 5:0 6:0.3 7:0 8:0 9:0 10:0 11:0 12:4.5 13:0 
-10 0:6.5 1:0.1 2:0.1137 3:0.1 4:0.1 5:0.1 6:0.1 7:0.1 8:0 9:0 10:0 11:0 12:5.9 13:0 
-10 0:5.1 1:0.6 2:0.1558 3:0.3 4:0.3 5:0.1 6:0.1 7:0.1 8:0 9:0 10:7.512 11:0 12:5 13:0 
-10 0:5.7 1:0.2 2:0.096 3:0.1 4:0.1 5:0.1 6:0.5 7:0.1 8:0 9:0 10:0 11:0 12:5 13:0 
-10 0:4.3 1:0.3 2:0.2509 3:0 4:0 5:0.1 6:0.3 7:0.1 8:0 9:0 10:0 11:0 12:4 13:0 
-10 0:5.3 1:0.2 2:0.0608 3:0.1 4:0.1 5:0.1 6:0.7 7:0.1 8:0 9:0 10:0 11:0 12:4.8 13:0 
-10 0:3.8 1:0.2 2:0.1288 3:0 4:0 5:0.1 6:0.3 7:0.1 8:0 9:0 10:0 11:0.9435 12:4 13:0 
-10 0:5.1 1:0.4 2:0.1037 3:0 4:0 5:0.1 6:0 7:0.1 8:0 9:0 10:0 11:0 12:4 13:0 
-10 0:4.6 1:0.2 2:0.0876 3:0 4:0 5:0.1 6:0.5 7:0.1 8:0 9:0 10:0 11:0.9885 12:4 13:0 
-10 0:6.7 1:0.2 2:0.1165 3:0 4:0 5:0.1 6:1.1 7:0.1 8:0 9:0 10:3.257 11:0 12:0.7 13:0 
-10 0:4.2 1:0.3 2:0.1079 3:0.6 4:0.6 5:0.2 6:0.3 7:0.4 8:0.2 9:0.1 10:0 11:0 12:4 13:1.2 
-10 0:6.5 1:0.5 2:0.0245 3:0.1 4:0.1 5:0.1 6:0.5 7:0.1 8:0 9:0 10:0 11:0 12:4 13:0 
-10 0:5 1:0.2 2:0.0604 3:0.1 4:0.1 5:0.1 6:0 7:0.2 8:0 9:0.1 10:2.589 11:0 12:4 13:0 
-10 0:4.7 1:0.1 2:0.2514 3:0 4:0 5:0.1 6:0.5 7:0.1 8:0 9:0 10:7.512 11:0 12:5 13:0 
-10 0:5.8 1:0.6 2:0.1269 3:0.5 4:0.5 5:0.1 6:0.7 7:0.2 8:0 9:0.1 10:0 11:0 12:4 13:0 
-10 0:3.7 1:0.2 2:0.0222 3:0 4:0 5:0.1 6:0.9 7:0.1 8:0 9:0 10:0 11:0 12:4.3 13:0 
-10 0:4.9 1:0.2 2:0.0852 3:0.1 4:0.1 5:0.1 6:0.6 7:0.2 8:0 9:0.1 10:0 11:0 12:4 13:0 
-10 0:3.2 1:0.2 2:0.3459 3:0.5 4:0.5 5:0.1 6:0.2 7:0.1 8:0 9:0 10:0 11:0 12:5 13:0.9 
-10 0:3.5 1:0.2 2:0.0809 3:0.9 4:0.9 5:0.1 6:0.3 7:0.1 8:0 9:0 10:3.649 11:0 12:4 13:0 
-10 0:4.1 1:0 2:0.0984 3:0 4:0 5:0.1 6:0.3 7:0.1 8:0 9:0 10:0 11:0 12:4 13:0 
-10 0:4.8 1:0.2 2:0.0375 3:0 4:0 5:0.1 6:0.6 7:0.1 8:0 9:0 10:0 11:0 12:4.5 13:0 
-10 0:2.7 1:0.2 2:0.1294 3:0.1 4:0.1 5:0 6:0.5 7:0 8:0 9:0 10:0 11:0 12:5 13:0 
-10 0:5.5 1:0.2 2:0.0828 3:0.5 4:0.5 5:0.1 6:0.7 7:0.1 8:0 9:0 10:0 11:0 12:2.4 13:0 
-10 0:3.9 1:0.2 2:0.057 3:0.1 4:0.1 5:0.1 6:0 7:0.1 8:0 9:0 10:0 11:0 12:4 13:0 
-10 0:5.2 1:0.2 2:0.1144 3:0.1 4:0.1 5:0.6 6:0.4 7:0.4 8:0.2 9:0.1 10:0 11:0 12:4 13:0.3 
-10 0:5.1 1:0.2 2:0.0997 3:0.7 4:0.7 5:0.1 6:0.3 7:0.1 8:0 9:0 10:0 11:0 12:4 13:0 
-10 0:4 1:0.2 2:0.1631 3:0.1 4:0.1 5:0.1 6:0.1 7:0.1 8:0 9:0 10:0 11:0 12:4 13:0 
-10 0:6.1 1:0.6 2:0.0915 3:0 4:0 5:0.1 6:0.1 7:0.1 8:0 9:0 10:0 11:0 12:5 13:1 
-10 0:3.6 1:0.2 2:0.104 3:0 4:0 5:0.1 6:0.1 7:0.1 8:0.2 9:0 10:0 11:0 12:6 13:0.5 
-10 0:3.4 1:0.2 2:0.3172 3:0.5 4:0.5 5:0 6:0.3 7:0 8:0 9:0 10:0 11:0 12:5 13:0 
-10 0:3.2 1:0.6 2:0.1357 3:0 4:0 5:0.1 6:0.6 7:0.1 8:0 9:0 10:3.844 11:0 12:5 13:0 
-10 0:6.1 1:0.1 2:0.0204 3:0.1 4:0.1 5:0.1 6:0.8 7:0.1 8:0 9:0 10:0 11:0.924 12:6 13:0 
-10 0:5.2 1:0.2 2:0.0994 3:0.1 4:0.1 5:0.1 6:0.6 7:0.1 8:0 9:0 10:0 11:0 12:4 13:0 
-10 0:6.5 1:0.2 2:0.135 3:0.3 4:0.3 5:0.1 6:0.5 7:0.1 8:0 9:0 10:10.0255 11:0 12:4 13:0 
-10 0:4 1:0.1 2:0.1809 3:0.5 4:0.5 5:0.2 6:0.1 7:0.5 8:0 9:0 10:0 11:0.782 12:7 13:1.1 
-10 0:4 1:0.4 2:0.1965 3:0.8 4:0.8 5:0.1 6:0.6 7:0.1 8:0.1 9:0 10:0 11:0.9435 12:4 13:0.5 
-10 0:4.2 1:0.2 2:0.1566 3:1.2 4:1.2 5:0 6:0.7 7:0.4 8:0 9:0 10:0 11:0 12:4 13:0 
-10 0:5 1:0.2 2:0.0936 3:0.1 4:0.1 5:0.1 6:0.7 7:0.1 8:0 9:0 10:0 11:0 12:6 13:0 
-10 0:2.4 1:0.2 2:0.164 3:0.1 4:0.1 5:0.1 6:0.4 7:0.1 8:0 9:0 10:0 11:0 12:4.5 13:0 
-10 0:3.9 1:0.4 2:0.2395 3:0.6 4:0.6 5:0.1 6:0.6 7:0.2 8:0 9:0.1 10:0 11:0 12:5 13:0 
-10 0:3.9 1:0.2 2:0.0165 3:0 4:0 5:0.1 6:0.3 7:0.1 8:0 9:0 10:0 11:0 12:4 13:0 
-10 0:5.3 1:0.2 2:0.0233 3:0.5 4:0.5 5:0.1 6:0.1 7:0.1 8:0 9:0 10:0 11:0 12:4.5 13:0 
-10 0:3.1 1:0.2 2:0.1217 3:0 4:0 5:0.1 6:0.5 7:0.1 8:0.1 9:0 10:0 11:0 12:9 13:0 
-10 0:3.1 1:0.2 2:0.0867 3:0 4:0 5:0.1 6:0.3 7:0.2 8:0 9:0.1 10:0 11:0 12:4 13:0 
-10 0:4.5 1:0.6 2:0.0246 3:0 4:0 5:0.1 6:0.8 7:0.1 8:0 9:0 10:2.193 11:0 12:3.5 13:0 
-10 0:5.7 1:0.2 2:0.118 3:0.1 4:0.1 5:0.1 6:0.7 7:0.1 8:0 9:0 10:0 11:0.9435 12:4 13:0 
-10 0:3.2 1:0.2 2:0.1228 3:0.7 4:0.7 5:0.2 6:0.5 7:0 8:0 9:0 10:0 11:0 12:5 13:0 
-10 0:3.6 1:0.3 2:0.1484 3:0.6 4:0.6 5:0.1 6:0 7:0.2 8:0 9:0.1 10:0 11:0 12:4 13:0 
-10 0:4.7 1:0.2 2:0.046 3:0.1 4:0.1 5:0.1 6:0.5 7:0.1 8:0 9:0 10:0 11:0 12:4 13:0 
-10 0:3.6 1:0.2 2:0.2286 3:0.1 4:0.1 5:0.1 6:0.1 7:0.1 8:0 9:0 10:0 11:0 12:5 13:0 
-10 0:5.6 1:0.1 2:0.0989 3:0.1 4:0.1 5:0.1 6:0.4 7:0.1 8:0 9:0 10:0 11:0.951 12:6 13:0 
-10 0:5.1 1:0.2 2:0.1258 3:0.5 4:0.5 5:0.1 6:0.1 7:0.1 8:0 9:0 10:0 11:0 12:4.5 13:0 
-10 0:4.4 1:0.6 2:0.1558 3:0.5 4:0.5 5:0.1 6:0.1 7:0.1 8:0 9:0 10:0 11:0 12:5 13:0 
-10 0:4.9 1:0.6 2:0.0855 3:0.3 4:0.3 5:0.1 6:0.1 7:0.1 8:0 9:0 10:0 11:0 12:5 13:0 
-10 0:4.6 1:0.2 2:0.383 3:0.1 4:0.1 5:0.1 6:0.6 7:0.1 8:0.1 9:0 10:0 11:0 12:6 13:0 
-10 0:4.1 1:0.6 2:0.0639 3:1 4:1 5:0.1 6:0.3 7:0.1 8:0 9:0 10:0 11:0 12:6 13:0 
-10 0:4.8 1:0.6 2:0.131 3:0.1 4:0.1 5:0.1 6:0.1 7:0.1 8:0 9:0 10:3.844 11:0 12:4 13:0 
-10 0:3 1:0.2 2:0.1207 3:0.5 4:0.5 5:0 6:0.6 7:0 8:0 9:0 10:0 11:0 12:4 13:0 
-10 0:3.9 1:0.2 2:0.0347 3:0.1 4:0.1 5:0.1 6:0.7 7:0.1 8:0 9:0 10:0 11:0 12:4 13:0 
-10 0:4 1:0.2 2:0.1552 3:0.6 4:0.6 5:0.1 6:0.3 7:0.1 8:0 9:0 10:3.649 11:0 12:3.6 13:0 
-10 0:6.1 1:0.2 2:0.0821 3:1 4:1 5:0.1 6:0.7 7:0.1 8:0 9:0 10:0 11:0 12:0.5 13:0 
-10 0:5.8 1:0.2 2:0.1737 3:0.7 4:0.7 5:0.1 6:0.6 7:0.1 8:0 9:0 10:0 11:0 12:4 13:0 
-10 0:4.3 1:0.4 2:0.1994 3:0 4:0 5:0.1 6:0.3 7:0.1 8:0.1 9:0 10:0 11:0 12:4 13:0 
-10 0:3.7 1:0.2 2:0.119 3:0.3 4:0.3 5:0.2 6:0.1 7:0.4 8:0 9:0 10:0 11:0 12:6 13:0 
-10 0:4.5 1:0.2 2:0.0703 3:0.1 4:0.1 5:0.1 6:0 7:0.1 8:0 9:0 10:0 11:0 12:4 13:0 
-10 0:5.3 1:0 2:0.1065 3:0.1 4:0.1 5:0.1 6:0 7:0.1 8:0 9:0 10:7.512 11:0 12:3.5 13:0 
-10 0:2.8 1:0.6 2:0.1428 3:0.2 4:0.2 5:0.1 6:0.6 7:0.1 8:0 9:0 10:0 11:0 12:5 13:0 
-10 0:3.2 1:0.2 2:0.0544 3:0.2 4:0.2 5:0.2 6:0.5 7:0 8:0 9:0 10:0 11:0 12:4.3 13:0 
-10 0:3.6 1:0.1 2:0.0713 3:0.5 4:0.5 5:0.1 6:0.1 7:0.1 8:0 9:0 10:0 11:0 12:5.5 13:0 
