svm_type c_svc
kernel_type rbf
gamma 0.0001
nr_class 2
total_sv 248
rho 0.47220966378079676
label 1 0
probA -6.2774385622041925e+66
probB -6.2774385622041925e+66
nr_sv 120 128
SV
10 0:3.7 1:0.6 2:0.2688 3:0 4:0 5:0.1 6:0.1 7:0.1 8:0 9:0 10:0 11:0 12:8 13:0 
10 0:6.4 1:0.6 2:0.1219 3:0 4:0 5:0.1 6:0.1 7:0.1 8:0 9:0 10:7.512 11:0 12:5.5 13:0 
10 0:3 1:0.1 2:0.1141 3:0.7 4:0.7 5:0.1 6:0.3 7:0.1 8:0 9:0 10:7.512 11:0 12:6.5 13:0 
10 0:3.7 1:0.6 2:0.1474 3:0 4:0 5:0.1 6:0.3 7:0.1 8:0 9:0 10:0 11:0 12:3.5 13:0 
10 0:5.9 1:0.6 2:0.0849 3:0 4:0 5:0.1 6:0.1 7:0.1 8:0 9:0 10:0 11:0 12:4 13:0.8 
10 0:4.6 1:0.2 2:0.1056 3:0.1 4:0.1 5:0.1 6:0 7:0.1 8:0 9:0 10:0 11:0 12:5.8 13:0 
10 0:4 1:0.2 2:0.0584 3:1.2 4:1.2 5:0.1 6:0.9 7:0.1 8:0 9:0 10:0 11:0 12:4 13:0 
10 0:4.8 1:0.2 2:0.0852 3:0.3 4:0.3 5:0.2 6:0.1 7:0.4 8:0 9:0.1 10:0 11:0 12:4 13:0 
10 0:4.9 1:0.2 2:0.1666 3:1.2 4:1.2 5:0.1 6:0.7 7:0.1 8:0.1 9:0 10:0 11:0 12:4.2 13:0 
10 0:4.1 1:0.2 2:0.0831 3:0.5 4:0.5 5:0.1 6:0.6 7:0.1 8:0 9:0 10:0 11:0.9435 12:5 13:0 
10 0:6.2 1:0.2 2:0.0915 3:0.9 4:0.9 5:0.1 6:0.3 7:0.1 8:0 9:0 10:3.844 11:0 12:4 13:0.5 
10 0:4.4 1:0.2 2:0.1473 3:0.6 4:0.6 5:0.1 6:0.6 7:0.1 8:0 9:0 10:0 11:0.924 12:4 13:0 
10 0:2.6 1:0.2 2:0.1813 3:0.1 4:0.1 5:0.1 6:0.5 7:0.1 8:0 9:0 10:0 11:0 12:5 13:0 
10 0:3.9 1:0.2 2:0.0874 3:0.1 4:0.1 5:0.2 6:0 7:0 8:0 9:0 10:5.26 11:0 12:4 13:0 
10 0:4 1:0.2 2:0.0702 3:0.5 4:0.5 5:0.1 6:0.6 7:0.1 8:0 9:0 10:0 11:0 12:4.5 13:0 
10 0:5.5 1:0.2 2:0.0668 3:0.3 4:0.3 5:0.1 6:0.3 7:0.1 8:0 9:0 10:7.512 11:0 12:5 13:0.5 
10 0:3.3 1:0.2 2:0.1013 3:0.1 4:0.1 5:0 6:0.3 7:0 8:0 9:0 10:0 11:0 12:6 13:0 
10 0:5.7 1:0.2 2:0.1609 3:0.1 4:0.1 5:0.1 6:0.9 7:0.1 8:0.1 9:0 10:0 11:0 12:4 13:0 
10 0:3.6 1:0.2 2:0.0579 3:0.6 4:0.6 5:0.1 6:0.3 7:0.2 8:0 9:0.1 10:0 11:0 12:3 13:0 
10 0:4.5 1:0.2 2:0.0315 3:0.3 4:0.3 5:0.1 6:0.3 7:0.1 8:0 9:0 10:0 11:0 12:3.6 13:0.8 
10 0:5.4 1:0.2 2:0.0366 3:0.1 4:0.1 5:0.1 6:0.9 7:0.1 8:0 9:0 10:0 11:0 12:4 13:0 
10 0:6 1:0.2 2:0.0365 3:0.1 4:0.1 5:0.1 6:0.3 7:0.1 8:0 9:0 10:0 11:0 12:4 13:0 
10 0:4.8 1:0.1 2:0.0399 3:0.5 4:0.5 5:0.1 6:0.5 7:0.1 8:0 9:0 10:0 11:0 12:7 13:0 
10 0:4.4 1:0.1 2:0.1219 3:0.1 4:0.1 5:0.1 6:0.1 7:0.1 8:0 9:0 10:0 11:0.9885 12:4.5 13:0 
10 0:6.1 1:0.1 2:0.1108 3:1 4:1 5:0.1 6:0.3 7:0.1 8:0 9:0 10:0 11:0 12:3.5 13:0 
10 0:5.2 1:0.2 2:0.1004 3:0 4:0 5:0.1 6:0.5 7:0.2 8:0 9:0.1 10:7.512 11:0 12:6 13:0 
10 0:4 1:0 2:0.235 3:0.6 4:0.6 5:0.1 6:0 7:0.1 8:0 9:0 10:0 11:0 12:4 13:0 
10 0:5.7 1:0.2 2:0.1195 3:0.5 4:0.5 5:0.1 6:0.1 7:0.1 8:0 9:0 10:0 11:0 12:5 13:0 
10 0:3.4 1:0.6 2:0.1194 3:0 4:0 5:0.1 6:0.3 7:0.1 8:0 9:0 10:0 11:0 12:6 13:0 
10 0:5.4 1:0.2 2:0.1402 3:0.1 4:0.1 5:0.1 6:0.9 7:0.1 8:0 9:0 10:2.589 11:0 12:5 13:0 
10 0:4.2 1:0.2 2:0.1936 3:0 4:0 5:0.1 6:0.3 7:0.1 8:0 9:0 10:0 11:0 12:4.5 13:0 
10 0:4.8 1:0.2 2:0.0861 3:0.3 4:0.3 5:0.1 6:0.3 7:0.1 8:0 9:0 10:7.512 11:0 12:4 13:0 
10 0:6.5 1:0 2:0.1421 3:0.3 4:0.3 5:0.1 6:0.3 7:0.1 8:0 9:0 10:3.257 11:0 12:3.5 13:0 
10 0:7.1 1:0.6 2:0.0909 3:0.1 4:0.1 5:0.1 6:0 7:0.2 8:0 9:0.1 10:0 11:0 12:2 13:0 
10 0:3.5 1:0.2 2:0.081 3:0 4:0 5:0.1 6:0.1 7:0.1 8:0 9:0 10:0 11:0 12:5.5 13:0 
10 0:4.1 1:0.2 2:0.2865 3:0.1 4:0.1 5:0.1 6:0.6 7:0.1 8:0.1 9:0 10:0 11:0 12:4 13:0 
10 0:4.4 1:0.2 2:0.0817 3:0 4:0 5:0.1 6:0.3 7:0.1 8:0 9:0 10:7.512 11:0 12:5 13:1.3 
10 0:4.4 1:0.2 2:0.0749 3:0 4:0 5:0.1 6:0.1 7:0.1 8:0 9:0 10:0 11:0 12:4 13:0 
10 0:5 1:0.6 2:0.1088 3:0.5 4:0.5 5:0.1 6:0.5 7:0.1 8:0 9:0 10:0 11:0 12:6 13:0 
10 0:4.6 1:0.2 2:0.0678 3:1 4:1 5:0.1 6:0.3 7:0.1 8:0 9:0 10:0 11:0 12:6 13:0 
10 0:4.4 1:0.2 2:0.0297 3:0.6 4:0.6 5:0.1 6:0.5 7:0.1 8:0 9:0 10:3.844 11:0 12:4 13:0 
10 0:4.7 1:0.2 2:0.116 3:0.6 4:0.6 5:0.1 6:0 7:0.2 8:0 9:0.1 10:0 11:0 12:4 13:1.3 
10 0:6.4 1:0.5 2:0.1143 3:0.1 4:0.1 5:0.1 6:0.5 7:0.1 8:0 9:0 10:0 11:0 12:4 13:0.5 
10 0:3.7 1:0.2 2:0.128 3:0.1 4:0.1 5:0.1 6:0.1 7:0.1 8:0 9:0 10:0 11:0.951 12:4.5 13:0 
10 0:3.7 1:0.2 2:0.1162 3:0.1 4:0.1 5:0.1 6:0.1 7:0.1 8:0 9:0 10:0 11:0.9435 12:5 13:0 
10 0:4.4 1:0.2 2:0.0986 3:0.9 4:0.9 5:0.1 6:0.3 7:0.1 8:0 9:0 10:0 11:0 12:4 13:0 
10 0:5.3 1:0 2:0.1912 3:0.1 4:0.1 5:0.1 6:0.1 7:0.2 8:0 9:0.1 10:7.512 11:0 12:4 13:0 
10 0:5.1 1:0.2 2:0.282 3:0.1 4:0.1 5:0.1 6:0.9 7:0.1 8:0.1 9:0 10:0 11:0.951 12:4 13:0 
10 0:5.6 1:0.2 2:0.1273 3:0.1 4:0.1 5:0.1 6:0.6 7:0.1 8:0 9:0 10:0 11:0 12:4.8 13:0 
10 0:4.3 1:0.2 2:0.137 3:0.3 4:0.3 5:0.1 6:0.1 7:0.1 8:0 9:0 10:0 11:0.951 12:4 13:0 
10 0:3.8 1:0.2 2:0.1064 3:0 4:0 5:0.1 6:0.5 7:0.1 8:0 9:0 10:0 11:0 12:4 13:0 
10 0:4.1 1:0.2 2:0.1589 3:0.3 4:0.3 5:0.1 6:0.3 7:0.1 8:0.2 9:0 10:0 11:0 12:4.5 13:2.7 
10 0:3.5 1:0.2 2:0.0206 3:0 4:0 5:0.1 6:0.5 7:0.1 8:0 9:0 10:0 11:0 12:4.5 13:0 
10 0:3.8 1:0.2 2:0.0588 3:0 4:0 5:0.2 6:0.5 7:0 8:0 9:0 10:0 11:0 12:4.8 13:0 
10 0:4 1:0.4 2:0.1487 3:0.5 4:0.5 5:0.1 6:0.1 7:0.1 8:0 9:0 10:0 11:0 12:4.2 13:0 
10 0:5.5 1:0.2 2:0.1352 3:0.1 4:0.1 5:0.1 6:0.6 7:0.1 8:0 9:0 10:0 11:0 12:4 13:0 
10 0:4.9 1:0.2 2:0.1264 3:0.3 4:0.3 5:0.1 6:0.3 7:0.2 8:0 9:0.1 10:0 11:0 12:5 13:0 
10 0:6.4 1:0.1 2:0.0917 3:0 4:0 5:0.1 6:0.1 7:0.1 8:0 9:0 10:7.512 11:0 12:3.5 13:0 
10 0:4.5 1:0.2 2:0.1241 3:0 4:0 5:0.2 6:0.4 7:0 8:0 9:0 10:0 11:0 12:4.5 13:0.5 
10 0:3 1:0.2 2:0.0801 3:0 4:0 5:0.1 6:0 7:0.1 8:0 9:0 10:0 11:0 12:4 13:0 
10 0:5.3 1:0.1 2:0.1333 3:0.1 4:0.1 5:0.1 6:0.1 7:0.1 8:0.1 9:0 10:0 11:0 12:4.5 13:0 
10 0:4.2 1:0.2 2:0.171 3:0.5 4:0.5 5:0.1 6:0.3 7:0.2 8:0 9:0.1 10:0 11:0 12:5 13:0 
10 0:2.6 1:0.2 2:0.1137 3:0.5 4:0.5 5:0.1 6:1 7:0.1 8:0 9:0 10:1.5515 11:0 12:4 13:0 
10 0:5.1 1:0.2 2:0.0816 3:0.7 4:0.7 5:0.1 6:0.6 7:0.1 8:0 9:0 10:1.5515 11:0 12:5 13:0 
10 0:4.9 1:0.2 2:0.1153 3:0.1 4:0.1 5:0.1 6:0.4 7:0.2 8:0.1 9:0.1 10:0 11:0 12:4 13:0 
10 0:4.3 1:0.2 2:0.1317 3:0.5 4:0.5 5:0.1 6:0.5 7:0.1 8:0 9:0 10:3.844 11:0 12:4 13:0 
10 0:3.8 1:0.2 2:0.0211 3:0 4:0 5:0.1 6:0.5 7:0.1 8:0 9:0 10:3.649 11:0 12:4 13:0 
10 0:3.9 1:0.2 2:0.1619 3:0 4:0 5:0.1 6:0.1 7:0.1 8:0 9:0 10:0 11:0 12:5 13:0 
10 0:4.2 1:0.4 2:0.2307 3:0 4:0 5:0.3 6:0.3 7:0 8:0 9:0.1 10:4.307 11:0 12:4.5 13:0 
10 0:3.5 1:0.4 2:0.0701 3:0.3 4:0.3 5:0.1 6:0.3 7:0.2 8:0 9:0.1 10:0 11:0 12:3.5 13:0 
10 0:3.9 1:0.2 2:0.0539 3:0.3 4:0.3 5:0.1 6:0.1 7:0.1 8:0.2 9:0 10:7.512 11:0 12:4 13:0 
10 0:3.3 1:0.2 2:0.1055 3:0.1 4:0.1 5:0.1 6:0.5 7:0.1 8:0 9:0 10:1.5515 11:0 12:4 13:0 
10 0:5 1:0.3 2:0.1084 3:0.1 4:0.1 5:0.1 6:0 7:0.1 8:0 9:0 10:0 11:0 12:4 13:0 
10 0:3.8 1:0.6 2:0.0766 3:1 4:1 5:0.1 6:0.3 7:0.1 8:0.2 9:0 10:0 11:0 12:4 13:0 
10 0:3.5 1:0.2 2:0.1249 3:0.7 4:0.7 5:0.1 6:0.1 7:0.1 8:0 9:0 10:3.649 11:0 12:5 13:0 
10 0:5.1 1:0.2 2:0.1113 3:0 4:0 5:0.1 6:0.7 7:0.1 8:0 9:0 10:0 11:0 12:5.6 13:0 
10 0:4.9 1:0.2 2:0.1279 3:0.1 4:0.1 5:0.1 6:0.5 7:0.1 8:0 9:0 10:0 11:0 12:4 13:0 
10 0:4.3 1:0 2:0.14 3:0 4:0 5:0.1 6:0 7:0.1 8:0 9:0 10:0 11:0 12:5 13:0 
10 0:5.1 1:0.2 2:0.108 3:0.1 4:0.1 5:0.1 6:0.7 7:0.1 8:0 9:0 10:0 11:0 12:8.4 13:0 
10 0:5.1 1:0.2 2:0.1505 3:0 4:0 5:0.2 6:0.1 7:0.4 8:0 9:0 10:0 11:0 12:4 13:0 
10 0:3.2 1:0.6 2:0.1662 3:0.1 4:0.1 5:0.1 6:0.6 7:0.1 8:0 9:0 10:2.589 11:0 12:4.5 13:0 
10 0:4.7 1:0.4 2:0.1162 3:0.6 4:0.6 5:0.1 6:0 7:0.2 8:0 9:0.1 10:0 11:0 12:3.5 13:0 
10 0:6.1 1:0.4 2:0.0648 3:0 4:0 5:0.1 6:0.1 7:0.1 8:0 9:0 10:2.589 11:0 12:5 13:0 
10 0:3.8 1:0.4 2:0.0491 3:0.1 4:0.1 5:0.1 6:1.1 7:0.1 8:0.2 9:0 10:0 11:0 12:5.4 13:0 
10 0:3.2 1:0.1 2:0.2026 3:0 4:0 5:0.1 6:0.3 7:0.1 8:0 9:0 10:0 11:0 12:4.5 13:0 
10 0:3.1 1:0.2 2:0.1072 3:0.5 4:0.5 5:0.1 6:0.1 7:0.1 8:0 9:0 10:0 11:0 12:6.5 13:0 
10 0:6.3 1:0.2 2:0.1182 3:0.5 4:0.5 5:0.1 6:0.5 7:0.1 8:0.1 9:0 10:0 11:0 12:4 13:0 
10 0:4.4 1:0.2 2:0.0983 3:0.5 4:0.5 5:0.4 6:0.1 7:0 8:0 9:0 10:0 11:0 12:4.5 13:0 
10 0:4.2 1:0.2 2:0.0697 3:0 4:0 5:0.1 6:1 7:0.1 8:0 9:0 10:0 11:0 12:4 13:0 
10 0:4.4 1:0.1 2:0.1677 3:0.1 4:0.1 5:0.1 6:0.3 7:0.2 8:0 9:0.1 10:0 11:0 12:4 13:1.3 
10 0:5.5 1:0.1 2:0.1253 3:0.5 4:0.5 5:0.1 6:0.8 7:0.1 8:0 9:0 10:0 11:0 12:9.9 13:0 
10 0:3.4 1:0.2 2:0.1304 3:0.3 4:0.3 5:0.1 6:0.3 7:0.1 8:0 9:0 10:0 11:0 12:5.5 13:0 
10 0:4.2 1:0.4 2:0.3025 3:0 4:0 5:0.4 6:0.1 7:0 8:0 9:0 10:0 11:0 12:4.5 13:0 
10 0:3.9 1:0.2 2:0.1218 3:0.5 4:0.5 5:0.1 6:0.6 7:0.1 8:0 9:0 10:0 11:0 12:5 13:0 
10 0:4.4 1:0.2 2:0.1099 3:0.1 4:0.1 5:0.1 6:0.9 7:0.1 8:0 9:0 10:0 11:0 12:4 13:0 
10 0:4.2 1:0.4 2:0.0827 3:0.3 4:0.3 5:0.1 6:0.1 7:0.1 8:0 9:0 10:0 11:0.951 12:6 13:0 
10 0:3.8 1:0.2 2:0.0813 3:0.3 4:0.3 5:0.1 6:0.6 7:0.1 8:0.1 9:0 10:0 11:0 12:4 13:0 
10 0:4.4 1:0.2 2:0.0217 3:0.5 4:0.5 5:0.1 6:1 7:0.1 8:0 9:0 10:0 11:0 12:1.8 13:0 
10 0:3 1:0.2 2:0.1564 3:0 4:0 5:0 6:0.1 7:0 8:0 9:0 10:0 11:0 12:5.5 13:0 
10 0:2.5 1:0.2 2:0.1435 3:0.1 4:0.1 5:0.1 6:1 7:0.5 8:0 9:0.1 10:0 11:0 12:4.8 13:0 
10 0:5 1:0 2:0.1081 3:0 4:0 5:0.1 6:0.1 7:0.1 8:0 9:0 10:0 11:0 12:4 13:0.9 
10 0:4.6 1:0.2 2:0.1652 3:0.1 4:0.1 5:0.1 6:0 7:0.2 8:0 9:0.1 10:3.844 11:0 12:4 13:0 
10 0:3.7 1:0.2 2:0.2241 3:0.3 4:0.3 5:0.1 6:0.1 7:0.1 8:0 9:0 10:0 11:1.2075 12:6 13:0 
10 0:4 1:0.2 2:0.0697 3:0.3 4:0.3 5:0.1 6:0.1 7:0.1 8:0 9:0 10:0 11:0 12:4 13:0 
10 0:3.2 1:0.2 2:0.1294 3:0.5 4:0.5 5:0.1 6:0.1 7:0.1 8:0 9:0 10:0 11:0 12:4 13:0 
10 0:5.1 1:0.4 2:0.1085 3:0.3 4:0.3 5:0.1 6:0.3 7:0.1 8:0 9:0 10:0 11:0 12:4 13:0 
10 0:5 1:0.2 2:0.1003 3:0.3 4:0.3 5:0.1 6:0.3 7:0.1 8:0 9:0 10:7.512 11:0 12:4.5 13:0 
10 0:4.9 1:0.2 2:0.182 3:0 4:0 5:0.1 6:0.5 7:0.1 8:0 9:0 10:0 11:0 12:5 13:0 
10 0:4.5 1:0.1 2:0.091 3:0.1 4:0.1 5:0.1 6:0.5 7:0.1 8:0.2 9:0 10:0 11:0 12:5 13:0.5 
10 0:2.6 1:0.2 2:0.0835 3:0.3 4:0.3 5:0 6:0.3 7:0 8:0 9:0 10:4.307 11:0 12:4 13:0 
10 0:4 1:0.2 2:0.0828 3:0 4:0 5:0.3 6:0.3 7:0 8:0.2 9:0 10:6.775 11:0 12:4 13:1.6 
10 0:4.8 1:0.1 2:0.0712 3:0.2 4:0.2 5:0.1 6:0.8 7:0.1 8:0 9:0 10:0 11:0 12:5 13:0 
10 0:4.9 1:0.3 2:0.1143 3:0.1 4:0.1 5:0.1 6:0 7:0.1 8:0 9:0 10:0 11:0 12:4 13:0 
10 0:3.6 1:0.2 2:0.0164 3:0.1 4:0.1 5:0.1 6:0.6 7:0.1 8:0 9:0 10:1.5515 11:0 12:4 13:0 
10 0:6 1:0.6 2:0.1342 3:0.5 4:0.5 5:0.1 6:0.1 7:0.1 8:0 9:0 10:3.844 11:0 12:5 13:0 
10 0:5.4 1:0.6 2:0.0943 3:0.5 4:0.5 5:0.1 6:0.5 7:0.1 8:0 9:0 10:0 11:0 12:4.5 13:0 
10 0:4.7 1:0.2 2:0.2468 3:0.5 4:0.5 5:0 6:0.5 7:0 8:0 9:0 10:0 11:0 12:7 13:0 
10 0:3 1:0.2 2:0.139 3:0 4:0 5:0 6:0.1 7:0.4 8:0 9:0.1 10:0 11:0 12:4.5 13:0 
10 0:4.9 1:0.2 2:0.087 3:0.1 4:0.1 5:0.1 6:0.5 7:0.1 8:0 9:0 10:0 11:0 12:6 13:0 
10 0:3.7 1:0.2 2:0.2578 3:0 4:0 5:0.1 6:0.5 7:0.1 8:0 9:0 10:0 11:0 12:5.5 13:0 
-10 0:4.9 1:0.2 2:0.0341 3:0.5 4:0.5 5:0.2 6:0.9 7:0 8:0 9:0 10:1.6625 11:0 12:4.5 13:0 
-0.7077630110693679 0:2 1:0.2 2:0.0222 3:0.5 4:0.5 5:0 6:0.4 7:0 8:0 9:0 10:0 11:0 12:4.5 13:0 
-10 0:6 1:0.5 2:0.1974 3:0.3 4:0.3 5:0.1 6:0.5 7:0.1 8:0 9:0 10:0 11:0 12:4 13:0 
-10 0:5.8 1:0 2:0.0329 3:0.1 4:0.1 5:0.1 6:0.1 7:0.1 8:0 9:0 10:0 11:0 12:4 13:0 
-10 0:4.2 1:0.2 2:0.1666 3:0.1 4:0.1 5:0.1 6:0.5 7:0.1 8:0 9:0 10:0 11:0 12:5 13:0 
-10 0:4.2 1:0 2:0.2961 3:0.5 4:0.5 5:0.1 6:0 7:0.1 8:0.1 9:0 10:0 11:0 12:4 13:0 
-10 0:6.6 1:0.1 2:0.203 3:0.7 4:0.7 5:0.1 6:0.3 7:0.1 8:0 9:0 10:0 11:0 12:5 13:0 
-10 0:4.4 1:0.2 2:0.0842 3:0 4:0 5:0.2 6:0.4 7:0 8:0.2 9:0 10:0 11:0 12:4 13:2.7 
-10 0:5.9 1:0.2 2:0.1934 3:0 4:0 5:0.1 6:0 7:0.2 8:0 9:0.1 10:1.4425 11:0 12:3 13:0 
-10 0:2.5 1:0.2 2:0.1443 3:0 4:0 5:0 6:0.1 7:0.3 8:0 9:0 10:0 11:0.67 12:4 13:0 
-3.8705551936103855 0:1.7 1:0.4 2:0.0218 3:0.4 4:0.4 5:0 6:0.4 7:0.3 8:0.1 9:0 10:0 11:0 12:0.9 13:0 
-10 0:2.6 1:0.4 2:0.1129 3:0 4:0 5:0 6:0.3 7:0 8:0 9:0 10:0 11:1.1695 12:5.5 13:0 
-4.0569491285397241 0:3.4 1:0.2 2:0.0829 3:0.5 4:0.5 5:0.1 6:0.1 7:0.1 8:0 9:0 10:0 11:0 12:4 13:0 
-10 0:6.2 1:0.2 2:0.1102 3:1 4:1 5:0.1 6:0.3 7:0.1 8:0 9:0 10:0 11:0.814 12:7 13:0 
-10 0:5.9 1:0.4 2:0.1125 3:0.5 4:0.5 5:0.1 6:0.6 7:0.1 8:0 9:0 10:0 11:0 12:4 13:0 
-10 0:6.9 1:0.5 2:0.3213 3:1.1 4:1.1 5:0.2 6:0.5 7:0 8:0 9:0 10:0 11:0 12:4 13:0 
-10 0:3.8 1:0.2 2:0.1225 3:0 4:0 5:0.1 6:0 7:0.1 8:0 9:0 10:0 11:0 12:4 13:0 
-10 0:4.1 1:0.1 2:0.1325 3:0.1 4:0.1 5:0 6:0.5 7:0 8:0 9:0 10:0 11:0 12:5 13:0.5 
-10 0:2.5 1:0.2 2:0.2391 3:0.1 4:0.1 5:0 6:0.7 7:0 8:0 9:0 10:0 11:0 12:6.5 13:0 
-10 0:1.8 1:0.2 2:0.1416 3:1.5 4:1.5 5:0 6:0.2 7:0.3 8:0 9:0 10:0 11:0 12:0.6 13:0 
-10 0:4.9 1:0.5 2:0.1773 3:1.2 4:1.2 5:0.4 6:0.5 7:0.3 8:0 9:0 10:1.088 11:0 12:4 13:0 
-10 0:5.2 1:0.2 2:0.1414 3:0.7 4:0.7 5:0.1 6:0 7:0.1 8:0 9:0 10:0 11:0 12:4 13:0 
-10 0:3.8 1:0.1 2:0.1747 3:0.1 4:0.1 5:0 6:0.8 7:0 8:0 9:0 10:0 11:0 12:5.2 13:0 
-10 0:3.2 1:0.4 2:0.1659 3:0 4:0 5:0 6:0.3 7:0 8:0 9:0 10:0 11:0 12:5 13:0 
-10 0:2.9 1:0.2 2:0.1362 3:0 4:0 5:0.1 6:0.5 7:0.1 8:0 9:0 10:0 11:0 12:5 13:0 
-10 0:4.8 1:0.1 2:0.0445 3:0.1 4:0.1 5:0.1 6:0.8 7:0.1 8:0 9:0 10:0 11:0 12:5 13:0 
-10 0:5.1 1:0.2 2:0.0483 3:0.5 4:0.5 5:0.2 6:0.1 7:0.4 8:0 9:0 10:0 11:0 12:4.5 13:3.2 
-10 0:2.6 1:0.4 2:0.0313 3:0 4:0 5:0.1 6:0.3 7:0.1 8:0 9:0 10:0 11:0 12:4 13:0 
-10 0:2 1:0.5 2:0.1404 3:0.5 4:0.5 5:0 6:0.5 7:0.3 8:0 9:0 10:0.5275 11:0 12:5 13:0 
-10 0:3.3 1:0.4 2:0.0814 3:0.1 4:0.1 5:0.1 6:0 7:0.2 8:0 9:0.1 10:0 11:0 12:6 13:0 
-10 0:1.9 1:0.2 2:0.1199 3:0.2 4:0.2 5:0 6:0.9 7:0.3 8:0 9:0 10:0 11:0 12:6 13:0 
-10 0:2.4 1:0.2 2:0.1468 3:0 4:0 5:0 6:0.5 7:0 8:0 9:0 10:0 11:0 12:5 13:0 
-10 0:5.7 1:0 2:0.0467 3:0.1 4:0.1 5:0.2 6:0.1 7:0 8:0 9:0.1 10:0 11:0 12:5 13:0 
-10 0:6.7 1:0.2 2:0.2163 3:0.1 4:0.1 5:0.1 6:0 7:0.1 8:0 9:0 10:0 11:0 12:3.5 13:0 
-10 0:5.8 1:0.1 2:0.1437 3:1.5 4:1.5 5:0.2 6:0.5 7:0 8:0 9:0.1 10:0 11:0 12:5.2 13:0 
-10 0:4.4 1:0.2 2:0.1 3:0.5 4:0.5 5:0.1 6:0.1 7:0.1 8:0 9:0 10:0 11:0 12:4 13:0 
-10 0:3.9 1:0.2 2:0.2231 3:0.2 4:0.2 5:0.1 6:0.4 7:0.1 8:0 9:0 10:1.2035 11:0 12:7 13:0.4 
-10 0:2.8 1:0.2 2:0.0609 3:0.1 4:0.1 5:0 6:0.5 7:0 8:0 9:0.1 10:1.101 11:0 12:4.8 13:0 
-10 0:5.9 1:0.2 2:0.0974 3:1.2 4:1.2 5:0.2 6:0 7:0 8:0.1 9:0.1 10:0 11:0 12:4 13:0 
-10 0:4.7 1:0.2 2:0.1351 3:0.1 4:0.1 5:0.1 6:0.6 7:0.1 8:0 9:0 10:0 11:0 12:4.8 13:0 
-10 0:4.9 1:0.4 2:0.0728 3:0.1 4:0.1 5:0.1 6:0.6 7:0.1 8:0 9:0 10:0 11:1.001 12:4 13:0 
-10 0:4.3 1:0.2 2:0.1252 3:0 4:0 5:0 6:0.3 7:0 8:0 9:0 10:0 11:0 12:4 13:0 
-10 0:4.4 1:0.2 2:0.3009 3:0.1 4:0.1 5:0.1 6:0.2 7:0.1 8:0.1 9:0 10:0 11:0 12:4 13:0 
-10 0:5.2 1:0.2 2:0.0641 3:0.1 4:0.1 5:0.1 6:0 7:0.1 8:0 9:0 10:0 11:0 12:4 13:0 
-10 0:4.3 1:0.2 2:0.0569 3:0.5 4:0.5 5:0 6:0.1 7:0.4 8:0 9:0 10:0 11:0 12:5 13:0 
-10 0:5.1 1:0.2 2:0.0821 3:0.8 4:0.8 5:0.1 6:0.6 7:0.1 8:0 9:0 10:1.4805 11:0 12:4 13:0 
-10 0:4.3 1:0.2 2:0.0258 3:0.3 4:0.3 5:0.2 6:0.1 7:0.4 8:0 9:0 10:0 11:0 12:5 13:0 
-10 0:2.7 1:0.3 2:0.087 3:0.5 4:0.5 5:0.1 6:0.6 7:0.1 8:0 9:0 10:0 11:0 12:5 13:0 
-10 0:2.6 1:0.2 2:0.1622 3:0.1 4:0.1 5:0.1 6:0.9 7:0.1 8:0 9:0 10:0 11:0 12:6 13:0 
-10 0:2 1:0.1 2:0.1436 3:0.1 4:0.1 5:0 6:0.7 7:0.3 8:0 9:0 10:0 11:0 12:8 13:0 
-8.2950760878889636 0:4.3 1:0.2 2:0.0269 3:0.1 4:0.1 5:0 6:0.4 7:0 8:0.1 9:0.1 10:0 11:0 12:4.5 13:0 
-10 0:1.7 1:0.2 2:0.0705 3:0.2 4:0.2 5:0 6:0 7:0.3 8:0 9:0.1 10:0.5275 11:0 12:2 13:0 
-6.0182377855439588 0:1.9 1:0.2 2:0.2547 3:0.1 4:0.1 5:0 6:0.5 7:0.3 8:0 9:0 10:0 11:0 12:5 13:0 
-10 0:4.4 1:0.2 2:0.1029 3:0.5 4:0.5 5:0.1 6:0.5 7:0.1 8:0 9:0 10:0 11:0 12:5 13:0 
-10 0:4.9 1:0.2 2:0.0219 3:0.1 4:0.1 5:0.1 6:0.1 7:0.2 8:0 9:0.1 10:0 11:0 12:4.3 13:0 
-3.4949114676836728 0:4.4 1:0.2 2:0.1376 3:0.1 4:0.1 5:0.2 6:0.6 7:0 8:0 9:0 10:0 11:0 12:4.5 13:0 
-10 0:5.4 1:0.2 2:0.1208 3:0.3 4:0.3 5:0.1 6:0.3 7:0.1 8:0 9:0 10:0 11:0 12:6 13:0 
-10 0:4.2 1:0.2 2:0.1296 3:0 4:0 5:0.2 6:0 7:0 8:0 9:0.1 10:0 11:0 12:4 13:0 
-10 0:5.1 1:0.4 2:0.0687 3:0.1 4:0.1 5:0.1 6:1.1 7:0.1 8:0 9:0 10:0 11:0 12:7 13:0 
-10 0:2.4 1:0.2 2:0.1223 3:0.3 4:0.3 5:0 6:0.1 7:0.3 8:0 9:0 10:3.4245 11:0 12:9 13:0 
-10 0:4.6 1:0.2 2:0.0384 3:0.5 4:0.5 5:0 6:0.1 7:0 8:0.1 9:0 10:0 11:0 12:4 13:0 
-10 0:5.7 1:0.4 2:0.0355 3:0.1 4:0.1 5:0.1 6:0.7 7:0.1 8:0 9:0 10:0 11:0 12:7.2 13:0 
-10 0:4.3 1:0.1 2:0.1314 3:0.5 4:0.5 5:0.1 6:0.6 7:0.1 8:0 9:0 10:0 11:0 12:6 13:0 
-10 0:4.2 1:0.2 2:0.1238 3:0.5 4:0.5 5:0.6 6:0.1 7:0 8:0 9:0.1 10:0 11:0 12:5.5 13:0 
-10 0:3.8 1:0.2 2:0.2069 3:0.1 4:0.1 5:0.2 6:0.7 7:0 8:0 9:0 10:0 11:0 12:6 13:0 
-10 0:4.7 1:0.1 2:0.1107 3:0 4:0 5:0.2 6:0.1 7:0 8:0.2 9:0 10:0 11:0 12:6 13:2.8 
-10 0:4 1:0.1 2:0.0231 3:0.1 4:0.1 5:0 6:0.8 7:0 8:0 9:0 10:0 11:0 12:7 13:0 
-10 0:5.1 1:0.5 2:0.1139 3:0.1 4:0.1 5:0.1 6:0.5 7:0.1 8:0 9:0 10:0 11:0 12:4 13:0 
-10 0:6.5 1:0.5 2:0.1807 3:0.1 4:0.1 5:0.1 6:0.5 7:0.1 8:0 9:0 10:0 11:0 12:4 13:0 
-10 0:7.1 1:0.2 2:0.0714 3:0.1 4:0.1 5:0.1 6:1.1 7:0.1 8:0 9:0 10:3.3835 11:0 12:2 13:0 
-10 0:5.9 1:0.4 2:0.1003 3:0.1 4:0.1 5:0.6 6:0.8 7:0.4 8:0 9:0 10:0 11:1.1695 12:4 13:0 
-10 0:3.7 1:0.2 2:0.1854 3:0.1 4:0.1 5:0.1 6:0.1 7:0.1 8:0 9:0 10:0 11:0 12:4 13:0 
-10 0:3.1 1:0.2 2:0.0131 3:0.6 4:0.6 5:0 6:0 7:0 8:0 9:0 10:1.101 11:0 12:3.8 13:0 
-5.8228400938572635 0:4.7 1:0.2 2:0.1211 3:0.4 4:0.4 5:0 6:0.4 7:0.4 8:0 9:0.1 10:0 11:0 12:5 13:0 
-10 0:3.2 1:0.2 2:0.0242 3:0 4:0 5:0 6:0 7:0 8:0 9:0 10:0 11:0 12:4 13:0 
-10 0:2.8 1:0.2 2:0.1269 3:0 4:0 5:0.1 6:0 7:0.1 8:0 9:0 10:0 11:0 12:4 13:0 
-10 0:4.1 1:0.2 2:0.0729 3:0.1 4:0.1 5:0 6:0.1 7:0 8:0 9:0 10:1.087 11:0 12:4 13:0 
-10 0:3.2 1:0.2 2:0.1395 3:0.1 4:0.1 5:0.1 6:0.5 7:0.1 8:0 9:0 10:0 11:0 12:4.9 13:0 
-10 0:7.3 1:0.4 2:0.1582 3:0.8 4:0.8 5:0.1 6:1.1 7:0.1 8:0 9:0 10:1.114 11:0 12:1 13:0 
-10 0:5.2 1:0.6 2:0.0686 3:0.1 4:0.1 5:0.2 6:0.1 7:0.4 8:0 9:0 10:0 11:0 12:3.8 13:0 
-10 0:5.7 1:0.2 2:0.0778 3:0.1 4:0.1 5:0.1 6:0.1 7:0.1 8:0 9:0 10:0 11:0 12:6 13:0 
-10 0:4.6 1:0.4 2:0.0246 3:0.1 4:0.1 5:0.1 6:0.6 7:0.1 8:0 9:0 10:0 11:0.951 12:4 13:0 
-10 0:4.5 1:0.2 2:0.1303 3:0.1 4:0.1 5:0.2 6:0.7 7:0.4 8:0 9:0.1 10:0 11:0 12:5.5 13:0 
-10 0:5.6 1:0.2 2:0.1774 3:0.1 4:0.1 5:0 6:0.6 7:0 8:0 9:0 10:0 11:0 12:4 13:0 
-2.9161272848502779 0:5.8 1:0.2 2:0.212 3:0.3 4:0.3 5:0.1 6:0.5 7:0.1 8:0 9:0 10:0 11:0 12:4 13:0 
-10 0:7 1:0.2 2:0.0209 3:0.1 4:0.1 5:0.1 6:0.8 7:0.1 8:0 9:0 10:0 11:0 12:3 13:0 
-10 0:4.5 1:0.2 2:0.2296 3:0 4:0 5:0.1 6:0 7:0.1 8:0.2 9:0 10:0 11:0 12:4 13:1.2 
-6.049306429825263 0:3.4 1:0.4 2:0.0424 3:0.5 4:0.5 5:0.1 6:0.7 7:0.1 8:0 9:0 10:0 11:0.7895 12:4 13:0 
-10 0:4.5 1:0.3 2:0.1855 3:0.1 4:0.1 5:0 6:0.7 7:0 8:0.1 9:0 10:1.6625 11:0 12:4 13:0 
-1.0282608302331775 0:6.3 1:0.5 2:0.1574 3:0.3 4:0.3 5:0.1 6:0.5 7:0.1 8:0 9:0 10:0 11:0 12:3 13:0 
-10 0:4.4 1:0 2:0.0374 3:0.3 4:0.3 5:0 6:0.3 7:0 8:0 9:0.1 10:0 11:0 12:6 13:0 
-10 0:3.6 1:0.3 2:0.0875 3:0.1 4:0.1 5:0.2 6:0 7:0 8:0 9:0.1 10:0 11:0 12:4.8 13:0 
-10 0:3.1 1:0.2 2:0.154 3:0.1 4:0.1 5:0 6:0 7:0.3 8:0.1 9:0 10:0 11:0 12:4 13:0 
-10 0:3.2 1:0 2:0.1162 3:0 4:0 5:0 6:0 7:0 8:0 9:0 10:0 11:0 12:3.7 13:0 
-10 0:4.2 1:0.1 2:0.1369 3:0 4:0 5:0.1 6:0.5 7:0.1 8:0 9:0 10:0 11:0 12:6 13:0 
-10 0:2.7 1:0.3 2:0.3452 3:0 4:0 5:0 6:0.1 7:0 8:0.1 9:0 10:0 11:0 12:4.8 13:0 
-10 0:6.8 1:0.2 2:0.0733 3:0.1 4:0.1 5:0 6:0.5 7:0 8:0 9:0.1 10:0 11:0 12:4 13:0 
-2.8123328476827298 0:2.2 1:0.1 2:0.0972 3:0.1 4:0.1 5:0 6:0.4 7:0.3 8:0 9:0 10:0 11:0 12:4 13:3.4 
-10 0:6.8 1:0.1 2:0.1338 3:0.1 4:0.1 5:0.1 6:0.8 7:0.1 8:0 9:0 10:0 11:0 12:4.5 13:0 
-10 0:6.8 1:0.2 2:0.046 3:0.5 4:0.5 5:0.6 6:0.5 7:0 8:0 9:0 10:0 11:0 12:4 13:0 
-10 0:4.5 1:0.2 2:0.0763 3:0 4:0 5:0.1 6:0.5 7:0.1 8:0 9:0 10:0 11:0 12:5.5 13:0 
-10 0:2.3 1:0.2 2:0.0814 3:0 4:0 5:0 6:0.3 7:0.3 8:0 9:0 10:0 11:0 12:5 13:0 
-10 0:2.9 1:0.2 2:0.1018 3:0.5 4:0.5 5:0 6:0.4 7:0 8:0.4 9:0 10:0 11:0.795 12:4 13:0.5 
-10 0:6.5 1:0.7 2:0.0183 3:0.8 4:0.8 5:0.6 6:0.8 7:0.4 8:0 9:0.1 10:0 11:0 12:5 13:0 
-10 0:3.1 1:0.2 2:0.0623 3:0.1 4:0.1 5:0 6:0.7 7:0 8:0 9:0 10:0 11:0 12:5 13:0 
-10 0:4.5 1:0.4 2:0.2307 3:0.3 4:0.3 5:0.2 6:0.3 7:0.4 8:0 9:0.1 10:0.753 11:0 12:4.5 13:0 
-10 0:5.2 1:0.6 2:0.1222 3:1 4:1 5:0.1 6:0.1 7:0.1 8:0 9:0 10:0 11:0 12:4 13:0 
-10 0:4.7 1:0.2 2:0.11 3:0 4:0 5:0.1 6:0.5 7:0.1 8:0 9:0 10:0 11:0 12:7 13:0 
-10 0:3 1:0.2 2:0.1388 3:0 4:0 5:0 6:0.5 7:0 8:0 9:0 10:0 11:0.8705 12:4.8 13:0 
-10 0:4.5 1:0.2 2:0.1279 3:0.1 4:0.1 5:0.1 6:0.2 7:0.1 8:0 9:0 10:0 11:0.814 12:4.5 13:0 
-10 0:5.7 1:0.2 2:0.1326 3:0.3 4:0.3 5:0 6:0.3 7:0 8:0 9:0 10:0 11:0 12:8 13:0 
-10 0:4.3 1:0.2 2:0.1132 3:0.5 4:0.5 5:0.2 6:0 7:0 8:0 9:0 10:0 11:0 12:4.8 13:0 
-10 0:9 1:0.2 2:0.1507 3:0 4:0 5:0.1 6:0.1 7:0.1 8:0 9:0 10:0 11:0 12:4.5 13:0 
-5.2601051309905458 0:3.8 1:0.4 2:0.1735 3:0 4:0 5:0.4 6:0.3 7:0.4 8:0.1 9:0 10:0 11:0 12:4 13:0 
-10 0:2.6 1:0.4 2:0.0701 3:0.1 4:0.1 5:0 6:0 7:0 8:0 9:0.1 10:0 11:0 12:4 13:0 
-8.0793694640771783 0:5.6 1:0.2 2:0.0216 3:1.2 4:1.2 5:0.1 6:0.5 7:0.1 8:0 9:0 10:0 11:0 12:4 13:0 
-10 0:4.4 1:0.1 2:0.3282 3:0 4:0 5:0.1 6:0.1 7:0.1 8:0 9:0 10:0 11:0 12:4 13:0 
-10 0:7.7 1:0.4 2:0.0982 3:0.1 4:0.1 5:0.1 6:0.1 7:0.1 8:0 9:0 10:0 11:0 12:0.6 13:0 
-10 0:6.8 1:0.2 2:0.1451 3:0.1 4:0.1 5:0.1 6:0.5 7:0.1 8:0 9:0 10:0 11:0 12:4 13:0 
-10 0:6.4 1:0.2 2:0.1158 3:0.1 4:0.1 5:0.6 6:0.4 7:0 8:0 9:0.1 10:0 11:0 12:3.8 13:0 
-10 0:2.6 1:0.2 2:0.1455 3:0 4:0 5:0 6:0.3 7:0 8:0 9:0.1 10:0 11:0 12:5 13:0 
-10 0:3.2 1:0.2 2:0.1645 3:0.1 4:0.1 5:0 6:0 7:0.3 8:0 9:0 10:0 11:0 12:3.8 13:0 
-10 0:3 1:0.2 2:0.0757 3:0.1 4:0.1 5:0.1 6:0.4 7:0.1 8:0 9:0 10:0 11:0 12:5.5 13:1 
-10 0:2.3 1:0.2 2:0.0816 3:0 4:0 5:0 6:0.1 7:0 8:0 9:0 10:0 11:0 12:4 13:0 
-10 0:5.3 1:0.4 2:0.1767 3:1 4:1 5:0.2 6:0.3 7:0 8:0 9:0.1 10:0 11:0 12:5 13:0 
-1.5881652441475034 0:3.4 1:0.2 2:0.2577 3:0.1 4:0.1 5:0.1 6:0.6 7:0.1 8:0 9:0 10:0 11:0 12:5 13:0 
-10 0:5 1:0.2 2:0.0763 3:0.1 4:0.1 5:0.2 6:0.1 7:0.4 8:0 9:0 10:0 11:0 12:3.8 13:0 
-10 0:7.5 1:0.1 2:0.0208 3:0.3 4:0.3 5:0.3 6:0.3 7:0 8:0 9:0.1 10:0 11:0 12:5 13:0 
