svm_type c_svc
kernel_type rbf
gamma 0.0001
nr_class 2
total_sv 252
rho -0.70680002664742303
label 0 1
probA -6.2774385622041925e+66
probB -6.2774385622041925e+66
nr_sv 132 120
SV
10 0:6.6 1:0.1 2:0.1991 3:0.1 4:0.1 5:0.1 6:0.8 7:0.1 8:0 9:0 10:0.7045 11:0 12:4 13:0 
10 0:3.9 1:0.2 2:0.1306 3:0 4:0 5:0.4 6:0.5 7:0 8:0 9:0 10:0 11:0 12:5 13:0 
10 0:5.7 1:0.2 2:0.1257 3:0.5 4:0.5 5:0 6:0 7:0.5 8:0.1 9:0.1 10:0 11:0 12:4 13:0.2 
10 0:2.4 1:0.2 2:0.2011 3:0.8 4:0.8 5:0.1 6:0.6 7:0.1 8:0 9:0 10:1.3175 11:0 12:3.8 13:0 
10 0:2.8 1:0.2 2:0.1675 3:0.1 4:0.1 5:0 6:0.6 7:0.3 8:0 9:0 10:0 11:0 12:7 13:0 
10 0:3.1 1:0.2 2:0.2248 3:0 4:0 5:0 6:0.1 7:0 8:0 9:0.1 10:0 11:0.704 12:4 13:0 
10 0:3 1:0.2 2:0.1441 3:0 4:0 5:0.1 6:0.3 7:0.1 8:0 9:0 10:0 11:0.87 12:4.5 13:0 
7.1655078821596465 0:3.1 1:0.2 2:0.1157 3:1 4:1 5:0 6:0.3 7:0 8:0 9:0.1 10:0 11:0 12:8 13:0.5 
10 0:3.4 1:0.2 2:0.118 3:0.3 4:0.3 5:0 6:0.3 7:0 8:0 9:0 10:2.4325 11:0 12:6 13:0 
10 0:5.7 1:0.3 2:0.2519 3:0.1 4:0.1 5:0 6:0 7:0 8:0 9:0 10:0 11:1.129 12:4 13:0 
10 0:3.2 1:0.2 2:0.1089 3:0.5 4:0.5 5:0.2 6:0.4 7:0.5 8:0 9:0 10:0 11:0 12:4 13:3.5 
10 0:3.6 1:0.2 2:0.024 3:0 4:0 5:0.1 6:0.1 7:0.1 8:0 9:0 10:0 11:0 12:4 13:0 
10 0:3.5 1:0.2 2:0.1049 3:0.1 4:0.1 5:0 6:0.2 7:0 8:0 9:0 10:0 11:0 12:4 13:0 
10 0:4.7 1:0.2 2:0.126 3:0.1 4:0.1 5:0.1 6:0.6 7:0.1 8:0.1 9:0 10:0 11:0 12:4 13:0 
7.7425991359955812 0:5 1:0.2 2:0.1202 3:1.2 4:1.2 5:0.1 6:0.6 7:0.1 8:0 9:0 10:0 11:0 12:3.8 13:0 
10 0:2.3 1:0.2 2:0.1318 3:0 4:0 5:0 6:0.1 7:0.4 8:0 9:0 10:0 11:0 12:4 13:0 
10 0:5.3 1:0.2 2:0.1864 3:0 4:0 5:0.2 6:0.1 7:0 8:0 9:0 10:0 11:0 12:7 13:0 
5.7753461523422063 0:1.7 1:0.1 2:0.0408 3:1.2 4:1.2 5:0 6:0 7:0.3 8:0 9:0 10:0 11:0 12:1 13:0 
10 0:2.3 1:0.5 2:0.1337 3:0.1 4:0.1 5:0 6:0.5 7:0 8:0 9:0 10:0 11:0 12:3 13:0 
10 0:5.3 1:0.2 2:0.113 3:0.5 4:0.5 5:0 6:0.6 7:0 8:0 9:0 10:0 11:0 12:4 13:0 
10 0:6 1:0.2 2:0.1066 3:0.5 4:0.5 5:0.2 6:0 7:0 8:0 9:0.1 10:0 11:0 12:4 13:0 
10 0:6.6 1:0.2 2:0.0671 3:0.1 4:0.1 5:0.6 6:0 7:0 8:0 9:0.1 10:0 11:0 12:4 13:0 
10 0:4.5 1:0.2 2:0.2526 3:0 4:0 5:0 6:0.3 7:0 8:0 9:0 10:0 11:0 12:4.6 13:0 
10 0:6.3 1:0.5 2:0.0373 3:0.1 4:0.1 5:0.1 6:0.5 7:0.1 8:0 9:0 10:0 11:0 12:4 13:0 
10 0:2.5 1:0.3 2:0.098 3:0.1 4:0.1 5:0 6:0 7:0.3 8:0.1 9:0 10:0 11:0 12:4 13:0 
10 0:4.7 1:0.2 2:0.2066 3:0.5 4:0.5 5:0.1 6:0.1 7:0.1 8:0 9:0 10:0 11:0 12:4.5 13:0 
10 0:2.5 1:0.2 2:0.2065 3:0.1 4:0.1 5:0 6:0 7:0.3 8:0 9:0 10:0 11:0 12:3.6 13:0 
10 0:2.9 1:0.5 2:0.2787 3:0 4:0 5:0 6:0.5 7:0 8:0 9:0 10:0 11:0 12:4 13:0 
8.0653872578582373 0:2.6 1:0.2 2:0.0854 3:0 4:0 5:0 6:0.3 7:0 8:0.2 9:0 10:0 11:0 12:1.6 13:2.8 
10 0:5.6 1:0.4 2:0.1092 3:0.1 4:0.1 5:0.2 6:0 7:0 8:0 9:0.1 10:0 11:0 12:4.6 13:0 
2.4974286294646655 0:1.7 1:0.5 2:0.0705 3:1.5 4:1.5 5:0 6:0.5 7:0.3 8:0 9:0 10:0 11:0 12:4 13:0 
10 0:5.8 1:0.4 2:0.1091 3:0.1 4:0.1 5:0.1 6:0.8 7:0.1 8:0 9:0 10:0 11:0 12:4 13:0 
10 0:5.7 1:0.2 2:0.0705 3:0.1 4:0.1 5:0 6:0.5 7:0.4 8:0 9:0.1 10:0 11:0 12:4 13:0 
10 0:2.5 1:0.2 2:0.0613 3:0 4:0 5:0 6:0.1 7:0.3 8:0 9:0 10:0 11:0 12:4 13:0 
10 0:3.7 1:0.2 2:0.024 3:0.1 4:0.1 5:0.2 6:0.6 7:0 8:0 9:0 10:0 11:0.8345 12:5.5 13:0 
10 0:3.9 1:0.2 2:0.122 3:0.1 4:0.1 5:0 6:0.6 7:0.3 8:0 9:0 10:0 11:0 12:4 13:0 
10 0:4.2 1:0.2 2:0.1315 3:0.1 4:0.1 5:0.1 6:0 7:0.2 8:0 9:0.1 10:0 11:0 12:5.3 13:0 
10 0:3.5 1:0.2 2:0.016 3:0.1 4:0.1 5:0 6:0.6 7:0 8:0 9:0 10:0 11:0 12:7 13:0 
10 0:4.7 1:0 2:0.0208 3:0.5 4:0.5 5:0.1 6:0.3 7:0.1 8:0 9:0 10:0 11:0 12:5 13:0 
10 0:4.1 1:0.4 2:0.015 3:0.3 4:0.3 5:0.2 6:0.3 7:0.4 8:0 9:0.1 10:0 11:0 12:6 13:0 
10 0:4.7 1:0.2 2:0.222 3:0.7 4:0.7 5:0.1 6:0.6 7:0.1 8:0 9:0 10:2.5065 11:0 12:4 13:0 
10 0:5.8 1:0.2 2:0.1273 3:0.1 4:0.1 5:0.1 6:0.9 7:0.1 8:0 9:0 10:0 11:0 12:4 13:0 
10 0:3 1:0.2 2:0.0131 3:0.5 4:0.5 5:0 6:0 7:0 8:0 9:0 10:0 11:0 12:4.8 13:0 
10 0:7.5 1:0.2 2:0.0692 3:1.2 4:1.2 5:0.6 6:1.3 7:0 8:0 9:0.1 10:0 11:0 12:7 13:0 
10 0:6.6 1:0.5 2:0.08 3:0.2 4:0.2 5:0.1 6:0.5 7:0.1 8:0 9:0 10:0 11:0 12:4 13:0 
10 0:6.1 1:0.5 2:0.0771 3:0 4:0 5:0.1 6:0.5 7:0.1 8:0 9:0 10:0 11:0 12:5.5 13:0 
10 0:4.7 1:0.2 2:0.2025 3:0.1 4:0.1 5:0.1 6:0.5 7:0.1 8:0 9:0 10:0 11:0 12:4 13:0 
10 0:3.8 1:0.2 2:0.1884 3:0.1 4:0.1 5:0.1 6:0.6 7:0.1 8:0 9:0 10:0 11:0 12:5 13:0 
4.5185220417259462 0:5.1 1:0.2 2:0.1835 3:0.4 4:0.4 5:0.1 6:0.7 7:0.1 8:0 9:0 10:0 11:0 12:4 13:0 
10 0:4.2 1:0.2 2:0.1155 3:0.1 4:0.1 5:0.1 6:0.5 7:0.1 8:0 9:0 10:0 11:0 12:4.8 13:0 
10 0:6 1:0.2 2:0.0842 3:0.5 4:0.5 5:0.1 6:0.6 7:0.1 8:0 9:0 10:0 11:0 12:4.5 13:0 
10 0:6.4 1:0.4 2:0.1807 3:0.1 4:0.1 5:0.2 6:0 7:0 8:0 9:0.1 10:0 11:0 12:3.5 13:0 
10 0:3.5 1:0.1 2:0.141 3:0.8 4:0.8 5:0.1 6:0.8 7:0.1 8:0 9:0 10:0 11:0 12:7.5 13:0 
1.0516176359967093 0:4.7 1:0.1 2:0.0524 3:0.3 4:0.3 5:0.2 6:0.3 7:0 8:0 9:0 10:0 11:0 12:4 13:0 
10 0:2.4 1:0.2 2:0.2397 3:0 4:0 5:0 6:0.9 7:0 8:0 9:0 10:0 11:0 12:6.5 13:0 
10 0:4.8 1:0.2 2:0.2039 3:1.5 4:1.5 5:0.4 6:0 7:0.3 8:0.1 9:0.1 10:0 11:0 12:4 13:0 
6.5623618409714242 0:4.4 1:0.2 2:0.2534 3:0.1 4:0.1 5:0.1 6:0.7 7:0.1 8:0 9:0 10:0 11:0 12:4 13:0 
10 0:6.5 1:0.2 2:0.0614 3:0.7 4:0.7 5:0.1 6:0.8 7:0.1 8:0 9:0 10:3.3835 11:0 12:6 13:0 
10 0:2.8 1:0.3 2:0.1244 3:0.6 4:0.6 5:0.1 6:0 7:0.1 8:0 9:0 10:0 11:0 12:6 13:0 
3.4612563854433613 0:5.5 1:0.2 2:0.1543 3:0 4:0 5:0.6 6:0 7:0.4 8:0 9:0.1 10:0 11:0 12:4 13:0 
10 0:4.9 1:0.4 2:0.0231 3:0 4:0 5:0 6:0.3 7:0.3 8:0 9:0.1 10:0 11:0 12:5 13:0 
10 0:3.4 1:0.1 2:0.2085 3:0 4:0 5:0.1 6:0.5 7:0.1 8:0.2 9:0 10:0 11:0 12:6 13:0.5 
10 0:4.2 1:0.2 2:0.0476 3:0.1 4:0.1 5:0.1 6:0.2 7:0.1 8:0 9:0 10:0 11:0 12:4 13:0 
10 0:6.4 1:0.1 2:0.1208 3:0.1 4:0.1 5:0 6:0.4 7:0 8:0 9:0 10:0.5275 11:0 12:4 13:0 
10 0:4.5 1:0.2 2:0.2306 3:0.1 4:0.1 5:0 6:0.5 7:0 8:0.1 9:0 10:0 11:0 12:4 13:0 
10 0:3.6 1:0.2 2:0.1254 3:0.5 4:0.5 5:0.1 6:0 7:0.1 8:0 9:0 10:0 11:0 12:5.2 13:0 
10 0:6.3 1:0.3 2:0.1481 3:0.5 4:0.5 5:0.2 6:0.1 7:0.4 8:0 9:0.1 10:0 11:0 12:4 13:0 
10 0:6.4 1:0.4 2:0.0536 3:0.1 4:0.1 5:0.2 6:0 7:0 8:0 9:0.1 10:0 11:0 12:4 13:0 
7.6363809455447074 0:3.9 1:0.2 2:0.0231 3:0 4:0 5:0.2 6:0.1 7:0.4 8:0 9:0.1 10:0 11:0 12:4.8 13:0 
10 0:4.2 1:0.1 2:0.1499 3:0 4:0 5:0.1 6:0.8 7:0.1 8:0 9:0 10:0 11:0 12:4.5 13:0 
10 0:3.8 1:0.4 2:0.0842 3:0 4:0 5:0 6:0.1 7:0.4 8:0.2 9:0 10:0 11:0.8705 12:4 13:3.6 
10 0:1.9 1:0.2 2:0.165 3:0.5 4:0.5 5:0 6:0.5 7:0.3 8:0 9:0.1 10:0 11:0.801 12:1 13:0 
10 0:4.8 1:0.2 2:0.0812 3:0.1 4:0.1 5:0.1 6:0.6 7:0.1 8:0 9:0 10:0 11:0 12:4 13:0 
10 0:2.3 1:0.2 2:0.1337 3:0.5 4:0.5 5:0.1 6:0.9 7:0.1 8:0 9:0 10:0 11:0.951 12:4 13:0 
10 0:2.9 1:0.4 2:0.0729 3:1 4:1 5:0 6:0.3 7:0 8:0 9:0.1 10:0 11:0 12:7 13:0 
0.010502742101345622 0:1.8 1:0.5 2:0.0817 3:0.2 4:0.2 5:0 6:0.5 7:0.3 8:0 9:0 10:0 11:0 12:2.7 13:0 
10 0:1.8 1:0.2 2:0.1371 3:0.1 4:0.1 5:0 6:0.2 7:0.3 8:0 9:0.1 10:0 11:0.8595 12:1.5 13:0 
10 0:1.8 1:0.5 2:0.2352 3:0.2 4:0.2 5:0 6:0.5 7:0.3 8:0 9:0 10:0 11:0 12:1.5 13:0 
10 0:4.1 1:0.1 2:0.0882 3:0.1 4:0.1 5:0.1 6:0.4 7:0.1 8:0 9:0 10:0 11:0 12:6 13:0 
10 0:4.3 1:0.1 2:0.2373 3:0 4:0 5:0.2 6:0.1 7:0 8:0 9:0 10:0 11:0 12:6 13:0 
10 0:9 1:0.2 2:0.0356 3:0.5 4:0.5 5:0 6:0.4 7:0 8:0.2 9:0 10:0 11:0 12:3.5 13:0 
7.2411431848685854 0:4 1:0.2 2:0.0203 3:0 4:0 5:0.1 6:0 7:0.2 8:0 9:0.1 10:0 11:0 12:4 13:0 
10 0:4.1 1:0.2 2:0.0751 3:0 4:0 5:0.1 6:0.1 7:0.1 8:0 9:0 10:0 11:0 12:4 13:0 
10 0:5.8 1:0.6 2:0.1294 3:0.1 4:0.1 5:0 6:0.5 7:0 8:0 9:0 10:0 11:0 12:4.7 13:0 
10 0:5.6 1:0.2 2:0.0526 3:0.2 4:0.2 5:0.1 6:0.8 7:0.1 8:0 9:0 10:0 11:0 12:5 13:0 
10 0:3.5 1:0.2 2:0.1353 3:0.2 4:0.2 5:0.4 6:0.7 7:0 8:0 9:0 10:0 11:0 12:9 13:0 
4.7642542316427825 0:4.1 1:0.2 2:0.1092 3:0.2 4:0.2 5:0.3 6:0.9 7:0 8:0 9:0 10:0 11:0 12:4 13:2.6 
10 0:1.8 1:0.2 2:0.4587 3:0.4 4:0.4 5:0 6:0.2 7:0.3 8:0 9:0 10:0.297 11:0 12:4 13:0 
0.22272535409318062 0:2.5 1:0.3 2:0.1408 3:0.5 4:0.5 5:0 6:0.1 7:0 8:0.1 9:0 10:0 11:0 12:4 13:0 
10 0:6.7 1:0.5 2:0.1253 3:0.2 4:0.2 5:0.1 6:0.5 7:0.1 8:0 9:0 10:0 11:0.2095 12:0.3 13:0 
10 0:3.4 1:0.2 2:0.1076 3:0 4:0 5:0.1 6:0.1 7:0.1 8:0 9:0 10:0 11:0 12:7 13:0 
1.7438604356096141 0:2.8 1:0.2 2:0.029 3:0.1 4:0.1 5:0 6:0.2 7:0.3 8:0 9:0 10:0 11:0 12:4 13:0 
10 0:3.3 1:0.2 2:0.0728 3:0.7 4:0.7 5:0 6:0 7:0 8:0 9:0 10:0 11:0 12:4.5 13:0 
10 0:3.7 1:0.2 2:0.5153 3:0.4 4:0.4 5:0.1 6:0.2 7:0.1 8:0 9:0 10:1.8905 11:0 12:5 13:0.4 
7.6294961569462529 0:6.1 1:0.4 2:0.1304 3:0 4:0 5:0.4 6:0.3 7:0 8:0 9:0 10:0 11:0 12:3 13:0.5 
10 0:7.4 1:0.5 2:0.2316 3:0.4 4:0.4 5:0.1 6:0.5 7:0.1 8:0 9:0 10:1.7355 11:0 12:4 13:0 
9.5307465705640784 0:5.5 1:0.2 2:0.0458 3:0.9 4:0.9 5:0 6:0.3 7:0 8:0 9:0 10:0 11:0 12:4 13:0.8 
10 0:4.2 1:0.2 2:0.0566 3:0.5 4:0.5 5:0.2 6:0.1 7:0 8:0 9:0 10:0 11:0.704 12:4 13:0 
10 0:3.9 1:0.5 2:0.0706 3:0.1 4:0.1 5:0 6:0.5 7:0 8:0 9:0 10:0 11:0.795 12:4 13:0 
10 0:3.7 1:0.2 2:0.0444 3:0 4:0 5:0.1 6:0.8 7:0.1 8:0 9:0 10:0 11:0 12:5 13:0 
10 0:3.6 1:0.4 2:0.1643 3:0 4:0 5:0.1 6:0 7:0.1 8:0 9:0 10:0 11:0 12:4 13:0 
10 0:2.2 1:0.2 2:0.129 3:0 4:0 5:0 6:0.3 7:0 8:0 9:0 10:0 11:0 12:5.5 13:0 
10 0:3.5 1:0.2 2:0.0756 3:0.5 4:0.5 5:0.1 6:0.2 7:0.1 8:0 9:0 10:0 11:0.7895 12:4 13:0 
4.9555757107673104 0:2 1:0.2 2:0.1643 3:0.1 4:0.1 5:0 6:0.2 7:0 8:0 9:0 10:0 11:0 12:4.5 13:0 
10 0:2.5 1:0.2 2:0.2054 3:1.5 4:1.5 5:0 6:0.9 7:0 8:0 9:0 10:0 11:0.8705 12:4 13:0 
10 0:7 1:0.2 2:0.089 3:0.8 4:0.8 5:0.1 6:0.4 7:0.1 8:0 9:0 10:0 11:0 12:2.5 13:0 
10 0:5.4 1:0.2 2:0.1247 3:0.5 4:0.5 5:0.1 6:0.5 7:0.1 8:0 9:0 10:1.5685 11:0 12:5 13:0 
10 0:4.5 1:0.2 2:0.2245 3:0.1 4:0.1 5:0 6:0 7:0 8:0 9:0 10:1.6625 11:0 12:4 13:0 
8.3584503655171929 0:5.1 1:0.2 2:0.0282 3:1.2 4:1.2 5:0.1 6:0.4 7:0.1 8:0 9:0 10:0 11:0 12:4 13:0.4 
10 0:3.6 1:0.4 2:0.2166 3:0.5 4:0.5 5:0.2 6:0 7:0.4 8:0 9:0.1 10:0 11:0 12:6.5 13:0 
10 0:5 1:0.2 2:0.123 3:0.5 4:0.5 5:0 6:0.8 7:0 8:0 9:0 10:0 11:0 12:4 13:0 
10 0:3.5 1:0.2 2:0.0926 3:0.1 4:0.1 5:0 6:0.5 7:0 8:0 9:0 10:0 11:0 12:4 13:0 
10 0:6.8 1:0.2 2:0.1128 3:0.1 4:0.1 5:0.6 6:0 7:0 8:0 9:0.1 10:0 11:1.103 12:3 13:0 
10 0:6.1 1:0.2 2:0.0564 3:0.4 4:0.4 5:0.1 6:0.9 7:0.1 8:0 9:0 10:0 11:0 12:4 13:0 
10 0:3.6 1:0.1 2:0.2004 3:0.1 4:0.1 5:0.1 6:0.8 7:0.1 8:0 9:0 10:0 11:0 12:8.4 13:0 
5.2063972108796577 0:3.5 1:0.2 2:0.2419 3:1 4:1 5:0.1 6:0.5 7:0.1 8:0.2 9:0 10:0 11:0 12:3.5 13:2.7 
3.5397845655794606 0:3.9 1:0 2:0.1817 3:0.1 4:0.1 5:0 6:0.4 7:0 8:0.1 9:0 10:0 11:0 12:4 13:0 
10 0:6.1 1:0.2 2:0.2415 3:0.4 4:0.4 5:0.1 6:0.9 7:0.1 8:0.1 9:0 10:0 11:0 12:2 13:3.3 
10 0:5.4 1:0.4 2:0.0935 3:0.5 4:0.5 5:0.2 6:0 7:0.4 8:0 9:0.1 10:0 11:0 12:4 13:0 
10 0:1.9 1:0.2 2:0.1163 3:0.1 4:0.1 5:0 6:0.5 7:0.3 8:0 9:0 10:0 11:0 12:0.3 13:0 
9.1880527014293083 0:4.8 1:0.2 2:0.1406 3:0.1 4:0.1 5:0.2 6:0 7:0.4 8:0 9:0.1 10:0 11:0 12:3.7 13:0 
10 0:6 1:0.1 2:0.1524 3:0.1 4:0.1 5:0.1 6:0.5 7:0.1 8:0 9:0 10:0 11:0 12:4 13:0 
9.9961290403741696 0:4.8 1:0.2 2:0.0548 3:0.1 4:0.1 5:0.2 6:0.9 7:0 8:0 9:0.1 10:0 11:0 12:5.5 13:0 
10 0:4.2 1:0.2 2:0.1302 3:0 4:0 5:0.2 6:0.5 7:0 8:0 9:0 10:0 11:0.795 12:4 13:0 
10 0:6.9 1:0.6 2:0.047 3:0 4:0 5:0.1 6:0.9 7:0.1 8:0 9:0 10:1.909 11:0 12:3 13:0 
10 0:5.5 1:0.2 2:0.0451 3:0.1 4:0.1 5:0.4 6:0.2 7:0.4 8:0 9:0 10:0 11:0 12:4 13:0 
10 0:4.1 1:0.2 2:0.133 3:0.5 4:0.5 5:0.1 6:0.5 7:0.1 8:0 9:0 10:0 11:0 12:5 13:0 
0.013037603864403242 0:1.8 1:0.2 2:0.1568 3:0.2 4:0.2 5:0 6:0 7:0 8:0 9:0 10:0 11:0 12:4 13:0 
10 0:7.5 1:0.5 2:0.112 3:0.4 4:0.4 5:0.1 6:0.5 7:0.1 8:0.1 9:0 10:0.7045 11:0 12:0.5 13:0 
10 0:5.5 1:0.2 2:0.0986 3:0.1 4:0.1 5:0.2 6:0 7:0 8:0 9:0.1 10:0 11:0 12:4 13:0 
3.12343621826016 0:5.2 1:0.1 2:0.1646 3:0.8 4:0.8 5:0.1 6:0.6 7:0.1 8:0.3 9:0 10:0 11:0 12:4 13:0 
10 0:3.8 1:0.2 2:0.1757 3:0.1 4:0.1 5:0.2 6:0.1 7:0 8:0 9:0 10:0 11:0 12:5 13:0 
-10 0:7.2 1:0.2 2:0.0504 3:0.4 4:0.4 5:0.1 6:0.1 7:0.2 8:0.2 9:0.1 10:0 11:0 12:4.8 13:0 
-10 0:3.9 1:0.2 2:0.3431 3:0.3 4:0.3 5:0.1 6:0.1 7:0.1 8:0 9:0 10:0 11:0 12:4 13:0.1 
-10 0:4.7 1:0.2 2:0.1323 3:0.7 4:0.7 5:0.1 6:0.9 7:0.1 8:0 9:0 10:0 11:0 12:4 13:0 
-10 0:3.2 1:0.2 2:0.1438 3:0.6 4:0.6 5:0.1 6:0.1 7:0.2 8:0 9:0.1 10:0 11:0.7425 12:4 13:0 
-10 0:6.3 1:0.1 2:0.1138 3:0.5 4:0.5 5:0.1 6:0.3 7:0.2 8:0 9:0.1 10:10.0255 11:0 12:1 13:0 
-10 0:3.6 1:0.2 2:0.057 3:0.5 4:0.5 5:0.1 6:0.1 7:0.1 8:0 9:0 10:0 11:0 12:4 13:0 
-10 0:2.7 1:0.1 2:0.1415 3:0 4:0 5:0.1 6:0.1 7:0.1 8:0 9:0 10:0 11:0 12:6 13:0 
-10 0:2.8 1:0.2 2:0.2064 3:0.1 4:0.1 5:0.1 6:0.6 7:0.1 8:0 9:0 10:0 11:0.924 12:4.2 13:0 
-10 0:5.3 1:0.2 2:0.2057 3:0 4:0 5:0.1 6:0.5 7:0.1 8:0 9:0 10:0 11:0 12:5 13:0 
-10 0:3.7 1:0 2:0.2494 3:0.7 4:0.7 5:0 6:0.3 7:0 8:0 9:0 10:4.307 11:0 12:4 13:0 
-10 0:4.2 1:0.4 2:0.0756 3:0.3 4:0.3 5:0.1 6:0.1 7:0.1 8:0 9:0 10:0 11:0.9885 12:4 13:0 
-10 0:4.6 1:0.2 2:0.0202 3:0.1 4:0.1 5:0.1 6:0.1 7:0.1 8:0 9:0 10:0 11:0 12:4 13:0 
-10 0:3.7 1:0.2 2:0.0585 3:0 4:0 5:0.1 6:0.4 7:0.2 8:0.2 9:0.1 10:0 11:0 12:3 13:0 
-10 0:5.1 1:0.4 2:0.0904 3:0.5 4:0.5 5:0.1 6:0.1 7:0.1 8:0.1 9:0 10:0 11:0 12:4 13:0 
-10 0:3.6 1:0.4 2:0.086 3:0.5 4:0.5 5:0.1 6:1.1 7:0.1 8:0 9:0 10:0 11:0 12:4 13:0 
-10 0:3.4 1:0.2 2:0.1071 3:0 4:0 5:0.1 6:0.1 7:0.1 8:0 9:0 10:0 11:0 12:4 13:0 
-10 0:3.7 1:0.2 2:0.0334 3:0.3 4:0.3 5:0.1 6:0.1 7:0.1 8:0 9:0 10:0 11:0 12:6 13:0 
-10 0:5.1 1:0.6 2:0.1415 3:0.6 4:0.6 5:0.1 6:0.5 7:0.1 8:0 9:0 10:0 11:0 12:3.8 13:0 
-10 0:3.1 1:0.3 2:0.1408 3:0.1 4:0.1 5:0.1 6:0 7:0.2 8:0 9:0.1 10:0 11:0 12:4 13:0 
-10 0:3.7 1:0.2 2:0.0837 3:0.1 4:0.1 5:0.1 6:0.4 7:0.1 8:0 9:0 10:0 11:0 12:4.4 13:0 
-10 0:4.2 1:0.2 2:0.0228 3:0.6 4:0.6 5:0.1 6:0.5 7:0.1 8:0 9:0 10:0 11:0 12:4.5 13:0 
-10 0:5.1 1:0.2 2:0.1191 3:0 4:0 5:0.1 6:0.5 7:0.1 8:0 9:0 10:0 11:0 12:4.7 13:0 
-10 0:4.9 1:0.2 2:0.1142 3:0.5 4:0.5 5:0.1 6:0.6 7:0.1 8:0 9:0 10:0 11:0.7425 12:4 13:0 
-10 0:5.2 1:0.2 2:0.181 3:0.5 4:0.5 5:0.1 6:0.3 7:0.1 8:0 9:0 10:0 11:0 12:4.5 13:0 
-10 0:4.7 1:0 2:0.1522 3:0 4:0 5:0.2 6:0.1 7:0 8:0 9:0.1 10:0 11:0 12:4 13:0 
-10 0:4.2 1:0.2 2:0.1452 3:0.1 4:0.1 5:0.1 6:0.6 7:0.1 8:0 9:0 10:0 11:0.9435 12:4 13:0 
-10 0:6.6 1:0.2 2:0.0995 3:0.5 4:0.5 5:0.1 6:0.5 7:0.1 8:0 9:0 10:2.778 11:0 12:4 13:0 
-10 0:3 1:0.2 2:0.1381 3:0.1 4:0.1 5:0.1 6:1.1 7:0.1 8:0 9:0 10:0 11:0 12:6 13:0 
-10 0:4.5 1:0.2 2:0.018 3:0.5 4:0.5 5:0.1 6:0 7:0.2 8:0 9:0.1 10:0 11:0.951 12:3.5 13:0 
-10 0:4.4 1:0.4 2:0.0986 3:0.1 4:0.1 5:0.1 6:0.4 7:0.2 8:0.1 9:0.1 10:0 11:0 12:3.8 13:0.2 
-10 0:4.6 1:0.2 2:0.0716 3:0 4:0 5:0.1 6:0.1 7:0.1 8:0 9:0 10:0 11:0 12:5 13:0 
-10 0:4.4 1:0.2 2:0.0996 3:0.3 4:0.3 5:0.1 6:0.3 7:0.1 8:0 9:0 10:0 11:0.9435 12:3.5 13:0 
-10 0:3.3 1:0.6 2:0.137 3:0 4:0 5:0.1 6:0.5 7:0.1 8:0 9:0 10:0 11:0 12:5 13:0 
-10 0:5.7 1:0.6 2:0.081 3:0.3 4:0.3 5:0.1 6:0.5 7:0.1 8:0 9:0 10:7.512 11:0 12:6.5 13:0 
-10 0:4.7 1:0.1 2:0.0823 3:1.1 4:1.1 5:0.1 6:0.5 7:0.1 8:0 9:0 10:0 11:0 12:5.5 13:1.3 
-10 0:4.1 1:0.2 2:0.1495 3:0.1 4:0.1 5:0.1 6:0.1 7:0.1 8:0 9:0 10:3.649 11:0 12:4 13:0 
-10 0:4.7 1:0.5 2:0.2252 3:0.1 4:0.1 5:0.1 6:0.5 7:0.2 8:0 9:0.1 10:0 11:0 12:0.8 13:0 
-10 0:4.5 1:0.2 2:0.1646 3:0 4:0 5:0.1 6:0.1 7:0.1 8:0 9:0 10:0 11:0 12:4 13:0 
-10 0:2.7 1:0.2 2:0.2439 3:0 4:0 5:0.1 6:0.3 7:0.2 8:0 9:0.1 10:0 11:0 12:4 13:0 
-10 0:3.7 1:0.2 2:0.1369 3:0.6 4:0.6 5:0.1 6:0.9 7:0.1 8:0 9:0 10:0 11:0 12:4 13:0 
-10 0:5.4 1:0.1 2:0.122 3:0 4:0 5:0.1 6:0.1 7:0.1 8:0 9:0 10:0 11:0 12:4.5 13:0 
-10 0:3.6 1:0.2 2:0.2674 3:0.6 4:0.6 5:0.1 6:0.1 7:0.2 8:0 9:0.1 10:0 11:0 12:5 13:0 
-10 0:3.4 1:0.2 2:0.1658 3:0 4:0 5:0.1 6:0.3 7:0.1 8:0 9:0 10:0 11:0 12:4 13:0.5 
-10 0:4.1 1:0.1 2:0.2979 3:0.3 4:0.3 5:0.2 6:0.5 7:0.4 8:0 9:0 10:0 11:0 12:0.5 13:0 
-10 0:6.3 1:0.6 2:0.0367 3:0.3 4:0.3 5:0.1 6:0.5 7:0.1 8:0 9:0 10:0 11:0 12:6.8 13:0 
-10 0:5 1:0.2 2:0.1065 3:0.2 4:0.2 5:0.1 6:0.7 7:0.1 8:0 9:0 10:0 11:0 12:7 13:0 
-10 0:4.9 1:0.2 2:0.1455 3:0.5 4:0.5 5:0.1 6:0.6 7:0.1 8:0 9:0 10:0 11:0 12:4 13:0 
-10 0:5 1:0.2 2:0.0932 3:0 4:0 5:0.1 6:0 7:0.2 8:0 9:0.1 10:0 11:0 12:4 13:0 
-10 0:4.7 1:0.2 2:0.1438 3:0.1 4:0.1 5:0.1 6:0.9 7:0.2 8:0.1 9:0.1 10:0 11:0 12:4 13:0 
-10 0:4.5 1:0.2 2:0.2437 3:0.1 4:0.1 5:0.1 6:0.7 7:0.1 8:0 9:0 10:0 11:0 12:4 13:0 
-10 0:6 1:0.5 2:0.0895 3:1.1 4:1.1 5:0.1 6:0.5 7:0.1 8:0 9:0 10:0 11:0 12:3 13:0 
-10 0:3.3 1:0.2 2:0.0864 3:0.5 4:0.5 5:0.1 6:0.5 7:0.1 8:0 9:0 10:0 11:0 12:4.8 13:0 
-10 0:4.5 1:0.2 2:0.0966 3:0.3 4:0.3 5:0.1 6:0.1 7:0.1 8:0 9:0 10:0 11:0 12:5 13:0 
-10 0:3.2 1:0.4 2:0.1514 3:0 4:0 5:0.4 6:0.3 7:0 8:0 9:0.1 10:0 11:0 12:5 13:0 
-10 0:4.2 1:0.2 2:0.0674 3:0.6 4:0.6 5:0.1 6:0 7:0.2 8:0.1 9:0.1 10:0 11:0 12:4 13:0 
-10 0:5.9 1:0.1 2:0.1182 3:0 4:0 5:0.1 6:0.5 7:0.1 8:0 9:0 10:7.512 11:0 12:4 13:0 
-10 0:3.5 1:0.2 2:0.1211 3:0.7 4:0.7 5:0.1 6:0.5 7:0.1 8:0 9:0 10:0 11:0 12:5 13:1 
-10 0:6 1:0.2 2:0.141 3:0.1 4:0.1 5:0.1 6:1 7:0.2 8:0 9:0.1 10:0 11:0 12:4 13:0 
-10 0:3.7 1:0 2:0.1089 3:0 4:0 5:0.1 6:0.3 7:0.1 8:0 9:0 10:0 11:0 12:5.5 13:0 
-10 0:3.8 1:0.3 2:0.2298 3:1 4:1 5:0.1 6:0.3 7:0.1 8:0 9:0 10:0 11:0.9885 12:5 13:0 
-10 0:5.1 1:0.2 2:0.1388 3:0.7 4:0.7 5:0.1 6:0.2 7:0.1 8:0 9:0 10:0 11:0 12:4 13:0 
-10 0:4.5 1:0.2 2:0.1639 3:0.6 4:0.6 5:0.1 6:0.6 7:0.1 8:0 9:0 10:0 11:0 12:4.5 13:0 
-10 0:5.1 1:0.2 2:0.087 3:0.5 4:0.5 5:0.1 6:0.6 7:0.1 8:0 9:0 10:0 11:0 12:4 13:0 
-10 0:4.4 1:0.3 2:0.1627 3:0 4:0 5:0.1 6:0 7:0.1 8:0.2 9:0 10:0 11:0 12:4 13:1.2 
-10 0:4.4 1:0.2 2:0.1195 3:0.9 4:0.9 5:0.1 6:0 7:0.1 8:0 9:0 10:0 11:0 12:5.5 13:0 
-10 0:6.3 1:0.6 2:0.1466 3:0.1 4:0.1 5:0.1 6:0.1 7:0.1 8:0 9:0 10:0 11:0 12:4 13:0 
-10 0:2.9 1:0.2 2:0.164 3:0.3 4:0.3 5:0.1 6:0.5 7:0.1 8:0 9:0 10:3.649 11:0 12:4 13:0 
-10 0:4.3 1:0.2 2:0.1084 3:0.5 4:0.5 5:0.1 6:0.5 7:0.1 8:0 9:0 10:0 11:0 12:5 13:0 
-10 0:3.1 1:0.2 2:0.1491 3:0.1 4:0.1 5:0.1 6:0.4 7:0.1 8:0 9:0 10:0 11:0 12:4 13:0.4 
-10 0:4.1 1:0.2 2:0.079 3:0.3 4:0.3 5:0.1 6:0.3 7:0.1 8:0.2 9:0 10:0 11:0 12:5.5 13:2 
-10 0:4.6 1:0.4 2:0.1468 3:0 4:0 5:0.1 6:0.3 7:0.1 8:0 9:0 10:0 11:0 12:3.5 13:0 
-10 0:5.2 1:0.2 2:0.193 3:0.5 4:0.5 5:0.1 6:0.6 7:0.1 8:0 9:0 10:0 11:0 12:4 13:0 
-10 0:4.5 1:0.2 2:0.1677 3:0 4:0 5:0.1 6:0.5 7:0.1 8:0 9:0 10:0 11:0.951 12:4 13:0 
-10 0:3 1:0.2 2:0.1293 3:0 4:0 5:0.1 6:0.4 7:0.2 8:0 9:0.1 10:0 11:0 12:4 13:0 
-10 0:5.3 1:0.2 2:0.1017 3:0 4:0 5:0.1 6:0.3 7:0.1 8:0 9:0 10:3.844 11:0 12:4 13:0 
-10 0:4.2 1:0.2 2:0.0186 3:0.5 4:0.5 5:0.3 6:0.3 7:0 8:0 9:0 10:0 11:0 12:4 13:0 
-10 0:2.6 1:0.2 2:0.0424 3:0 4:0 5:0.1 6:0.5 7:0.2 8:0 9:0.1 10:0 11:0 12:4 13:0 
-10 0:6.2 1:0 2:0.0225 3:0.3 4:0.3 5:0.1 6:0.3 7:0.1 8:0 9:0 10:0 11:0 12:6 13:0 
-10 0:4.5 1:0.4 2:0.1619 3:0.5 4:0.5 5:0.1 6:1.1 7:0.1 8:0 9:0 10:0 11:0 12:4 13:0 
-10 0:6.3 1:0.3 2:0.0665 3:0.3 4:0.3 5:0.1 6:0.1 7:0.1 8:0 9:0 10:0 11:0 12:5 13:0 
-10 0:3.9 1:0.2 2:0.0524 3:0 4:0 5:0.1 6:0.1 7:0.1 8:0 9:0 10:0 11:0.9435 12:5 13:0 
-10 0:5.3 1:0.3 2:0.1176 3:0.5 4:0.5 5:0.1 6:0.1 7:0.2 8:0.2 9:0.1 10:0 11:0.9435 12:4 13:1.2 
-10 0:2.3 1:0.1 2:0.1919 3:0.2 4:0.2 5:0.1 6:0.7 7:0.1 8:0 9:0 10:3.844 11:0 12:6 13:0 
-10 0:5.1 1:0.2 2:0.1302 3:0.5 4:0.5 5:0.1 6:0.1 7:0.1 8:0 9:0 10:0 11:0.9435 12:6.5 13:0 
-10 0:3.6 1:0.2 2:0.079 3:0.3 4:0.3 5:0.1 6:0.1 7:0.1 8:0.2 9:0 10:0 11:0 12:4 13:2 
-10 0:4.4 1:0.2 2:0.1347 3:0.3 4:0.3 5:0.1 6:0.1 7:0.1 8:0 9:0 10:7.512 11:0 12:4 13:0 
-10 0:2.9 1:0.2 2:0.1459 3:0 4:0 5:0.1 6:0.5 7:0.1 8:0 9:0 10:0 11:0 12:4 13:0 
-10 0:6.2 1:0.1 2:0.0915 3:1.5 4:1.5 5:0.1 6:0.6 7:0.1 8:0 9:0 10:0 11:0 12:4 13:0 
-10 0:3.1 1:0.2 2:0.1495 3:0 4:0 5:0 6:0.1 7:0 8:0 9:0.1 10:7.172 11:0 12:5 13:0 
-10 0:3.7 1:0.2 2:0.056 3:0 4:0 5:0.1 6:0.1 7:0.1 8:0 9:0 10:7.512 11:0 12:4 13:0 
-10 0:4.7 1:0.2 2:0.3273 3:0.1 4:0.1 5:0.1 6:0.4 7:0.1 8:0 9:0 10:0 11:0 12:4 13:0 
-10 0:3.6 1:0.2 2:0.1249 3:0.5 4:0.5 5:0.1 6:0.6 7:0.1 8:0 9:0 10:3.649 11:0 12:4.4 13:0 
-10 0:3.4 1:0.6 2:0.1463 3:0.3 4:0.3 5:0.4 6:0.3 7:0 8:0 9:0.1 10:2.3935 11:0 12:4 13:0 
-10 0:5.4 1:0.2 2:0.123 3:0.1 4:0.1 5:0.1 6:0.9 7:0.1 8:0 9:0 10:0 11:0 12:4 13:0.8 
-10 0:5.6 1:0.6 2:0.1438 3:0 4:0 5:0.1 6:0.5 7:0.1 8:0 9:0 10:7.512 11:0 12:5 13:0 
-10 0:3.3 1:0.1 2:0.2119 3:0 4:0 5:0.1 6:0.5 7:0.1 8:0 9:0 10:0 11:0 12:4.5 13:0 
-10 0:3 1:0.6 2:0.0533 3:0.1 4:0.1 5:0.1 6:0.1 7:0.1 8:0 9:0 10:0 11:0 12:6.5 13:0.9 
-10 0:5.3 1:0.2 2:0.1065 3:0.3 4:0.3 5:0 6:0.3 7:0 8:0 9:0.1 10:0 11:0.782 12:5.4 13:0 
-10 0:5.7 1:0.2 2:0.2356 3:0 4:0 5:0.1 6:0.1 7:0.1 8:0 9:0 10:0 11:0 12:4 13:0 
-10 0:4.8 1:0.2 2:0.0248 3:0.5 4:0.5 5:0.1 6:0.1 7:0.1 8:0 9:0 10:0 11:0 12:4 13:0 
-10 0:4.4 1:0.2 2:0.2216 3:0 4:0 5:0.2 6:0.1 7:0.4 8:0 9:0 10:0 11:1.2735 12:5 13:0 
-10 0:3.9 1:0.4 2:0.1046 3:0.3 4:0.3 5:0.1 6:0.3 7:0.1 8:0 9:0 10:0 11:0 12:4 13:0 
-10 0:6.6 1:0.5 2:0.1204 3:0 4:0 5:0.1 6:0.5 7:0.1 8:0 9:0 10:0 11:1.087 12:4 13:0 
-10 0:3.4 1:0.2 2:0.109 3:0.1 4:0.1 5:0.1 6:0.9 7:0.1 8:0 9:0 10:0 11:0 12:4.4 13:0 
-10 0:5.5 1:0.6 2:0.0843 3:1 4:1 5:0.1 6:0.3 7:0.1 8:0 9:0 10:0 11:1.2075 12:3.5 13:3.4 
-10 0:6 1:0.2 2:0.1634 3:0.1 4:0.1 5:0.1 6:0.6 7:0.1 8:0 9:0 10:3.649 11:0 12:4 13:0 
-10 0:6.1 1:0.1 2:0.1658 3:0.1 4:0.1 5:0.1 6:0.6 7:0.1 8:0 9:0 10:0 11:0 12:5.2 13:0 
-10 0:4.2 1:0 2:0.1995 3:0 4:0 5:0.1 6:0.1 7:0.1 8:0 9:0 10:0 11:0 12:5 13:0 
-10 0:3.8 1:0.2 2:0.0211 3:0.7 4:0.7 5:0.1 6:0.6 7:0.1 8:0 9:0 10:2.193 11:0 12:4 13:0 
-10 0:6.4 1:0.2 2:0.2169 3:0 4:0 5:0.1 6:0.1 7:0.1 8:0 9:0 10:7.512 11:0 12:4 13:0 
-10 0:3.9 1:0.2 2:0.0868 3:0.1 4:0.1 5:0.1 6:0.5 7:0.1 8:0 9:0 10:1.5515 11:0 12:4.4 13:0 
-10 0:3.9 1:0.1 2:0.1613 3:0.1 4:0.1 5:0.1 6:0.5 7:0.2 8:0.1 9:0.1 10:0 11:0 12:5.4 13:2.3 
-10 0:5 1:0.3 2:0.0137 3:0.3 4:0.3 5:0.1 6:1 7:0.1 8:0 9:0 10:0 11:0 12:4 13:0 
-10 0:3 1:0.2 2:0.2938 3:0.7 4:0.7 5:0.1 6:1 7:0.5 8:0 9:0.1 10:0 11:0 12:4 13:0.9 
-10 0:3.9 1:0.6 2:0.2241 3:0 4:0 5:0.1 6:0.5 7:0.1 8:0 9:0 10:0 11:1.2075 12:6 13:0 
-10 0:4.4 1:0.6 2:0.104 3:0 4:0 5:0.1 6:0.1 7:0.1 8:0 9:0 10:3.844 11:0 12:5.2 13:0 
-10 0:4 1:0.2 2:0.1257 3:0.9 4:0.9 5:0.1 6:0.3 7:0.1 8:0 9:0 10:0 11:0 12:4 13:0 
-10 0:5 1:0.2 2:0.0603 3:0 4:0 5:0.1 6:0.7 7:0.1 8:0 9:0 10:3.649 11:0 12:4 13:0 
-10 0:3.2 1:0.2 2:0.1076 3:0.5 4:0.5 5:0.1 6:0.1 7:0.1 8:0 9:0 10:0 11:0 12:6 13:0 
-10 0:5.7 1:0.2 2:0.14 3:0 4:0 5:0.1 6:0.5 7:0.1 8:0 9:0 10:0 11:0 12:4 13:0 
